{"learner":{"attributes":{"scikit_learn":"{\"_estimator_type\": \"regressor\"}"},"feature_names":[],"feature_types":[],"gradient_booster":{"model":{"gbtree_model_param":{"num_parallel_tree":"1","num_trees":"200"},"iteration_indptr":[0,1,2,3,4,5,6,7,8,9,10,11,12,13,14,15,16,17,18,19,20,21,22,23,24,25,26,27,28,29,30,31,32,33,34,35,36,37,38,39,40,41,42,43,44,45,46,47,48,49,50,51,52,53,54,55,56,57,58,59,60,61,62,63,64,65,66,67,68,69,70,71,72,73,74,75,76,77,78,79,80,81,82,83,84,85,86,87,88,89,90,91,92,93,94,95,96,97,98,99,100,101,102,103,104,105,106,107,108,109,110,111,112,113,114,115,116,117,118,119,120,121,122,123,124,125,126,127,128,129,130,131,132,133,134,135,136,137,138,139,140,141,142,143,144,145,146,147,148,149,150,151,152,153,154,155,156,157,158,159,160,161,162,163,164,165,166,167,168,169,170,171,172,173,174,175,176,177,178,179,180,181,182,183,184,185,186,187,188,189,190,191,192,193,194,195,196,197,198,199,200],"tree_info":[0,0,0,0,0,0,0,0,0,0,0,0,0,0,0,0,0,0,0,0,0,0,0,0,0,0,0,0,0,0,0,0,0,0,0,0,0,0,0,0,0,0,0,0,0,0,0,0,0,0,0,0,0,0,0,0,0,0,0,0,0,0,0,0,0,0,0,0,0,0,0,0,0,0,0,0,0,0,0,0,0,0,0,0,0,0,0,0,0,0,0,0,0,0,0,0,0,0,0,0,0,0,0,0,0,0,0,0,0,0,0,0,0,0,0,0,0,0,0,0,0,0,0,0,0,0,0,0,0,0,0,0,0,0,0,0,0,0,0,0,0,0,0,0,0,0,0,0,0,0,0,0,0,0,0,0,0,0,0,0,0,0,0,0,0,0,0,0,0,0,0,0,0,0,0,0,0,0,0,0,0,0,0,0,0,0,0,0,0,0,0,0,0,0,0,0,0,0,0,0],"trees":[{"base_weights":[-1.414713E-2,-2.6116303E-1,8.52459E-1,9.95122E-2,-4.105691E-1,6.0294116E-1,8.858921E-1,4.606299E-1,-5.609258E-1,7.2131145E-1,-3.75E-2,7.3636365E-1,9.276139E-2,5.8515286E-1,-6.5384614E-1,-2.6976743E-1,-7.878788E-1,9.142857E-2,4.4444445E-1,-1.0000001E-2,8.118812E-1,-8.1250004E-2,6.869159E-1,2.857143E-2,-9.5E-2,5.835544E-2,-7.286245E-1,-9.010067E-1,-4.9130434E-1,9.166667E-2,6.25E-2,8.571429E-2,3.6363637E-1,7.45E-1,-1.3333334E-1,-7.758621E-1,2.09375E-1,-8.630952E-1,-5E-1,-6.88E-1,-9.555085E-1,-1.495327E-1,-7.822581E-1,5E-2,-1.818182E-2,-1.6666668E-2,8.3333336E-2,8.5314685E-1,4.6551725E-1,-4.4444446E-2,2.857143E-2,-8.301887E-2,-1.6666668E-2,3.564815E-1,-9.52381E-2,-8.8271606E-1,-2.857143E-2,-2.8070176E-1,-7.6086956E-1,-4.1666666E-1,-9.242424E-2,-4E-1,-9.7161576E-2,-2.5263157E-1,6.1538465E-2,-9.026549E-1,4.1666666E-1,9.105691E-2,4.761905E-2,6.486487E-2,1.3636365E-2,4.968153E-2,-1.6666668E-3,6.410257E-3,-5.357143E-2,-9.4444446E-2,-6.486487E-2,-9.4736844E-2,5.1282053E-3,-8.684211E-2,-2.2222223E-2,-5.090909E-2,5E-2,-8.9999996E-2,5E-2,-3.875E-2,4.375E-2,-4.6153847E-2,-9.504951E-2,8.571429E-2,-1.6666668E-2],"categories":[],"categories_nodes":[],"categories_segments":[],"categories_sizes":[],"default_left":[0,0,0,0,0,0,0,0,0,0,0,0,0,0,0,0,0,0,0,0,0,0,0,0,0,0,0,0,0,0,0,0,0,0,0,0,0,0,0,0,0,0,0,0,0,0,0,0,0,0,0,0,0,0,0,0,0,0,0,0,0,0,0,0,0,0,0,0,0,0,0,0,0,0,0,0,0,0,0,0,0,0,0,0,0,0,0,0,0,0,0],"id":0,"left_children":[1,3,5,-1,7,9,11,13,15,17,-1,19,-1,21,23,25,27,-1,29,-1,31,-1,33,-1,-1,35,37,39,41,-1,43,-1,45,47,49,51,53,55,57,59,61,63,65,-1,-1,-1,-1,67,69,-1,-1,-1,-1,71,73,75,-1,77,79,81,-1,83,-1,85,-1,87,89,-1,-1,-1,-1,-1,-1,-1,-1,-1,-1,-1,-1,-1,-1,-1,-1,-1,-1,-1,-1,-1,-1,-1,-1],"loss_changes":[5.298206E2,3.6191223E2,4.0457153E0,0E0,2.2582419E2,8.142117E0,2.323944E0,3.5632164E1,9.685788E1,2.8527718E0,0E0,7.028801E0,0E0,3.3128662E1,7.5060425E0,9.715469E1,2.7236755E1,0E0,4.8124995E0,0E0,1.7374268E0,0E0,1.0295029E1,0E0,0E0,4.7658096E1,7.838394E0,6.2617188E0,2.275417E1,0E0,1.8011364E0,0E0,2.8787875E0,5.6478806E0,2.0825398E0,1.7811775E0,1.437333E1,1.6510086E0,5.621662E0,7.6274567E0,3.8346558E0,8.593712E0,1.8275093E1,0E0,0E0,0E0,0E0,2.661728E0,3.407693E0,0E0,0E0,0E0,0E0,1.1319183E1,7.403846E0,1.7280579E0,0E0,1.2663967E1,2.4719048E0,5.337878E0,0E0,7.2000003E0,0E0,9.011842E0,0E0,1.9459686E0,3.2261903E0,0E0,0E0,0E0,0E0,0E0,0E0,0E0,0E0,0E0,0E0,0E0,0E0,0E0,0E0,0E0,0E0,0E0,0E0,0E0,0E0,0E0,0E0,0E0,0E0],"parents":[2147483647,0,0,1,1,2,2,4,4,5,5,6,6,7,7,8,8,9,9,11,11,13,13,14,14,15,15,16,16,18,18,20,20,22,22,25,25,26,26,27,27,28,28,30,30,32,32,33,33,34,34,35,35,36,36,37,37,38,38,39,39,40,40,41,41,42,42,47,47,48,48,53,53,54,54,55,55,57,57,58,58,59,59,61,61,63,63,65,65,66,66],"right_children":[2,4,6,-1,8,10,12,14,16,18,-1,20,-1,22,24,26,28,-1,30,-1,32,-1,34,-1,-1,36,38,40,42,-1,44,-1,46,48,50,52,54,56,58,60,62,64,66,-1,-1,-1,-1,68,70,-1,-1,-1,-1,72,74,76,-1,78,80,82,-1,84,-1,86,-1,88,90,-1,-1,-1,-1,-1,-1,-1,-1,-1,-1,-1,-1,-1,-1,-1,-1,-1,-1,-1,-1,-1,-1,-1,-1],"split_conditions":[9.2930335E-1,8.889634E-2,1.7734674E-1,6.3447565E-2,4.3732247E-1,7.5122774E-1,2.8182894E-1,5.999789E-1,1.585005E-1,5.176784E-1,-3.459078E-3,7.2678393E-1,5.2382387E-2,1.2692092E-1,3.006763E-1,7.4174184E-1,2.589954E-1,3.863107E-2,4.8431805E-1,-2.2157432E-4,9.446817E-1,-2.4349993E-2,8.0452275E-1,2.9310256E-2,-6.424769E-2,1.2290487E-1,2.8182894E-1,2.2802326E-1,1.7266288E-1,1.5859177E-2,5.055241E-1,2.6988475E-2,2.300975E-1,3.5292795E-1,2.9407504E-1,7.844551E-1,6.707469E-1,9.7165185E-1,1.0139378E-1,6.817618E-1,2.631737E-2,3.3333334E-1,4.3266606E-1,1.7598106E-2,-1.0112703E-3,-3.8187623E-3,3.4547612E-2,1E0,3.830153E-2,-2.2165528E-2,5.3546936E-3,-2.8983304E-2,-4.0927645E-2,9.677471E-1,5.0281584E-1,4.1335726E-1,-1.8996015E-2,1.2815776E-1,4.4200382E-1,6.1156756E-1,-4.1851886E-2,1.984427E-1,-9.4405495E-2,4.134232E-1,2.0396257E-2,6.257001E-1,8.4667206E-1,3.5656173E-2,5.929941E-2,1.7594041E-2,4.45835E-3,9.5545715E-3,-2.5589706E-3,9.159506E-4,-6.4790966E-3,-2.9436136E-2,-9.978238E-3,-3.0367423E-2,2.5242567E-3,-2.0050062E-2,-1.6997397E-2,-1.6897205E-2,7.043755E-3,-8.862979E-2,6.953758E-3,-2.4585469E-2,1.2076402E-2,-3.341997E-2,-9.149071E-2,3.1642288E-2,-5.849469E-3],"split_indices":[11,7,0,0,2,2,3,13,7,2,0,4,0,0,2,2,0,0,3,0,2,0,3,0,0,0,3,7,5,0,1,0,0,2,4,3,2,1,7,2,5,8,0,0,0,0,0,7,5,0,0,0,0,9,3,10,0,0,3,4,0,0,0,0,0,4,1,0,0,0,0,0,0,0,0,0,0,0,0,0,0,0,0,0,0,0,0,0,0,0,0],"split_type":[0,0,0,0,0,0,0,0,0,0,0,0,0,0,0,0,0,0,0,0,0,0,0,0,0,0,0,0,0,0,0,0,0,0,0,0,0,0,0,0,0,0,0,0,0,0,0,0,0,0,0,0,0,0,0,0,0,0,0,0,0,0,0,0,0,0,0,0,0,0,0,0,0,0,0,0,0,0,0,0,0,0,0,0,0,0,0,0,0,0,0],"sum_hessian":[2.473E3,1.925E3,5.48E2,2.04E2,1.721E3,6.7E1,4.81E2,2.53E2,1.468E3,6E1,7E0,1.09E2,3.72E2,2.28E2,2.5E1,6.44E2,8.24E2,3.4E1,2.6E1,9E0,1E2,1.5E1,2.13E2,6E0,1.9E1,3.76E2,2.68E2,5.95E2,2.29E2,1.1E1,1.5E1,9E1,1E1,1.99E2,1.4E1,5.7E1,3.19E2,1.67E2,1.01E2,1.24E2,4.71E2,1.06E2,1.23E2,5E0,1E1,5E0,5E0,1.42E2,5.7E1,8E0,6E0,5.2E1,5E0,2.15E2,1.04E2,1.61E2,6E0,5.6E1,4.5E1,5.9E1,6.5E1,1.4E1,4.57E2,9.4E1,1.2E1,1.12E2,1.1E1,1.22E2,2E1,3.6E1,2.1E1,1.56E2,5.9E1,7.7E1,2.7E1,1.25E2,3.6E1,1.8E1,3.8E1,3.7E1,8E0,5.4E1,5E0,9E0,5E0,7.9E1,1.5E1,1.2E1,1E2,6E0,5E0],"tree_param":{"num_deleted":"0","num_feature":"19","num_nodes":"91","size_leaf_vector":"1"}},{"base_weights":[1.9176988E-2,-2.212987E-1,8.1865287E-1,9.95122E-2,-3.6606625E-1,6.277372E-1,8.758465E-1,9.944751E-2,-5.801527E-1,7.9611653E-1,1.14285715E-1,8.8761467E-1,1.25E-2,1.8902439E-1,-7.5E-1,-8.0757576E-1,-2.9038462E-1,8.469388E-2,-1.6666668E-2,-3.1578946E-1,5.882353E-1,9.5E-2,7.9096043E-1,-5.9615386E-1,2.8117913E-1,1.6666668E-2,-8.510639E-2,-8.383046E-1,4.1666668E-2,-3.8690478E-2,-7.4594593E-1,-8.888889E-2,1.8181819E-1,2.2222223E-2,8.888889E-2,5.9302324E-1,9.6739136E-2,-6.976744E-1,-1.0000001E-2,6.2941176E-1,6.25E-2,-6.727941E-1,-9.590164E-2,3.1578946E-1,-8.3333336E-2,-7.0454544E-1,6.1433446E-2,1.6666668E-2,-7.722222E-1,-1.6666668E-2,5E-2,6.666667E-1,-5E-2,-9.4736844E-2,-4.8E-1,9.736842E-2,5.263158E-1,3.0246913E-1,-2.882883E-1,-2.2727273E-1,-8.115942E-1,-2.857143E-2,6.1538464E-1,-8.1081085E-2,-1.25E-2,-7.174888E-2,4.7887325E-1,-6.4893615E-1,-8.965517E-1,7.246377E-1,3.0769232E-1,-0E0,-6.315789E-2,3.9361704E-2,8.25E-2,1.6666668E-3,4.6601944E-2,-7.5E-2,-6.578948E-3,-3.5185184E-2,3.0769233E-2,-8.80829E-2,1.3333335E-2,8.75E-2,1.6666668E-2,-8.846154E-2,3.5353533E-3,-3.0000001E-2,5.9677422E-2,-7.126437E-2,1.25E-2,-9.589041E-2,-5.333334E-2,8.7804876E-2,4.8275862E-2,-5E-2,8.75E-2],"categories":[],"categories_nodes":[],"categories_segments":[],"categories_sizes":[],"default_left":[0,0,0,0,0,0,0,0,0,0,0,0,0,0,0,0,0,0,0,0,0,0,0,0,0,0,0,0,0,0,0,0,0,0,0,0,0,0,0,0,0,0,0,0,0,0,0,0,0,0,0,0,0,0,0,0,0,0,0,0,0,0,0,0,0,0,0,0,0,0,0,0,0,0,0,0,0,0,0,0,0,0,0,0,0,0,0,0,0,0,0,0,0,0,0,0,0],"id":1,"left_children":[1,3,5,-1,7,9,11,13,15,17,19,21,-1,23,25,27,29,-1,-1,31,33,-1,35,37,39,-1,-1,41,43,45,47,-1,49,-1,-1,51,-1,53,-1,55,57,59,-1,61,-1,63,65,-1,67,-1,-1,69,-1,-1,71,-1,73,75,77,79,81,-1,83,-1,-1,85,87,89,91,93,95,-1,-1,-1,-1,-1,-1,-1,-1,-1,-1,-1,-1,-1,-1,-1,-1,-1,-1,-1,-1,-1,-1,-1,-1,-1,-1],"loss_changes":[4.813942E2,3.3935336E2,5.7724E0,0E0,1.7157288E2,1.17533E1,3.8034363E0,4.1459103E1,7.746152E1,5.1810303E0,7.319947E0,1.877594E0,0E0,3.5767715E1,4.959221E0,1.7258423E1,5.9595444E1,0E0,0E0,5.580011E0,1.673203E0,0E0,5.607544E0,2.5494633E0,3.3543346E1,0E0,0E0,1.2081451E1,6.019737E0,2.2443737E1,4.56501E0,0E0,1.3030303E0,0E0,0E0,7.2558136E0,0E0,1.8823986E0,0E0,5.5213623E0,2.2983713E1,1.663559E1,0E0,3.599769E0,0E0,2.6084137E0,1.632387E1,0E0,2.1772537E0,0E0,0E0,1.4626541E0,0E0,0E0,1.8189473E0,0E0,4.946724E0,7.5646114E0,1.1353722E1,4.506863E0,1.3659775E1,0E0,1.3685894E0,0E0,0E0,1.9445646E1,6.6989536E0,4.7238007E0,1.4589233E0,2.1364937E0,6.394231E0,0E0,0E0,0E0,0E0,0E0,0E0,0E0,0E0,0E0,0E0,0E0,0E0,0E0,0E0,0E0,0E0,0E0,0E0,0E0,0E0,0E0,0E0,0E0,0E0,0E0,0E0],"parents":[2147483647,0,0,1,1,2,2,4,4,5,5,6,6,7,7,8,8,9,9,10,10,11,11,13,13,14,14,15,15,16,16,19,19,20,20,22,22,23,23,24,24,27,27,28,28,29,29,30,30,32,32,35,35,37,37,39,39,40,40,41,41,43,43,45,45,46,46,48,48,51,51,54,54,56,56,57,57,58,58,59,59,60,60,62,62,65,65,66,66,67,67,68,68,69,69,70,70],"right_children":[2,4,6,-1,8,10,12,14,16,18,20,22,-1,24,26,28,30,-1,-1,32,34,-1,36,38,40,-1,-1,42,44,46,48,-1,50,-1,-1,52,-1,54,-1,56,58,60,-1,62,-1,64,66,-1,68,-1,-1,70,-1,-1,72,-1,74,76,78,80,82,-1,84,-1,-1,86,88,90,92,94,96,-1,-1,-1,-1,-1,-1,-1,-1,-1,-1,-1,-1,-1,-1,-1,-1,-1,-1,-1,-1,-1,-1,-1,-1,-1,-1],"split_conditions":[9.2930335E-1,8.889634E-2,1.8861435E-1,5.710281E-2,4.597036E-1,1.996287E-1,9.6222043E-1,5.999789E-1,5E-1,7.2874624E-1,9.161412E-1,3.3333334E-1,5.806375E-3,1.314518E-1,1.2609756E-2,4.2458504E-1,7.163215E-1,3.0959234E-2,-1.5571284E-2,2.0432837E-1,1.1613376E-1,5.3338386E-2,2.8028607E-1,3.9018717E-1,2.9253918E-1,7.4214764E-2,-6.436532E-2,1.7748524E-1,8.4667206E-1,1.2290487E-1,7.500943E-1,-1.0503936E-2,7.392916E-1,2.3085177E-3,5.47173E-3,8.0037725E-1,3.682637E-2,1.0137641E-1,-3.4499168E-4,8.925395E-3,2.2802326E-1,1.585005E-1,-9.0993285E-2,1.9766943E-1,-1.2663229E-1,5.9244764E-1,7.841552E-1,6.878376E-4,1.0139378E-1,-1.9941926E-4,1.290485E-2,6.154856E-1,-3.0371905E-3,-3.60466E-2,1.0925912E-1,7.608607E-2,4.0501213E-1,5.8878577E-1,2.8516698E-1,5.8670104E-1,3.9372265E-1,-6.9867047E-3,8.035031E-1,-2.2238577E-2,-2.3374213E-2,3.825224E-1,6.241933E-1,1.8208914E-1,2.0148706E-1,2.4203861E-1,2.589954E-1,-7.6601775E-3,-1.0006636E-2,1.6500449E-2,4.5575876E-2,9.218097E-4,1.6120842E-2,-2.819245E-2,-3.5633505E-3,-5.5285217E-3,6.9068433E-3,-6.235499E-2,3.0593574E-3,2.7899895E-2,2.4351602E-2,-1.9391317E-2,2.179122E-3,-1.32431565E-2,8.596378E-3,-1.1535344E-2,5.8477283E-3,-3.1064777E-2,-2.403286E-2,2.9259915E-2,1.8051863E-2,-1.067201E-2,2.4204059E-2],"split_indices":[11,7,0,0,4,5,1,13,18,6,1,8,0,0,5,0,4,0,0,3,3,0,0,4,4,0,0,5,1,0,1,0,4,0,0,1,0,0,0,5,7,7,0,5,0,3,1,0,7,0,0,4,0,0,0,0,1,3,7,3,0,0,1,0,0,3,4,0,6,0,0,0,0,0,0,0,0,0,0,0,0,0,0,0,0,0,0,0,0,0,0,0,0,0,0,0,0],"split_type":[0,0,0,0,0,0,0,0,0,0,0,0,0,0,0,0,0,0,0,0,0,0,0,0,0,0,0,0,0,0,0,0,0,0,0,0,0,0,0,0,0,0,0,0,0,0,0,0,0,0,0,0,0,0,0,0,0,0,0,0,0,0,0,0,0,0,0,0,0,0,0,0,0,0,0,0,0,0,0,0,0,0,0,0,0,0,0,0,0,0,0,0,0,0,0,0,0],"sum_hessian":[2.502E3,1.924E3,5.78E2,2.04E2,1.72E3,1.36E2,4.42E2,5.42E2,1.178E3,1.02E2,3.4E1,4.35E2,7E0,4.91E2,5.1E1,6.59E2,5.19E2,9.7E1,5E0,1.8E1,1.6E1,2.59E2,1.76E2,5.1E1,4.4E2,5E0,4.6E1,6.36E2,2.3E1,3.35E2,1.84E2,8E0,1E1,8E0,8E0,8.5E1,9.1E1,4.2E1,9E0,1.69E2,2.71E2,2.71E2,3.65E2,1.8E1,5E0,4.3E1,2.92E2,5E0,1.79E2,5E0,5E0,8E1,5E0,1.8E1,2.4E1,3.7E1,1.32E2,1.61E2,1.1E2,6.5E1,2.06E2,6E0,1.2E1,3.6E1,7E0,2.22E2,7E1,9.3E1,8.6E1,6.8E1,1.2E1,6E0,1.8E1,9.3E1,3.9E1,5.9E1,1.02E2,3.5E1,7.5E1,5.3E1,1.2E1,1.92E2,1.4E1,7E0,5E0,2.5E1,1.97E2,9E0,6.1E1,8.6E1,7E0,7.2E1,1.4E1,4E1,2.8E1,5E0,7E0],"tree_param":{"num_deleted":"0","num_feature":"19","num_nodes":"97","size_leaf_vector":"1"}},{"base_weights":[1.5403324E-2,-1.9302809E-1,7.4908423E-1,9.953052E-2,-3.4093568E-1,9.375E-2,7.883495E-1,2.0365535E-1,-4.9774095E-1,5E-2,-8.695652E-2,8.6552566E-1,4.8598132E-1,-6.666667E-1,2.8490028E-1,-2.029703E-1,-7.4412173E-1,-3.0769232E-1,1.8181819E-1,9.257951E-2,7.2440946E-1,-1.2765957E-1,9.508197E-2,-8.421053E-2,-4E-1,3.858521E-1,-4.878049E-1,2.0454545E-2,-7.9041916E-1,-8.574144E-1,-4.3939394E-1,-0E0,-5.714286E-2,5E-2,-1.6666668E-2,5.2307695E-1,9.2063494E-2,3.5714287E-1,-3.2352942E-1,-8.75E-2,1.25E-2,4.7058824E-2,5.110132E-1,-7.6666665E-1,2.5E-1,-7.65625E-1,1.5384616E-1,-8.6821705E-1,-5.1282054E-1,-9.887218E-2,-7.203065E-1,-2.6056337E-1,-8.77193E-1,6.3793105E-1,-3.75E-2,-5E-2,8.888889E-2,-1.25E-1,-7.272728E-2,-3.0357143E-1,7E-1,3.6641222E-1,7.010309E-1,-9.4444446E-2,-4.6153846E-1,5.714286E-2,-1.6666668E-2,-8.333333E-1,-3.636364E-2,6.034483E-1,7.1875E-2,-7.169811E-1,-9.61039E-2,-8.6363636E-2,-5.5555556E-2,-9.361702E-2,-4.6280992E-1,-3.8135594E-1,3.2E-1,-9.772728E-2,-5E-1,7.1153843E-1,-0E0,-3.1578946E-1,5E-2,5.454546E-2,-5E-2,9.4444446E-2,3.0769233E-2,5.462963E-2,-4.5833334E-2,-5E-2,7.717391E-2,1.6666668E-2,-8.75E-2,-8.979592E-2,-1.6666668E-2,8.333334E-3,7.234042E-2,-6.6129036E-2,2.4710424E-2,-7.7083334E-2,-1.6666668E-2,1.818182E-2,-3.75E-2,1.0526316E-2,-5.631068E-2,-5.2040815E-2,2.857143E-2,6.25E-3,7E-2,-0E0,-8.75E-2,9.0625E-2,3.809524E-2,-8.75E-2,8.333334E-3],"categories":[],"categories_nodes":[],"categories_segments":[],"categories_sizes":[],"default_left":[0,0,0,0,0,0,0,0,0,0,0,0,0,0,0,0,0,0,0,0,0,0,0,0,0,0,0,0,0,0,0,0,0,0,0,0,0,0,0,0,0,0,0,0,0,0,0,0,0,0,0,0,0,0,0,0,0,0,0,0,0,0,0,0,0,0,0,0,0,0,0,0,0,0,0,0,0,0,0,0,0,0,0,0,0,0,0,0,0,0,0,0,0,0,0,0,0,0,0,0,0,0,0,0,0,0,0,0,0,0,0,0,0,0,0,0,0],"id":2,"left_children":[1,3,5,-1,7,9,11,13,15,-1,17,19,21,23,25,27,29,31,33,-1,35,37,-1,-1,39,41,43,45,47,49,51,-1,-1,-1,-1,53,-1,55,57,-1,-1,59,61,63,65,67,69,71,73,-1,75,77,79,81,-1,-1,-1,83,-1,85,87,89,91,-1,93,-1,-1,95,-1,97,99,101,-1,-1,103,-1,105,107,109,-1,111,113,-1,115,-1,-1,-1,-1,-1,-1,-1,-1,-1,-1,-1,-1,-1,-1,-1,-1,-1,-1,-1,-1,-1,-1,-1,-1,-1,-1,-1,-1,-1,-1,-1,-1,-1],"loss_changes":[3.7740356E2,3.3815677E2,1.3975708E1,0E0,1.461264E2,2.392663E0,1.15971985E1,2.727158E1,9.629608E1,0E0,1.4204926E0,2.8078918E0,3.064247E1,1.207017E0,2.7568321E1,7.955407E1,2.458368E1,1.0549451E0,1.3030303E0,0E0,4.535774E0,4.5785804E0,0E0,0E0,3.85E0,1.3163521E1,8.627235E0,4.6254612E1,3.1613922E0,8.757568E0,1.5273224E1,0E0,0E0,0E0,0E0,6.9438343E0,0E0,6.8253965E0,2.6343584E0,0E0,0E0,1.9672478E1,5.9803543E0,1.1914539E0,1.7023811E0,1.4389191E0,1.3850739E1,1.1218567E0,6.208235E0,0E0,1.40742035E1,1.0080171E1,1.6630783E0,2.7234745E0,0E0,0E0,0E0,3.0197368E0,0E0,9.612013E0,2.5863256E0,1.9685362E1,8.623375E0,0E0,3.5224357E0,0E0,0E0,2.1768723E0,0E0,3.5583897E0,4.127445E1,1.4422169E0,0E0,0E0,1.4330808E0,0E0,6.9533653E0,1.1094086E1,2.4025002E0,0E0,2.625E0,3.0019455E0,0E0,4.3135967E0,0E0,0E0,0E0,0E0,0E0,0E0,0E0,0E0,0E0,0E0,0E0,0E0,0E0,0E0,0E0,0E0,0E0,0E0,0E0,0E0,0E0,0E0,0E0,0E0,0E0,0E0,0E0,0E0,0E0,0E0,0E0,0E0,0E0],"parents":[2147483647,0,0,1,1,2,2,4,4,5,5,6,6,7,7,8,8,10,10,11,11,12,12,13,13,14,14,15,15,16,16,17,17,18,18,20,20,21,21,24,24,25,25,26,26,27,27,28,28,29,29,30,30,35,35,37,37,38,38,41,41,42,42,43,43,44,44,45,45,46,46,47,47,48,48,50,50,51,51,52,52,53,53,57,57,59,59,60,60,61,61,62,62,64,64,67,67,69,69,70,70,71,71,74,74,76,76,77,77,78,78,80,80,81,81,83,83],"right_children":[2,4,6,-1,8,10,12,14,16,-1,18,20,22,24,26,28,30,32,34,-1,36,38,-1,-1,40,42,44,46,48,50,52,-1,-1,-1,-1,54,-1,56,58,-1,-1,60,62,64,66,68,70,72,74,-1,76,78,80,82,-1,-1,-1,84,-1,86,88,90,92,-1,94,-1,-1,96,-1,98,100,102,-1,-1,104,-1,106,108,110,-1,112,114,-1,116,-1,-1,-1,-1,-1,-1,-1,-1,-1,-1,-1,-1,-1,-1,-1,-1,-1,-1,-1,-1,-1,-1,-1,-1,-1,-1,-1,-1,-1,-1,-1,-1,-1],"split_conditions":[9.2930335E-1,8.889634E-2,1.6674341E-1,5.1392533E-2,6.312107E-2,3.1940233E-2,3.2101637E-1,1.2483326E-1,1.585005E-1,1.9230423E-2,9.5583424E-2,3.3333334E-1,2.497979E-1,6.456725E-1,5.999789E-1,2.8406653E-1,2.589954E-1,1.6124636E-1,7.444894E-1,4.2820167E-2,2.7319193E-1,1.8489611E-1,3.0081794E-2,-2.058342E-2,1.4373484E-1,2.5E-1,1.9443564E-1,1.2815776E-1,4.1335726E-1,8.5454017E-1,8.4667206E-1,1.1043936E-3,-2.3729147E-3,9.925747E-3,-1.2606025E-3,7.7709514E-1,4.206835E-2,9.161412E-1,5.056521E-1,-1.2886979E-1,3.000319E-4,2.9433134E-1,6.196768E-1,7.0306796E-1,2.3195113E-1,1.2290487E-1,9.51514E-2,1.7869557E-1,1.7295133E-1,-9.406024E-2,3.0783352E-1,3.3333334E-1,4.176968E-1,8.0452275E-1,-6.8119406E-3,-6.74063E-4,2.9602647E-3,9.161412E-1,-4.323906E-3,1.9406022E-1,3.7677175E-1,7.5716895E-1,1.407255E-1,-6.6632055E-2,7.5716895E-1,1.2249115E-2,-1.9251967E-2,6.518746E-1,-1.244193E-2,1.314518E-1,1.698721E-1,1.7673439E-1,-2.4384249E-2,-1.6151702E-2,5.056521E-1,-4.508538E-2,4.609874E-1,4.134232E-1,2.5978824E-1,-1.22000985E-1,4.5504823E-1,7.264303E-2,-4.8243403E-3,1.9657077E-1,4.0342747E-3,1.0256021E-2,-2.1103228E-2,9.690994E-2,5.054459E-2,1.9206643E-2,-8.505053E-3,-8.430428E-3,2.7337743E-2,3.8597703E-3,-7.3797606E-2,-2.0014722E-2,-2.1036793E-2,3.70543E-3,2.0194314E-2,-1.120733E-2,4.525933E-3,-1.6618837E-2,-8.377808E-3,1.667136E-3,-4.094112E-3,3.9352267E-3,-1.6216112E-2,-2.2305835E-2,2.4111034E-2,1.9743384E-3,1.4116458E-2,-8.402673E-3,-1.2561932E-1,4.2383853E-2,1.2354723E-2,-8.312548E-3,1.9354403E-3],"split_indices":[11,7,0,0,5,5,5,0,7,0,5,8,0,6,13,5,0,0,1,0,0,0,0,0,1,18,0,0,10,10,1,0,0,0,0,1,0,1,5,0,0,0,6,3,0,0,7,0,0,0,6,8,0,3,0,0,0,1,0,0,1,3,0,0,3,0,0,3,0,0,0,0,0,0,5,0,3,0,6,0,5,5,0,0,0,0,0,0,0,0,0,0,0,0,0,0,0,0,0,0,0,0,0,0,0,0,0,0,0,0,0,0,0,0,0,0,0],"split_type":[0,0,0,0,0,0,0,0,0,0,0,0,0,0,0,0,0,0,0,0,0,0,0,0,0,0,0,0,0,0,0,0,0,0,0,0,0,0,0,0,0,0,0,0,0,0,0,0,0,0,0,0,0,0,0,0,0,0,0,0,0,0,0,0,0,0,0,0,0,0,0,0,0,0,0,0,0,0,0,0,0,0,0,0,0,0,0,0,0,0,0,0,0,0,0,0,0,0,0,0,0,0,0,0,0,0,0,0,0,0,0,0,0,0,0,0,0],"sum_hessian":[2.466E3,1.921E3,5.45E2,2.12E2,1.709E3,3.1E1,5.14E2,3.82E2,1.327E3,9E0,2.2E1,4.08E2,1.06E2,3.2E1,3.5E2,6.05E2,7.22E2,1.2E1,1E1,2.82E2,1.26E2,4.6E1,6E1,1.8E1,1.4E1,3.1E2,4E1,4.39E2,1.66E2,5.25E2,1.97E2,6E0,6E0,5E0,5E0,6.4E1,6.2E1,1.3E1,3.3E1,7E0,7E0,8.4E1,2.26E2,2.9E1,1.1E1,6.3E1,3.76E2,1.28E2,3.8E1,2.65E2,2.6E2,1.41E2,5.6E1,5.7E1,7E0,5E0,8E0,2.3E1,1E1,5.5E1,2.9E1,1.3E2,9.6E1,1.7E1,1.2E1,6E0,5E0,5.3E1,1E1,5.7E1,3.19E2,5.2E1,7.6E1,2.1E1,1.7E1,1.4E2,1.2E2,1.17E2,2.4E1,4.3E1,1.3E1,5.1E1,6E0,1.8E1,5E0,1E1,4.5E1,1.7E1,1.2E1,1.07E2,2.3E1,5E0,9.1E1,5E0,7E0,4.8E1,5E0,1.1E1,4.6E1,6.1E1,2.58E2,4.7E1,5E0,1E1,7E0,1.8E1,1.02E2,9.7E1,2E1,1.5E1,9E0,6E0,7E0,3.1E1,2E1,7E0,1.1E1],"tree_param":{"num_deleted":"0","num_feature":"19","num_nodes":"117","size_leaf_vector":"1"}},{"base_weights":[-4.8563336E-3,-2.183246E-1,7.2064054E-1,9.949496E-2,-3.5843548E-1,8.310992E-1,5E-1,-1.5337954E-1,-7.803571E-1,3.75E-1,8.6E-1,-0E0,8.4821427E-1,1.4638783E-1,-4.0381557E-1,-8.0615944E-1,8.888889E-2,-1.6666668E-2,5.263158E-1,9.585254E-2,6.9402987E-1,4E-1,-9.2307694E-2,5.8536583E-1,9.861111E-2,-4.2708334E-1,2.737819E-1,2.189781E-1,-5.760649E-1,-6.1440676E-1,-9.463722E-1,8.75E-2,2.5E-1,4.21875E-1,9.2957747E-1,8.571429E-2,-0E0,1.04166664E-1,-6.111111E-1,3.2E-1,9.411765E-2,-7.8125E-1,-2.4615385E-1,5.1704544E-1,1.0546875E-1,6.27451E-1,-2.2988506E-2,-3.4129694E-1,-9.1542286E-1,-3.690476E-1,-7.4509805E-1,-9.879518E-2,-7.826087E-1,-1.6666668E-2,5.714286E-2,7.291667E-1,-4.7058824E-1,2.857143E-2,9.846154E-2,-4.1666666E-1,2.7027026E-1,1.6666668E-2,-9.2307694E-2,-4.4444446E-2,7.058824E-1,-8.846154E-2,-2.857143E-2,2.5E-1,-3.5185185E-1,2.03125E-1,6.902655E-1,-1.5853658E-1,2.2857143E-1,7.380952E-1,1.0000001E-2,3.392857E-1,-6.5625E-1,-3.98524E-1,3.478261E-1,-1.8181819E-1,-9.5287964E-2,-6.75E-1,-8.888889E-2,-8.595041E-2,-3.030303E-1,-8.979592E-2,-4.7619048E-1,3.636364E-2,8.157895E-2,-0E0,-8.888889E-2,-8.3333336E-2,-0E0,4.2307693E-1,-8.3333336E-2,1.6666668E-2,9.166667E-2,8.3333336E-2,-2.857143E-2,-5E-2,1.5384616E-2,5.5172414E-2,-8.333334E-3,8.510639E-2,5.671642E-2,4.864865E-2,-6.7391306E-2,8.055556E-2,7.857143E-3,8.9655176E-2,3.5714287E-2,-3.75E-2,4.489796E-2,-7.916667E-2,-2.2222223E-2,-6.1261263E-2,-2.4844721E-2,-3.75E-2,6.875E-2,-5E-2,1.6666668E-2,-1.25E-2,-7.8787886E-2,-5.8823533E-2,2.0689657E-2,-5E-2,8.333334E-3,1.6666668E-2,-6.875E-2,8.9999996E-2,1.1764706E-2,-5.714286E-2,5E-2],"categories":[],"categories_nodes":[],"categories_segments":[],"categories_sizes":[],"default_left":[0,0,0,0,0,0,0,0,0,0,0,0,0,0,0,0,0,0,0,0,0,0,0,0,0,0,0,0,0,0,0,0,0,0,0,0,0,0,0,0,0,0,0,0,0,0,0,0,0,0,0,0,0,0,0,0,0,0,0,0,0,0,0,0,0,0,0,0,0,0,0,0,0,0,0,0,0,0,0,0,0,0,0,0,0,0,0,0,0,0,0,0,0,0,0,0,0,0,0,0,0,0,0,0,0,0,0,0,0,0,0,0,0,0,0,0,0,0,0,0,0,0,0,0,0,0,0,0,0,0,0,0,0],"id":3,"left_children":[1,3,5,-1,7,9,11,13,15,17,19,21,23,25,27,29,-1,-1,31,-1,33,35,37,39,-1,41,43,45,47,49,51,-1,53,55,57,-1,-1,59,61,63,-1,65,67,69,71,73,75,77,79,81,83,-1,85,-1,-1,87,89,-1,-1,91,93,-1,-1,-1,95,-1,-1,97,99,101,103,105,107,109,-1,111,113,115,117,119,-1,121,123,-1,125,-1,127,-1,-1,-1,-1,-1,-1,129,131,-1,-1,-1,-1,-1,-1,-1,-1,-1,-1,-1,-1,-1,-1,-1,-1,-1,-1,-1,-1,-1,-1,-1,-1,-1,-1,-1,-1,-1,-1,-1,-1,-1,-1,-1,-1,-1,-1],"loss_changes":[3.828425E2,3.250431E2,1.3281311E1,0E0,1.4808488E2,4.5942383E0,3.308036E1,8.669285E1,2.4835968E1,2.0548244E0,5.058075E0,2.9538462E0,3.4823074E0,3.854482E1,6.760261E1,1.4259735E1,0E0,0E0,1.6118422E0,0E0,8.19796E0,2.742857E0,6.6892095E0,3.5700436E0,0E0,5.9592953E0,1.759253E1,1.3555065E1,3.8965073E1,7.292671E0,1.3853455E0,0E0,1.7023811E0,1.7894915E1,2.234703E0,0E0,0E0,4.2652025E0,4.521368E0,7.6883664E0,0E0,1.3863316E0,3.4967234E0,9.430199E0,8.356176E0,2.9025211E0,2.0181702E1,1.1693508E1,5.3499146E0,7.1400805E0,7.4775543E0,0E0,2.011242E0,0E0,0E0,1.2231865E0,3.3464053E0,0E0,0E0,2.0833333E0,2.034477E0,0E0,0E0,0E0,1.7794113E0,0E0,0E0,3.9880953E0,4.1225076E0,6.436961E0,1.7540817E0,2.7587084E1,1.508254E1,2.215107E0,0E0,4.5561223E0,1.7048616E0,8.554955E0,5.904891E0,1.3030303E0,0E0,2.3848476E0,6.7681766E0,0E0,2.5530305E0,0E0,2.9672618E0,0E0,0E0,0E0,0E0,0E0,0E0,3.6814485E0,3.7023811E0,0E0,0E0,0E0,0E0,0E0,0E0,0E0,0E0,0E0,0E0,0E0,0E0,0E0,0E0,0E0,0E0,0E0,0E0,0E0,0E0,0E0,0E0,0E0,0E0,0E0,0E0,0E0,0E0,0E0,0E0,0E0,0E0,0E0,0E0,0E0,0E0,0E0,0E0],"parents":[2147483647,0,0,1,1,2,2,4,4,5,5,6,6,7,7,8,8,9,9,10,10,11,11,12,12,13,13,14,14,15,15,18,18,20,20,21,21,22,22,23,23,25,25,26,26,27,27,28,28,29,29,30,30,32,32,33,33,34,34,37,37,38,38,39,39,41,41,42,42,43,43,44,44,45,45,46,46,47,47,48,48,49,49,50,50,52,52,55,55,56,56,59,59,60,60,64,64,67,67,68,68,69,69,70,70,71,71,72,72,73,73,75,75,76,76,77,77,78,78,79,79,81,81,82,82,84,84,86,86,93,93,94,94],"right_children":[2,4,6,-1,8,10,12,14,16,18,20,22,24,26,28,30,-1,-1,32,-1,34,36,38,40,-1,42,44,46,48,50,52,-1,54,56,58,-1,-1,60,62,64,-1,66,68,70,72,74,76,78,80,82,84,-1,86,-1,-1,88,90,-1,-1,92,94,-1,-1,-1,96,-1,-1,98,100,102,104,106,108,110,-1,112,114,116,118,120,-1,122,124,-1,126,-1,128,-1,-1,-1,-1,-1,-1,130,132,-1,-1,-1,-1,-1,-1,-1,-1,-1,-1,-1,-1,-1,-1,-1,-1,-1,-1,-1,-1,-1,-1,-1,-1,-1,-1,-1,-1,-1,-1,-1,-1,-1,-1,-1,-1,-1,-1],"split_conditions":[9.2930335E-1,8.889634E-2,7.4082017E-1,4.625328E-2,7.4174184E-1,1.6674341E-1,2.4829556E-1,1.585005E-1,4.579493E-1,1.7407643E-2,6.214617E-1,8.161853E-2,8.42342E-1,1.3031945E-1,4.3732247E-1,1.585005E-1,4.234212E-2,-2.782321E-2,4.7736233E-1,4.444858E-2,2.6077327E-1,1.882846E-1,8.4636116E-1,3.17001E-1,2.7056498E-2,1.0137641E-1,5.311789E-1,3.229921E-1,2.930698E-1,7.785402E-1,2.6544088E-1,3.9859094E-2,5.454529E-1,5.6846607E-1,4.0054888E-1,1.0411466E-2,-1.0141432E-3,1.8360177E-1,1.840334E-1,2.8028607E-1,6.1336048E-2,6.7973655E-1,2.8291497E-2,1.6530964E-1,1.713267E-1,3.1761456E-1,2.930698E-1,6.0310936E-1,2.8291497E-2,1.757474E-1,4.1335726E-1,-8.160826E-2,1.9828069E-1,-1.6301215E-3,8.843878E-3,2.108106E-1,6.5206146E-1,3.2977253E-2,3.8124103E-2,2.1421328E-1,2.4074113E-1,8.272648E-4,-5.4367124E-3,-4.3711932E-3,7.612503E-1,-4.188738E-2,-1.7989824E-2,9.51514E-2,5.915336E-1,9.642964E-1,3.266559E-1,9.51514E-2,1.0139378E-1,3.006763E-1,1.0966003E-3,1.8861435E-1,6.456725E-1,2.4271972E-1,2.2488733E-1,1.9279267E-1,-6.5691106E-2,7.79914E-1,1.9932525E-1,-1.8241404E-2,9.2708164E-1,-1.0819864E-1,2.3175733E-1,2.8578958E-2,2.9057814E-2,-1.2001306E-3,-1.1864126E-2,-2.0076574E-3,1.6034752E-3,8.0232984E-1,8.0232984E-1,5.5768313E-3,2.333096E-2,6.174171E-3,-1.0674152E-2,-7.745612E-3,9.658629E-3,1.4671146E-2,-2.7265311E-3,3.4461804E-2,1.2633309E-2,1.93033E-2,-9.076732E-3,2.0425666E-2,1.6686082E-3,4.1360464E-2,1.4034557E-2,-2.3118228E-2,8.913976E-3,-2.0874625E-2,-6.1603636E-3,-1.7608335E-2,-8.264563E-3,-1.1172557E-2,4.2497434E-2,-8.93195E-2,2.0861328E-3,-1.2227917E-2,-1.9264156E-2,-1.6284395E-2,1.6590179E-3,-8.161837E-3,5.587518E-4,5.723351E-3,-8.243083E-2,1.1879414E-2,5.9100986E-4,-3.3109933E-3,1.0726571E-2],"split_indices":[11,7,2,0,2,0,0,7,0,5,9,6,2,0,2,7,0,0,2,0,0,0,2,7,0,0,2,2,9,4,0,0,2,2,4,0,0,0,0,0,0,6,5,0,0,11,9,6,5,0,10,0,6,0,0,0,1,0,0,5,6,0,0,0,1,0,0,7,4,9,2,7,7,2,0,0,6,0,0,0,0,2,5,0,1,0,6,0,0,0,0,0,0,2,2,0,0,0,0,0,0,0,0,0,0,0,0,0,0,0,0,0,0,0,0,0,0,0,0,0,0,0,0,0,0,0,0,0,0,0,0,0,0],"split_type":[0,0,0,0,0,0,0,0,0,0,0,0,0,0,0,0,0,0,0,0,0,0,0,0,0,0,0,0,0,0,0,0,0,0,0,0,0,0,0,0,0,0,0,0,0,0,0,0,0,0,0,0,0,0,0,0,0,0,0,0,0,0,0,0,0,0,0,0,0,0,0,0,0,0,0,0,0,0,0,0,0,0,0,0,0,0,0,0,0,0,0,0,0,0,0,0,0,0,0,0,0,0,0,0,0,0,0,0,0,0,0,0,0,0,0,0,0,0,0,0,0,0,0,0,0,0,0,0,0,0,0,0,0],"sum_hessian":[2.47E3,1.909E3,5.61E2,1.97E2,1.712E3,3.72E2,1.89E2,1.153E3,5.59E2,2.3E1,3.49E2,7.8E1,1.11E2,5.25E2,6.28E2,5.51E2,8E0,5E0,1.8E1,2.16E2,1.33E2,1.4E1,6.4E1,4E1,7.1E1,9.5E1,4.3E2,1.36E2,4.92E2,2.35E2,3.16E2,7E0,1.1E1,6.3E1,7E1,6E0,8E0,4.7E1,1.7E1,2.4E1,1.6E1,3.1E1,6.4E1,1.75E2,2.55E2,5E1,8.6E1,2.92E2,2E2,8.3E1,1.52E2,2.48E2,6.8E1,5E0,6E0,4.7E1,1.6E1,6E0,6.4E1,1.1E1,3.6E1,5E0,1.2E1,8E0,1.6E1,2.5E1,6E0,1.1E1,5.3E1,6.3E1,1.12E2,8.1E1,1.74E2,4.1E1,9E0,5.5E1,3.1E1,2.7E2,2.2E1,1E1,1.9E2,3.9E1,4.4E1,1.2E2,3.2E1,4.8E1,2E1,1E1,3.7E1,8E0,8E0,5E0,6E0,2.5E1,1.1E1,5E0,1.1E1,5E0,6E0,4.1E1,1.2E1,2.8E1,3.5E1,4.6E1,6.6E1,3.6E1,4.5E1,3.5E1,1.39E2,2.8E1,1.3E1,7E0,4.8E1,2.3E1,8E0,1.1E2,1.6E2,7E0,1.5E1,5E0,5E0,7E0,3.2E1,1.6E1,2.8E1,2.1E1,1.1E1,5E0,1.5E1,9E0,1.6E1,6E0,5E0],"tree_param":{"num_deleted":"0","num_feature":"19","num_nodes":"133","size_leaf_vector":"1"}},{"base_weights":[1.2254902E-3,-1.7637877E-1,6.4895636E-1,9.950739E-2,-3.1453487E-1,8.106312E-1,4.3171805E-1,6.208791E-1,-4.2495126E-1,8.9285713E-1,6.509434E-1,4.310345E-2,8.3035713E-1,7.1165645E-1,-1.5E-1,-2.588126E-1,-8.116883E-1,1.6666668E-2,9.109948E-2,4.3103448E-1,8.979592E-2,-6.875E-2,1.5841584E-1,9.2045456E-2,4.8E-1,-2.857143E-2,7.5159234E-1,4.4444446E-2,-5.833333E-1,-1.1437909E-2,-5.824411E-1,-8.271335E-1,5E-2,7.0454544E-1,-4E-1,-1.9565217E-1,4.4642857E-1,-5E-2,7.5E-1,7.972028E-1,2.6666668E-1,-1.6666668E-2,-8.571429E-2,-6.666667E-1,7.992565E-2,-9.1463417E-1,-2.117117E-1,-5.6842107E-1,-8.92562E-1,8.571429E-2,1.0000001E-2,-1.0000001E-2,-8.3333336E-2,3.5714287E-2,-5.263158E-1,5.8E-1,-5.714286E-2,9.3333334E-2,1.6666668E-2,8.796296E-1,5.277778E-1,8.888889E-2,-5.714286E-2,-9.615385E-2,-5E-1,5.540541E-1,4.3010754E-3,-7.5E-1,-9.824561E-2,5.925926E-1,-3.2142857E-1,-4.3835616E-1,-9.565218E-2,-9.583333E-2,-7.905405E-1,-5.4545456E-1,3.888889E-1,-8.9999996E-2,-1.0000001E-2,7.1794875E-2,8.3333336E-2,9.4736844E-2,3.5714287E-2,-2.857143E-2,7E-2,-6.75E-2,1.818182E-2,-1.6666668E-2,6.0869563E-2,-3.8679246E-2,1.1944445E-2,-8.571429E-2,-2.1428572E-2,8.5E-2,-1.25E-2,-4.1566264E-2,1.9354839E-2,5.8333334E-2,-6.2903225E-2,-6.1016947E-2,-8.9999996E-2,-1.6666668E-2,-8.3333336E-2,7.272728E-2,-1.25E-2,-2.857143E-2,5E-2],"categories":[],"categories_nodes":[],"categories_segments":[],"categories_sizes":[],"default_left":[0,0,0,0,0,0,0,0,0,0,0,0,0,0,0,0,0,0,0,0,0,0,0,0,0,0,0,0,0,0,0,0,0,0,0,0,0,0,0,0,0,0,0,0,0,0,0,0,0,0,0,0,0,0,0,0,0,0,0,0,0,0,0,0,0,0,0,0,0,0,0,0,0,0,0,0,0,0,0,0,0,0,0,0,0,0,0,0,0,0,0,0,0,0,0,0,0,0,0,0,0,0,0,0,0,0,0],"id":4,"left_children":[1,3,5,-1,7,9,11,13,15,17,19,21,23,25,27,29,31,-1,-1,33,-1,-1,35,-1,37,-1,39,-1,41,43,45,47,-1,49,51,53,55,-1,57,59,61,-1,-1,63,65,67,69,71,73,-1,-1,-1,-1,75,77,79,-1,-1,-1,81,83,-1,-1,-1,85,87,89,91,-1,93,95,97,-1,-1,99,101,103,-1,-1,-1,105,-1,-1,-1,-1,-1,-1,-1,-1,-1,-1,-1,-1,-1,-1,-1,-1,-1,-1,-1,-1,-1,-1,-1,-1,-1,-1],"loss_changes":[2.817318E2,3.1137592E2,1.8159317E1,0E0,1.7791408E2,3.3710785E0,3.513036E1,1.2842804E1,9.8673706E1,2.4297638E0,5.3709717E0,9.881637E0,3.093605E0,6.707176E0,5.4111114E0,8.629533E1,9.773346E0,0E0,0E0,1.3465048E1,0E0,0E0,1.038693E1,0E0,6.99E0,0E0,3.2598877E0,0E0,1.2261901E0,3.6690067E1,5.7319153E1,7.228363E0,0E0,3.9733753E0,1.8666663E0,3.5380025E0,7.9450006E0,0E0,1.9833336E0,2.7114716E0,8.330159E0,0E0,0E0,3.2051277E0,1.9288017E1,2.0099487E0,1.978103E1,4.3761406E0,1.6781311E0,0E0,0E0,0E0,0E0,5.959235E0,2.936843E0,3.3658981E0,0E0,0E0,0E0,3.4840622E0,5.2436504E0,0E0,0E0,0E0,6.0886364E0,3.015667E0,2.0986E1,4.17857E0,0E0,5.0935183E0,9.592014E0,1.4588196E1,0E0,0E0,2.3728638E0,1.0606058E0,3.2209597E0,0E0,0E0,0E0,1.9880952E0,0E0,0E0,0E0,0E0,0E0,0E0,0E0,0E0,0E0,0E0,0E0,0E0,0E0,0E0,0E0,0E0,0E0,0E0,0E0,0E0,0E0,0E0,0E0,0E0,0E0,0E0],"parents":[2147483647,0,0,1,1,2,2,4,4,5,5,6,6,7,7,8,8,9,9,10,10,11,11,12,12,13,13,14,14,15,15,16,16,19,19,22,22,24,24,26,26,28,28,29,29,30,30,31,31,33,33,34,34,35,35,36,36,38,38,39,39,40,40,43,43,44,44,45,45,46,46,47,47,48,48,53,53,54,54,55,55,59,59,60,60,64,64,65,65,66,66,67,67,69,69,70,70,71,71,74,74,75,75,76,76,80,80],"right_children":[2,4,6,-1,8,10,12,14,16,18,20,22,24,26,28,30,32,-1,-1,34,-1,-1,36,-1,38,-1,40,-1,42,44,46,48,-1,50,52,54,56,-1,58,60,62,-1,-1,64,66,68,70,72,74,-1,-1,-1,-1,76,78,80,-1,-1,-1,82,84,-1,-1,-1,86,88,90,92,-1,94,96,98,-1,-1,100,102,104,-1,-1,-1,106,-1,-1,-1,-1,-1,-1,-1,-1,-1,-1,-1,-1,-1,-1,-1,-1,-1,-1,-1,-1,-1,-1,-1,-1,-1,-1],"split_conditions":[6.377379E-1,8.889634E-2,6.8665725E-1,4.162795E-2,3.5292795E-1,3.3333334E-1,2.529171E-1,5.999789E-1,8.0232984E-1,1.3611242E-1,2.6077327E-1,1.757474E-1,3.971734E-1,1.2692092E-1,2.2944894E-1,2.2802326E-1,4.3266606E-1,8.140534E-4,4.0647395E-2,4.5350012E-1,2.8875545E-2,-6.930268E-3,2.7431673E-1,2.9219145E-2,4.1596484E-1,-1.2664995E-2,3.442625E-1,9.328592E-3,6.369046E-1,1.2290487E-1,5E-1,1.0139378E-1,2.0043021E-2,8.0452275E-1,6.015637E-1,1.6250141E-1,3.3333334E-1,-2.617994E-3,5.515437E-1,7.5716895E-1,4.772554E-1,-1.1928225E-2,-1.8920446E-2,4.643592E-1,9.51514E-2,5.311789E-1,3.6356822E-1,8.813032E-1,2.2019395E-1,2.6633903E-2,1.9900145E-3,-3.6326647E-4,-4.9443366E-3,1.1613376E-1,2.2289501E-1,8.3814174E-1,-9.6384585E-3,6.0938466E-2,9.509572E-2,1E0,7.7309257E-1,1.4480296E-2,-1.6255021E-3,-1.6993029E-2,5.2678937E-1,4.3732247E-1,1.7211105E-1,5.176784E-1,-7.063942E-2,4.7736233E-1,6.1699283E-1,1.3708857E-1,-1.6372835E-2,-6.8404846E-2,2.2802326E-1,1.8953024E-1,8.813032E-1,-6.5316856E-3,-1.1946679E-3,1.3664411E-2,1.9801004E-1,2.8991615E-2,3.703138E-2,-1.8296599E-3,2.1248454E-2,-3.0436004E-2,1.8174857E-3,-4.4864417E-5,1.4205391E-2,-8.76484E-3,2.6741624E-3,-3.9411258E-2,-3.0069208E-2,4.998712E-2,-6.9645285E-3,-1.3964379E-2,2.7869435E-3,2.3862184E-3,-1.197424E-2,-1.851022E-2,-9.054146E-2,-1.1861622E-3,-6.2080263E-3,5.305493E-3,-2.1823763E-3,-1.4217809E-3,1.6729033E-2],"split_indices":[13,7,2,0,2,8,0,13,2,0,0,0,3,0,4,7,0,0,0,4,0,0,3,0,3,0,4,0,3,0,7,7,0,3,2,3,8,0,3,3,3,0,0,3,7,2,4,4,3,0,0,0,0,3,3,2,0,0,0,7,3,0,0,0,4,2,0,2,0,2,3,3,0,0,7,0,4,0,0,0,0,0,0,0,0,0,0,0,0,0,0,0,0,0,0,0,0,0,0,0,0,0,0,0,0,0,0],"split_type":[0,0,0,0,0,0,0,0,0,0,0,0,0,0,0,0,0,0,0,0,0,0,0,0,0,0,0,0,0,0,0,0,0,0,0,0,0,0,0,0,0,0,0,0,0,0,0,0,0,0,0,0,0,0,0,0,0,0,0,0,0,0,0,0,0,0,0,0,0,0,0,0,0,0,0,0,0,0,0,0,0,0,0,0,0,0,0,0,0,0,0,0,0,0,0,0,0,0,0,0,0,0,0,0,0,0,0],"sum_hessian":[2.447E3,1.921E3,5.26E2,2.02E2,1.719E3,3E2,2.26E2,1.81E2,1.538E3,1.95E2,1.05E2,1.15E2,1.11E2,1.62E2,1.9E1,1.077E3,4.61E2,5E0,1.9E2,5.7E1,4.8E1,1.5E1,1E2,8.7E1,2.4E1,6E0,1.56E2,8E0,1.1E1,6.11E2,4.66E2,4.56E2,5E0,4.3E1,1.4E1,4.5E1,5.5E1,5E0,1.9E1,1.42E2,1.4E1,5E0,6E0,7.4E1,5.37E2,2.45E2,2.21E2,9.4E1,3.62E2,3.4E1,9E0,9E0,5E0,2.7E1,1.8E1,4.9E1,6E0,1.4E1,5E0,1.07E2,3.5E1,8E0,6E0,2.5E1,4.9E1,7.3E1,4.64E2,7.5E1,1.7E2,2.6E1,1.95E2,7.2E1,2.2E1,2.15E2,1.47E2,1E1,1.7E1,9E0,9E0,3.8E1,1.1E1,9.4E1,1.3E1,6E0,2.9E1,3.9E1,1E1,5E0,6.8E1,1.05E2,3.59E2,6.2E1,1.3E1,1.9E1,7E0,1.65E2,3E1,1.1E1,6.1E1,5.8E1,8.9E1,5E0,5E0,1E1,7E0,6E0,5E0],"tree_param":{"num_deleted":"0","num_feature":"19","num_nodes":"107","size_leaf_vector":"1"}},{"base_weights":[-2.6133116E-2,-1.9385096E-1,5.8003765E-1,9.949496E-2,-3.3042973E-1,3.2022473E-1,7.0903957E-1,3.2234433E-1,-4.5310345E-1,7.8571427E-1,1.7518248E-1,7.3636365E-1,3.2E-1,4.2231077E-1,-7.826087E-1,-2.3507462E-1,-7.233385E-1,4.375E-1,9.62963E-2,-5.454546E-2,2.3622048E-1,6.234568E-1,8.402367E-2,-1.818182E-2,6.666667E-2,5.9067357E-1,-1.3559322E-1,-2.857143E-2,-9.411765E-2,-7.276119E-2,-5.576208E-1,-9.429429E-1,-4.888889E-1,8.571429E-2,1.0000001E-2,-6.25E-2,2.9166666E-1,8.125E-1,5.3913045E-1,7.9268295E-1,4.375E-1,6.428572E-2,-3.6956522E-1,-4.875E-1,-0E0,-4.1916168E-1,-7.76699E-1,-2.5E-1,-9.658385E-2,-2.9239765E-1,-7.172414E-1,4.347826E-1,9.615385E-2,8.7804876E-2,3.75E-2,6.25E-1,-2.5E-1,3.888889E-1,8.923077E-2,9.375E-2,3.5051546E-1,-8.695652E-2,-6.25E-1,-5.810811E-1,5.714286E-2,7.619048E-1,-3.661327E-2,-6.666667E-1,-3.4108528E-1,-8.833333E-2,-6.136364E-1,-5.714286E-2,1.6666668E-2,-4.7191012E-1,-9.638554E-2,-5.940594E-1,-9.777778E-2,-0E0,4.918033E-1,-6.1538465E-2,3.25E-1,-0E0,6.632653E-1,-8.3333336E-2,2.857143E-2,-0E0,7E-2,-2.857143E-2,3.956044E-2,-5.714286E-2,1.1764706E-2,-3.5714287E-2,-9.090909E-2,8.333334E-3,-6.984127E-2,3.75E-2,9.2857145E-2,3.2163744E-3,-2.8125001E-2,-9.6E-2,-1.3333335E-2,8.571429E-2,-4.065041E-2,-7.1794875E-2,1.6666668E-2,-5.56962E-2,1.818182E-2,1.25E-2,-1.8333334E-2,-6.526316E-2,2.857143E-2,2.0833334E-2,6.5789476E-2,8.75E-2,1.818182E-2,5.30303E-2,9.090909E-2],"categories":[],"categories_nodes":[],"categories_segments":[],"categories_sizes":[],"default_left":[0,0,0,0,0,0,0,0,0,0,0,0,0,0,0,0,0,0,0,0,0,0,0,0,0,0,0,0,0,0,0,0,0,0,0,0,0,0,0,0,0,0,0,0,0,0,0,0,0,0,0,0,0,0,0,0,0,0,0,0,0,0,0,0,0,0,0,0,0,0,0,0,0,0,0,0,0,0,0,0,0,0,0,0,0,0,0,0,0,0,0,0,0,0,0,0,0,0,0,0,0,0,0,0,0,0,0,0,0,0,0,0,0,0,0,0,0],"id":5,"left_children":[1,3,5,-1,7,9,11,13,15,17,19,21,23,25,27,29,31,33,-1,-1,35,37,-1,-1,-1,39,41,-1,-1,43,45,47,49,-1,-1,-1,51,53,55,57,59,-1,61,63,65,67,69,71,-1,73,75,77,79,-1,-1,81,83,85,-1,-1,87,89,91,93,-1,95,97,99,101,-1,103,-1,-1,105,107,109,-1,-1,111,-1,113,-1,115,-1,-1,-1,-1,-1,-1,-1,-1,-1,-1,-1,-1,-1,-1,-1,-1,-1,-1,-1,-1,-1,-1,-1,-1,-1,-1,-1,-1,-1,-1,-1,-1,-1,-1],"loss_changes":[2.4909164E2,3.11907E2,1.7570145E1,0E0,1.3804076E2,1.1880142E1,3.5274353E0,3.0485594E1,8.526254E1,2.1709652E0,6.154962E0,3.3463745E0,4.470303E0,2.3656593E1,1.5432949E0,4.20517E1,3.2850555E1,2.180357E0,0E0,0E0,6.246719E0,2.1444511E0,0E0,0E0,0E0,5.625107E0,1.0983578E1,0E0,0E0,1.6174814E1,7.8341217E0,5.041687E0,1.3924095E1,0E0,0E0,0E0,3.3159142E0,1.0472565E0,7.9489136E0,2.9516754E0,4.5425262E0,0E0,3.2663045E0,8.259701E0,1.2776289E1,2.9997692E0,1.2489281E0,1.7023811E0,0E0,5.971426E0,4.0726852E0,1.7106199E0,8.667308E0,0E0,0E0,2.4872437E0,3.9880953E0,2.1777778E0,0E0,0E0,2.8956604E0,2.3470955E0,1.5016232E0,5.8270054E0,0E0,1.0059519E0,7.361739E0,5.9733334E0,1.0460308E1,0E0,3.701048E0,0E0,0E0,5.04974E0,1.6205823E0,5.3910217E0,0E0,0E0,2.7349367E0,0E0,2.990909E0,0E0,2.7210922E0,0E0,0E0,0E0,0E0,0E0,0E0,0E0,0E0,0E0,0E0,0E0,0E0,0E0,0E0,0E0,0E0,0E0,0E0,0E0,0E0,0E0,0E0,0E0,0E0,0E0,0E0,0E0,0E0,0E0,0E0,0E0,0E0,0E0,0E0],"parents":[2147483647,0,0,1,1,2,2,4,4,5,5,6,6,7,7,8,8,9,9,10,10,11,11,12,12,13,13,14,14,15,15,16,16,17,17,20,20,21,21,25,25,26,26,29,29,30,30,31,31,32,32,36,36,37,37,38,38,39,39,40,40,42,42,43,43,44,44,45,45,46,46,47,47,49,49,50,50,51,51,52,52,55,55,56,56,57,57,60,60,61,61,62,62,63,63,65,65,66,66,67,67,68,68,70,70,73,73,74,74,75,75,78,78,80,80,82,82],"right_children":[2,4,6,-1,8,10,12,14,16,18,20,22,24,26,28,30,32,34,-1,-1,36,38,-1,-1,-1,40,42,-1,-1,44,46,48,50,-1,-1,-1,52,54,56,58,60,-1,62,64,66,68,70,72,-1,74,76,78,80,-1,-1,82,84,86,-1,-1,88,90,92,94,-1,96,98,100,102,-1,104,-1,-1,106,108,110,-1,-1,112,-1,114,-1,116,-1,-1,-1,-1,-1,-1,-1,-1,-1,-1,-1,-1,-1,-1,-1,-1,-1,-1,-1,-1,-1,-1,-1,-1,-1,-1,-1,-1,-1,-1,-1,-1,-1,-1],"split_conditions":[9.2930335E-1,8.889634E-2,2.0321116E-1,3.7465155E-2,4.403927E-1,5.107075E-1,9.0835315E-1,8.0452275E-1,2.2802326E-1,3.7677175E-1,4.0054888E-1,3.17001E-1,9.37052E-1,1E0,3.1883153E-1,7.8089553E-1,5E-1,3.5292795E-1,2.5797242E-2,-4.2137327E-3,1.1393883E-1,3.6298776E-1,5.2324653E-2,-1.2802258E-3,9.780183E-3,1.585005E-1,3.006763E-1,-1.5056858E-2,-2.429906E-2,4.0996352E-1,1.1401163E-1,2.8291497E-2,7.140379E-1,4.6571594E-2,7.326454E-4,-3.0334236E-3,7.4174184E-1,8.664078E-1,7.3840964E-1,5.8878577E-1,8.925395E-3,1.3196791E-2,3.5292795E-1,5.9240097E-1,6.312107E-2,8.155753E-1,2.2019395E-1,2.5189975E-1,-7.2914384E-2,1E0,8.318401E-1,8.139501E-2,2.1421328E-1,1.727794E-2,1.49642E-2,3.825224E-1,7.064614E-1,1.0139378E-1,2.4771824E-2,6.646029E-2,2.4958232E-1,3.229921E-1,9.51514E-2,3.3333334E-1,9.504902E-3,4.7836164E-1,1.585005E-1,4.4200382E-1,2.460151E-1,-1.9447112E-2,3.5357073E-1,-5.3867247E-2,5.8186413E-3,6.993856E-1,8.245025E-2,8.4636116E-1,-8.397996E-2,9.672448E-4,4.288357E-1,-3.796196E-3,7.3802495E-1,-4.6126693E-4,6.4052814E-1,-9.121746E-3,9.162766E-3,3.1267614E-3,3.3213962E-2,-5.357376E-3,1.1108013E-2,-2.243945E-2,2.4598867E-3,-2.485931E-3,-6.7501076E-2,3.6612272E-3,-2.7689848E-2,5.051166E-3,1.8115683E-2,6.1798096E-4,-7.0581376E-3,-1.8054118E-2,-6.1495095E-3,4.6946704E-3,-6.4702122E-3,-1.7727291E-2,1.0234755E-2,-1.2676013E-2,7.617295E-3,2.6592077E-3,-4.50604E-3,-3.5270076E-2,2.980256E-2,1.0067585E-2,8.581755E-3,1.0488162E-2,1.1591911E-3,2.4672939E-2,2.3077536E-2],"split_indices":[11,7,7,0,2,2,2,3,7,1,4,7,1,8,2,2,7,2,0,0,3,3,0,0,0,7,2,0,0,4,7,5,2,0,0,0,2,2,2,3,5,0,2,1,5,1,3,1,0,7,4,5,5,0,0,3,4,7,0,0,1,2,7,8,0,1,7,3,5,0,5,0,0,2,5,2,0,0,3,0,4,0,1,0,0,0,0,0,0,0,0,0,0,0,0,0,0,0,0,0,0,0,0,0,0,0,0,0,0,0,0,0,0,0,0,0,0],"split_type":[0,0,0,0,0,0,0,0,0,0,0,0,0,0,0,0,0,0,0,0,0,0,0,0,0,0,0,0,0,0,0,0,0,0,0,0,0,0,0,0,0,0,0,0,0,0,0,0,0,0,0,0,0,0,0,0,0,0,0,0,0,0,0,0,0,0,0,0,0,0,0,0,0,0,0,0,0,0,0,0,0,0,0,0,0,0,0,0,0,0,0,0,0,0,0,0,0,0,0,0,0,0,0,0,0,0,0,0,0,0,0,0,0,0,0,0,0],"sum_hessian":[2.448E3,1.918E3,5.3E2,1.97E2,1.721E3,1.77E2,3.53E2,2.72E2,1.449E3,4.1E1,1.36E2,3.29E2,2.4E1,2.5E2,2.2E1,8.03E2,6.46E2,1.5E1,2.6E1,1E1,1.26E2,1.61E2,1.68E2,1E1,1.4E1,1.92E2,5.8E1,6E0,1.6E1,5.35E2,2.68E2,3.32E2,3.14E2,6E0,9E0,7E0,1.19E2,4.7E1,1.14E2,8.1E1,1.11E2,1.3E1,4.5E1,7.9E1,4.56E2,1.66E2,1.02E2,1.1E1,3.21E2,1.7E2,1.44E2,6.8E1,5.1E1,4E1,7E0,1.03E2,1.1E1,1.7E1,6.4E1,1.5E1,9.6E1,2.2E1,2.3E1,7.3E1,6E0,2E1,4.36E2,3.8E1,1.28E2,5.9E1,4.3E1,6E0,5E0,8.8E1,8.2E1,1E2,4.4E1,8E0,6E1,1.2E1,3.9E1,6E0,9.7E1,5E0,6E0,8E0,9E0,6E0,9E1,6E0,1.6E1,1.3E1,1E1,1.1E1,6.2E1,7E0,1.3E1,3.41E2,9.5E1,2.4E1,1.4E1,6E0,1.22E2,3.8E1,5E0,7.8E1,1E1,2.3E1,5.9E1,9.4E1,6E0,2.3E1,3.7E1,7E0,3.2E1,6.5E1,3.2E1],"tree_param":{"num_deleted":"0","num_feature":"19","num_nodes":"117","size_leaf_vector":"1"}},{"base_weights":[2.4220033E-2,-1.4293249E-1,6.0998154E-1,9.949496E-2,-2.7545616E-1,4.9858356E-1,8.148148E-1,9.333333E-3,-5E-1,8.571429E-2,4.19244E-1,8.3798885E-1,3.636364E-2,2.9589042E-1,-2.6165804E-1,1.4285714E-2,-6.4507425E-1,3.3333335E-2,4.6183205E-1,8.554914E-2,2.857143E-2,4.715909E-1,1.3157895E-1,-4.9056605E-1,-1.00877196E-1,2.88E-1,-3.8372093E-1,-4.7285068E-1,-8.9666665E-1,4.375E-1,-4E-1,5.8E-1,3.0088496E-1,-0E0,6.287879E-1,-1.21212125E-1,4.021739E-1,-3.7719297E-1,-7.6086956E-1,1.6964285E-1,-3.5897437E-1,7.5E-2,1E-1,-7.1428575E-2,-6.666667E-1,-2.7169812E-1,-7.696629E-1,-6.4615387E-1,-9.6186444E-2,-1.6666668E-2,7.272728E-2,-8.571429E-2,-0E0,4.3055555E-1,7.0886075E-1,4.3617022E-1,-3.5E-1,-4E-1,1.9354838E-1,3.255814E-1,7.6666665E-1,-6.764706E-1,1.6666667E-1,6.964286E-1,-5.4054055E-2,-8.235294E-2,-2.9591838E-1,-8.292683E-1,-1.6666668E-2,-7.272728E-2,2.647059E-1,-2.1978022E-1,-8.148148E-2,1.9753087E-1,-7E-2,2.2727273E-1,-3.809524E-1,-9.3333334E-2,-5.16129E-1,4.4444446E-2,-2.9571983E-1,-6.5486723E-1,-9.5454544E-2,-3.8709676E-1,-8.571429E-2,3.275862E-1,8.0000006E-2,1.6666668E-2,7.432432E-1,3E-1,8E-1,-8.571429E-2,-7.1428575E-2,1.6666668E-2,-7E-2,4.2105265E-2,-1.5384616E-2,5.6E-2,-0E0,8.9999996E-2,5.8536585E-2,-2.2222223E-2,-8.076923E-2,-1.1904762E-2,6.4E-2,8.611111E-2,3.809524E-2,-5.5000003E-2,5E-2,-2.5000002E-3,-4.7457628E-2,-5E-2,-9.642857E-2,1.7977528E-2,7.857143E-2,-5.9701493E-3,-6.4E-2,-1.0714286E-2,3.5185184E-2,-0E0,8.3333336E-2,-8.333334E-3,-7E-2,1.25E-2,-7.083333E-2,-4.4660192E-2,-1.9354839E-2,-8.9655176E-2,-5.647059E-2,-6.5E-2,8.333334E-3,4.7916666E-2,-3.636364E-2,8.3636366E-2,4.4999998E-2,-2.5E-2,5.0980397E-2,9.4736844E-2,2.857143E-2,-5E-2,2.2222223E-2],"categories":[],"categories_nodes":[],"categories_segments":[],"categories_sizes":[],"default_left":[0,0,0,0,0,0,0,0,0,0,0,0,0,0,0,0,0,0,0,0,0,0,0,0,0,0,0,0,0,0,0,0,0,0,0,0,0,0,0,0,0,0,0,0,0,0,0,0,0,0,0,0,0,0,0,0,0,0,0,0,0,0,0,0,0,0,0,0,0,0,0,0,0,0,0,0,0,0,0,0,0,0,0,0,0,0,0,0,0,0,0,0,0,0,0,0,0,0,0,0,0,0,0,0,0,0,0,0,0,0,0,0,0,0,0,0,0,0,0,0,0,0,0,0,0,0,0,0,0,0,0,0,0,0,0,0,0,0,0,0,0],"id":6,"left_children":[1,3,5,-1,7,9,11,13,15,-1,17,19,-1,21,23,25,27,29,31,-1,-1,33,35,37,39,41,43,45,47,49,51,53,55,57,59,61,63,65,67,69,71,-1,73,75,77,79,81,83,-1,-1,-1,-1,-1,85,87,89,91,93,95,97,99,101,103,105,107,-1,109,111,-1,-1,113,115,-1,117,-1,119,121,-1,123,-1,125,127,-1,129,-1,131,-1,-1,133,135,137,-1,139,-1,-1,-1,-1,-1,-1,-1,-1,-1,-1,-1,-1,-1,-1,-1,-1,-1,-1,-1,-1,-1,-1,-1,-1,-1,-1,-1,-1,-1,-1,-1,-1,-1,-1,-1,-1,-1,-1,-1,-1,-1,-1,-1,-1,-1,-1,-1,-1],"loss_changes":[2.3859961E2,2.861838E2,1.1938293E1,0E0,1.08651855E2,9.68277E0,1.6713867E0,5.8318295E1,7.0888336E1,0E0,4.7672462E0,1.485817E0,0E0,1.0475353E1,1.4156866E1,2.2987934E1,3.1683624E1,5.429167E0,4.808407E0,0E0,0E0,1.3047348E1,1.30455065E1,4.585579E0,1.5979963E1,1.0782E1,7.5514946E0,2.618029E1,4.2783356E0,2.9223485E0,2.742857E0,2.5834236E0,1.0102891E1,3.5612903E0,5.268749E0,1.5937611E1,1.2388389E1,3.8917465E0,1.7313538E0,9.742026E0,7.244608E0,0E0,7.1604934E0,3.9696972E0,1.3247299E0,4.6902237E0,3.1527252E0,3.2209835E0,0E0,0E0,0E0,0E0,0E0,2.4769163E0,1.3488464E0,4.417021E0,2.7642858E0,2.6666665E0,2.514823E0,3.2818608E0,1.6487808E0,1.8471594E0,9.0019045E0,2.5813484E0,1.0441892E1,0E0,4.7315025E0,1.3405933E0,0E0,0E0,4.3722034E0,6.083201E0,0E0,3.8461199E0,0E0,3.030303E0,1.9357145E0,0E0,3.9086027E0,0E0,3.875433E0,1.9560509E0,0E0,3.8881717E0,0E0,6.2512403E0,0E0,0E0,1.6443481E0,8.204902E0,1.6240597E0,0E0,1.8730159E0,0E0,0E0,0E0,0E0,0E0,0E0,0E0,0E0,0E0,0E0,0E0,0E0,0E0,0E0,0E0,0E0,0E0,0E0,0E0,0E0,0E0,0E0,0E0,0E0,0E0,0E0,0E0,0E0,0E0,0E0,0E0,0E0,0E0,0E0,0E0,0E0,0E0,0E0,0E0,0E0,0E0,0E0,0E0,0E0,0E0,0E0,0E0,0E0],"parents":[2147483647,0,0,1,1,2,2,4,4,5,5,6,6,7,7,8,8,10,10,11,11,13,13,14,14,15,15,16,16,17,17,18,18,21,21,22,22,23,23,24,24,25,25,26,26,27,27,28,28,29,29,30,30,31,31,32,32,33,33,34,34,35,35,36,36,37,37,38,38,39,39,40,40,42,42,43,43,44,44,45,45,46,46,47,47,53,53,54,54,55,55,56,56,57,57,58,58,59,59,60,60,61,61,62,62,63,63,64,64,66,66,67,67,70,70,71,71,73,73,75,75,76,76,78,78,80,80,81,81,83,83,85,85,88,88,89,89,90,90,92,92],"right_children":[2,4,6,-1,8,10,12,14,16,-1,18,20,-1,22,24,26,28,30,32,-1,-1,34,36,38,40,42,44,46,48,50,52,54,56,58,60,62,64,66,68,70,72,-1,74,76,78,80,82,84,-1,-1,-1,-1,-1,86,88,90,92,94,96,98,100,102,104,106,108,-1,110,112,-1,-1,114,116,-1,118,-1,120,122,-1,124,-1,126,128,-1,130,-1,132,-1,-1,134,136,138,-1,140,-1,-1,-1,-1,-1,-1,-1,-1,-1,-1,-1,-1,-1,-1,-1,-1,-1,-1,-1,-1,-1,-1,-1,-1,-1,-1,-1,-1,-1,-1,-1,-1,-1,-1,-1,-1,-1,-1,-1,-1,-1,-1,-1,-1,-1,-1,-1,-1],"split_conditions":[9.2930335E-1,8.889634E-2,3.17001E-1,3.371864E-2,1.585005E-1,4.403927E-1,9.025132E-1,6.707469E-1,4.8349434E-1,2.9493753E-2,3.9478505E-1,8.0452275E-1,1.6329696E-2,5.107075E-1,2.8395355E-1,2.930698E-1,2.930698E-1,3.1883588E-1,7.4082017E-1,4.6022095E-2,9.572941E-3,9.51514E-2,1.0778393E-1,1.1401163E-1,3.971734E-1,2.1537058E-1,3.5292795E-1,7.3840964E-1,9.182351E-2,2.2204902E-2,4.4580975E-1,2.0321116E-1,3.918293E-1,3.5963354E-1,3.7677175E-1,5.781664E-1,1.4745784E-1,8.403758E-1,9.1816765E-1,7.444894E-1,7.500943E-1,3.8977858E-2,8.0452275E-1,2.9253918E-1,5.954532E-1,2.6698217E-1,8.401895E-1,2.8516698E-1,-7.107399E-2,-2.3229241E-2,2.5580568E-2,-1.8788874E-2,-6.153852E-4,1.8286522E-1,3.1841114E-1,2.8182894E-1,7.788724E-1,2.5189975E-1,3.8627684E-1,9.677471E-1,3.8627684E-1,6.246834E-1,8.139501E-2,5.762118E-1,5.765953E-1,-9.047157E-3,8.38336E-1,3.5652798E-1,-1.5219427E-2,-1.8333545E-2,3.825224E-1,5.6895745E-1,-1.7458683E-2,4.3486932E-1,-2.1803444E-2,4.3066558E-1,6.8332297E-1,-3.6435973E-2,6.445836E-1,1.6865967E-2,6.2106764E-1,7.612503E-1,-5.499028E-2,7.372931E-2,-7.7043705E-2,7.415252E-1,2.2971813E-2,3.543474E-2,6.9228923E-1,8.1374097E-1,8.3814174E-1,-2.341543E-3,7.0061976E-1,4.1473866E-3,-2.5726771E-2,8.797079E-3,-2.9449405E-3,1.4649734E-2,-1.3520241E-3,2.150142E-2,8.542311E-3,-4.171926E-3,-1.01304175E-2,-5.151236E-3,1.4919871E-2,9.922633E-3,7.160625E-3,-8.75696E-3,4.9123648E-3,-5.985916E-4,-6.2880577E-3,-7.87425E-3,-1.7395461E-2,2.4865807E-3,1.1228526E-2,-2.2783875E-3,-1.4595145E-2,-8.47137E-4,8.816972E-3,2.2351444E-3,2.6443584E-2,-2.289343E-3,-2.303595E-2,3.477812E-4,-3.9815843E-2,-1.0640129E-2,-5.7847085E-3,-4.2459052E-2,-3.0876288E-2,-1.4717526E-2,4.5675873E-3,7.5525283E-3,-1.9852654E-3,1.9882178E-2,2.6311565E-2,-7.342398E-4,4.622181E-3,1.6820913E-2,7.0212157E-3,-9.217692E-3,2.5622488E-3],"split_indices":[11,7,7,0,7,2,2,2,2,0,4,3,0,2,3,9,9,1,2,0,0,7,5,7,3,4,2,2,5,5,1,7,3,1,1,3,5,2,4,1,1,0,3,4,3,3,4,7,0,0,0,0,0,5,3,3,2,1,4,9,4,1,5,4,4,0,4,5,0,0,3,3,0,1,0,1,3,0,3,0,2,1,0,5,0,1,0,0,2,4,2,0,1,0,0,0,0,0,0,0,0,0,0,0,0,0,0,0,0,0,0,0,0,0,0,0,0,0,0,0,0,0,0,0,0,0,0,0,0,0,0,0,0,0,0,0,0,0,0,0,0],"split_type":[0,0,0,0,0,0,0,0,0,0,0,0,0,0,0,0,0,0,0,0,0,0,0,0,0,0,0,0,0,0,0,0,0,0,0,0,0,0,0,0,0,0,0,0,0,0,0,0,0,0,0,0,0,0,0,0,0,0,0,0,0,0,0,0,0,0,0,0,0,0,0,0,0,0,0,0,0,0,0,0,0,0,0,0,0,0,0,0,0,0,0,0,0,0,0,0,0,0,0,0,0,0,0,0,0,0,0,0,0,0,0,0,0,0,0,0,0,0,0,0,0,0,0,0,0,0,0,0,0,0,0,0,0,0,0,0,0,0,0,0,0],"sum_hessian":[2.435E3,1.895E3,5.4E2,1.97E2,1.698E3,3.52E2,1.88E2,7.49E2,9.49E2,6.2E1,2.9E2,1.78E2,1E1,3.64E2,3.85E2,2.09E2,7.4E2,2.9E1,2.61E2,1.72E2,6E0,1.75E2,1.89E2,1.58E2,2.27E2,1.24E2,8.5E1,4.41E2,2.99E2,1.5E1,1.4E1,1.49E2,1.12E2,4.4E1,1.31E2,9.8E1,9.1E1,1.13E2,4.5E1,1.11E2,1.16E2,3.5E1,8.9E1,4.1E1,4.4E1,2.64E2,1.77E2,6.4E1,2.35E2,5E0,1E1,6E0,8E0,7.1E1,7.8E1,9.3E1,1.9E1,1.4E1,3E1,4.2E1,8.9E1,3.3E1,6.5E1,5.5E1,3.6E1,1.6E1,9.7E1,4E1,5E0,1E1,1.01E2,9E1,2.6E1,8E1,9E0,2.1E1,2E1,1.4E1,3E1,8E0,2.56E2,1.12E2,6.5E1,3E1,3.4E1,5.7E1,1.4E1,5E0,7.3E1,6.9E1,2.4E1,6E0,1.3E1,5E0,9E0,1.8E1,1.2E1,2.4E1,1.8E1,4.9E1,4E1,8E0,2.5E1,4.1E1,2.4E1,3.5E1,2E1,1.9E1,1.7E1,3.9E1,5.8E1,1.3E1,2.7E1,8.8E1,1.3E1,6.6E1,2.4E1,2.7E1,5.3E1,1.6E1,5E0,1.1E1,9E0,7E0,2.3E1,1.02E2,1.54E2,2.8E1,8.4E1,1.9E1,1.1E1,4.7E1,1E1,5.4E1,1.9E1,1.9E1,5E1,1.8E1,6E0,5E0,8E0],"tree_param":{"num_deleted":"0","num_feature":"19","num_nodes":"141","size_leaf_vector":"1"}},{"base_weights":[4.3636363E-2,2.8742516E-1,-3.3299074E-1,7.479407E-1,-2.45262E-2,-2.0641026E-1,-8.402062E-1,9.950249E-2,6.2407863E-1,-6.7027026E-1,1.4305751E-1,-1.8939395E-3,-6.3241106E-1,5E-2,-8.7830687E-1,4.125E-1,9.2261904E-1,-9.133858E-1,-1.3559322E-1,4.0584415E-2,7.8571427E-1,4.3809524E-1,-1.1084906E-1,-6.7489713E-1,3.636364E-2,-5.4545456E-1,-9.426752E-2,8.77193E-1,2.6630434E-1,9.5569625E-2,3.636364E-2,-3.75E-2,-9.4166666E-2,-3.2608697E-1,5E-1,2.305936E-1,-4.24581E-1,4.1666666E-1,8.2758623E-1,-7.272728E-2,5.6842107E-1,-8.6363636E-2,-6.947891E-2,-3.809524E-1,-7.7348065E-1,-8.6363636E-2,8.3333336E-2,9.411765E-2,2.857143E-2,-5.333334E-2,3.3529413E-1,2.3529412E-1,-6.333333E-1,8.888889E-2,-1.6666668E-2,-2.1782178E-1,3.639053E-1,-2.5892857E-1,-6.911765E-1,-1.6666668E-2,8.571429E-2,5.714286E-1,8.9552246E-2,3.392857E-1,8.75E-1,2.4175824E-1,-1.5974441E-1,-6.415094E-1,9.090909E-2,-9.375E-2,-6.372549E-1,-2.857143E-2,5E-2,4.369748E-1,9.615385E-2,-2.857143E-2,5.4545456E-1,-3.5714287E-1,-8.235294E-2,8.888889E-2,-3.2258064E-1,7.0535713E-1,1.938326E-1,-6.388889E-1,-7.7922076E-2,-9.032258E-2,-5E-1,9.2307694E-2,-0E0,9.375E-2,6.4E-1,9.69697E-2,3.75E-2,-1.7777778E-1,6.3829786E-1,-9.2857145E-2,-1.23333335E-1,-0E0,-8.717949E-2,-3.0952382E-1,-8.52459E-2,2.0408165E-2,5.9154928E-2,2.9268293E-2,-5.8333334E-2,8.3333336E-2,1.6666668E-2,-8.75E-2,2.857143E-2,-4.4871796E-2,3.125E-2,8.026316E-2,4.864865E-2,-8.3333336E-2,2.2072073E-2,-4.5833334E-2,-9.2307694E-2,-2.8846154E-2,3.4615386E-2,-8.571429E-2,-5.5555557E-3,5.6250002E-2,-3.529412E-2,9.090909E-2,4.0000003E-2,1.2903226E-2,-8.0000006E-2,1.0000001E-2,7.631579E-2,3.269231E-2,-2.1686748E-2,5.714286E-2,-4.4444446E-2,-5.666667E-2,3.0769233E-2],"categories":[],"categories_nodes":[],"categories_segments":[],"categories_sizes":[],"default_left":[0,0,0,0,0,0,0,0,0,0,0,0,0,0,0,0,0,0,0,0,0,0,0,0,0,0,0,0,0,0,0,0,0,0,0,0,0,0,0,0,0,0,0,0,0,0,0,0,0,0,0,0,0,0,0,0,0,0,0,0,0,0,0,0,0,0,0,0,0,0,0,0,0,0,0,0,0,0,0,0,0,0,0,0,0,0,0,0,0,0,0,0,0,0,0,0,0,0,0,0,0,0,0,0,0,0,0,0,0,0,0,0,0,0,0,0,0,0,0,0,0,0,0,0,0,0,0,0,0,0,0,0,0,0,0],"id":7,"left_children":[1,3,5,7,9,11,13,-1,15,17,19,21,23,-1,25,27,29,31,33,35,37,39,41,43,-1,45,-1,47,49,-1,-1,-1,-1,51,53,55,57,59,61,-1,63,-1,65,67,69,-1,71,-1,-1,-1,73,75,77,-1,-1,79,81,83,85,-1,-1,87,-1,89,91,93,95,97,-1,-1,99,-1,-1,101,103,-1,105,107,-1,-1,109,111,113,115,117,-1,119,-1,-1,121,123,-1,-1,125,127,-1,129,131,-1,133,-1,-1,-1,-1,-1,-1,-1,-1,-1,-1,-1,-1,-1,-1,-1,-1,-1,-1,-1,-1,-1,-1,-1,-1,-1,-1,-1,-1,-1,-1,-1,-1,-1,-1,-1],"loss_changes":[2.2734395E2,2.1593698E2,6.229667E1,1.7955872E1,9.71658E1,6.795561E1,1.0345322E1,0E0,2.5327469E1,2.3923996E1,4.6922745E1,2.5360394E1,1.0951904E1,0E0,3.5351715E0,1.607106E1,2.7587128E0,1.580574E0,7.306558E0,5.4543503E1,1.1695404E0,1.6360535E1,1.3144594E1,6.7470245E0,0E0,6.674242E0,0E0,1.8882523E0,1.0329518E1,0E0,0E0,0E0,0E0,8.083206E0,3.7777777E0,2.6262482E1,7.7260666E0,3.2261903E0,1.0022774E0,0E0,6.3766937E0,0E0,1.1360492E1,2.1759373E1,3.4467773E0,0E0,1.9880952E0,0E0,0E0,0E0,4.091694E0,2.9029794E0,1.2817917E0,0E0,0E0,1.1996451E1,1.949149E1,7.653048E0,2.305027E0,0E0,0E0,4.2197804E0,0E0,4.074821E0,1.530304E0,1.5252476E1,8.647541E0,7.8297043E0,0E0,0E0,6.930107E0,0E0,0E0,4.1631985E0,7.1147594E0,0E0,1.0606058E0,4.9107146E0,0E0,0E0,7.590208E0,1.9940681E0,6.453347E0,1.4241447E0,6.974775E0,0E0,5.984127E0,0E0,0E0,6.898897E0,1.2509098E0,0E0,0E0,8.693907E0,3.0826435E0,0E0,1.2705202E1,4.0634923E0,0E0,6.840293E0,0E0,0E0,0E0,0E0,0E0,0E0,0E0,0E0,0E0,0E0,0E0,0E0,0E0,0E0,0E0,0E0,0E0,0E0,0E0,0E0,0E0,0E0,0E0,0E0,0E0,0E0,0E0,0E0,0E0,0E0,0E0,0E0,0E0,0E0,0E0],"parents":[2147483647,0,0,1,1,2,2,3,3,4,4,5,5,6,6,8,8,9,9,10,10,11,11,12,12,14,14,15,15,16,16,17,17,18,18,19,19,20,20,21,21,22,22,23,23,25,25,27,27,28,28,33,33,34,34,35,35,36,36,37,37,38,38,40,40,42,42,43,43,44,44,46,46,50,50,51,51,52,52,55,55,56,56,57,57,58,58,61,61,63,63,64,64,65,65,66,66,67,67,70,70,73,73,74,74,76,76,77,77,80,80,81,81,82,82,83,83,84,84,86,86,89,89,90,90,93,93,94,94,96,96,97,97,99,99],"right_children":[2,4,6,8,10,12,14,-1,16,18,20,22,24,-1,26,28,30,32,34,36,38,40,42,44,-1,46,-1,48,50,-1,-1,-1,-1,52,54,56,58,60,62,-1,64,-1,66,68,70,-1,72,-1,-1,-1,74,76,78,-1,-1,80,82,84,86,-1,-1,88,-1,90,92,94,96,98,-1,-1,100,-1,-1,102,104,-1,106,108,-1,-1,110,112,114,116,118,-1,120,-1,-1,122,124,-1,-1,126,128,-1,130,132,-1,134,-1,-1,-1,-1,-1,-1,-1,-1,-1,-1,-1,-1,-1,-1,-1,-1,-1,-1,-1,-1,-1,-1,-1,-1,-1,-1,-1,-1,-1,-1,-1,-1,-1,-1,-1],"split_conditions":[7.0437956E-1,6.214617E-1,3.7029907E-1,4.069166E-1,2.5E-1,7.4174184E-1,1.7277667E-1,3.0346775E-2,2.2117373E-1,4.3260372E-1,2.7830803E-1,2.9549274E-1,4.3266606E-1,1.2489701E-2,4.569399E-2,4.403927E-1,8.845415E-1,2.108106E-1,7.372931E-2,7.4174184E-1,6.354082E-1,1.0494045E-1,1.0137641E-1,1.5989192E-1,3.089312E-2,1.854582E-1,-7.453509E-2,7.998168E-1,1.621955E-1,4.7480803E-2,1.38474945E-2,-2.1783626E-2,-4.8560727E-2,3.266559E-1,5.922216E-1,1.698721E-1,1.0552764E-1,6.697923E-1,2.9697603E-1,-2.4184654E-2,2.4119045E-1,-3.5185438E-2,1.7211105E-1,1.3611242E-1,2.5782517E-1,-5.7548713E-2,3.125303E-1,2.6110021E-2,8.196077E-3,-6.111741E-3,8.248155E-1,1.937184E-1,2.7082413E-1,4.817772E-3,-1.2998426E-2,2.4116744E-1,5.107075E-1,1.7356691E-1,1.4779402E-1,-2.6363076E-3,3.2519307E-2,6.329591E-1,1.4959224E-2,3.249259E-1,2.8291497E-2,1.3031945E-1,1.953947E-1,9.1748126E-2,1.5221327E-2,-3.1656098E-2,2.8028607E-1,-4.154335E-2,5.6150975E-3,1.8743438E-1,1.6869955E-1,-2.17745E-3,6.697923E-1,2.682835E-1,-1.3122714E-2,2.6567576E-2,7.474234E-1,4.403927E-1,5.176784E-1,2.3175733E-1,6.666667E-1,-1.45596955E-2,8.035031E-1,1.0900679E-2,3.4078092E-3,8.2223076E-1,2.437268E-1,5.7656374E-2,2.1573909E-2,7.2363245E-1,5.2454865E-1,-9.293211E-3,4.8349434E-1,8.8319546E-1,-1.3794473E-2,2.6544088E-1,-8.501716E-2,1.1416987E-3,1.3106058E-2,1.4010966E-3,-4.935849E-3,4.2316336E-2,1.4952541E-3,-3.983621E-2,2.5676012E-3,-9.116918E-3,3.6918223E-3,2.1743104E-2,9.968208E-3,-7.2254958E-3,3.5254478E-3,-7.4145137E-3,-1.2543792E-2,-4.1293087E-3,2.652675E-3,-1.0781869E-2,-3.4755468E-4,5.9626163E-3,-8.513688E-3,3.5359517E-2,1.2304577E-2,1.4062495E-3,-6.070456E-3,3.223905E-3,1.5066335E-2,8.6656455E-3,-5.378473E-3,4.5748027E-3,-4.1656853E-3,-8.47739E-3,1.1682424E-2],"split_indices":[16,9,9,9,18,2,2,0,0,6,0,4,0,0,5,2,4,0,5,2,1,0,0,0,0,0,0,3,0,0,0,0,0,2,2,0,15,3,0,0,0,0,0,0,0,0,1,0,0,0,2,0,4,0,0,2,2,0,6,0,0,4,0,1,5,0,0,6,0,0,0,0,0,0,6,0,3,1,0,0,3,2,2,6,8,0,1,0,0,12,4,0,0,1,1,0,2,4,0,0,0,0,0,0,0,0,0,0,0,0,0,0,0,0,0,0,0,0,0,0,0,0,0,0,0,0,0,0,0,0,0,0,0,0,0],"split_type":[0,0,0,0,0,0,0,0,0,0,0,0,0,0,0,0,0,0,0,0,0,0,0,0,0,0,0,0,0,0,0,0,0,0,0,0,0,0,0,0,0,0,0,0,0,0,0,0,0,0,0,0,0,0,0,0,0,0,0,0,0,0,0,0,0,0,0,0,0,0,0,0,0,0,0,0,0,0,0,0,0,0,0,0,0,0,0,0,0,0,0,0,0,0,0,0,0,0,0,0,0,0,0,0,0,0,0,0,0,0,0,0,0,0,0,0,0,0,0,0,0,0,0,0,0,0,0,0,0,0,0,0,0,0,0],"sum_hessian":[2.474E3,1.502E3,9.72E2,6.06E2,8.96E2,7.79E2,1.93E2,2E2,4.06E2,1.84E2,7.12E2,5.27E2,2.52E2,5E0,1.88E2,2.39E2,1.67E2,1.26E2,5.8E1,6.15E2,9.7E1,1.04E2,4.23E2,2.42E2,1E1,3.2E1,1.56E2,5.6E1,1.83E2,1.57E2,1E1,7E0,1.19E2,4.5E1,1.3E1,4.37E2,1.78E2,1.1E1,8.6E1,1E1,9.4E1,2.1E1,4.02E2,6.2E1,1.8E2,2.1E1,1.1E1,5E1,6E0,1.4E1,1.69E2,1.6E1,2.9E1,8E0,5E0,1E2,3.37E2,1.11E2,6.7E1,5E0,6E0,2E1,6.6E1,5.5E1,3.9E1,9E1,3.12E2,5.2E1,1E1,7.9E1,1.01E2,6E0,5E0,1.18E2,5.1E1,6E0,1E1,1.3E1,1.6E1,8E0,9.2E1,1.11E2,2.26E2,3.5E1,7.6E1,3E1,3.7E1,1.2E1,8E0,3.1E1,2.4E1,3.2E1,7E0,4.4E1,4.6E1,1.3E1,2.99E2,1.4E1,3.8E1,4.1E1,6E1,4.8E1,7E1,4E1,1.1E1,5E0,5E0,7E0,6E0,7.7E1,1.5E1,7.5E1,3.6E1,5E0,2.21E2,2.3E1,1.2E1,5.1E1,2.5E1,2E1,1.7E1,1.5E1,1.6E1,1E1,1.4E1,3E1,1.4E1,9E0,3.7E1,5.1E1,2.48E2,6E0,8E0,2.9E1,1.2E1],"tree_param":{"num_deleted":"0","num_feature":"19","num_nodes":"135","size_leaf_vector":"1"}},{"base_weights":[8.961303E-3,9.94898E-2,-7.654867E-2,-2.6596367E-1,5.072202E-1,3.842795E-1,-3.6646384E-1,7.3513514E-1,3.918919E-1,5.363129E-1,-1.5686275E-1,-2.946154E-1,-8.833333E-1,7.6300584E-2,3.0769232E-1,7.121212E-1,3.2131147E-1,6.1744964E-1,1.2903225E-1,2.0833333E-1,-4.642857E-1,-1.5148064E-1,-5.9101653E-1,-6.0606062E-2,-9.391892E-2,-1.6666668E-2,6.25E-2,8.4745765E-2,-3.75E-2,4.2523363E-1,7.608695E-2,6.544118E-1,2.1428572E-1,-1.904762E-1,7.272728E-2,-0E0,8.3333336E-2,-1.875E-1,-7.692308E-2,-2.336874E-1,9.5454544E-2,-7.3741007E-1,-3.0821916E-1,2.7184466E-1,5.625E-1,1.9277108E-1,-8.9999996E-2,7.2321427E-1,3.2E-1,-2.857143E-2,6.25E-2,8.3333336E-2,-5E-2,3.0769232E-1,-5.714286E-2,-4.4444446E-2,1.25E-2,-2.7346277E-1,3.5714287E-1,6.0714287E-1,2.0725388E-2,-8.627451E-1,-5.793651E-1,-7.407407E-1,-2.0833333E-1,5.263158E-1,-4.255319E-2,4.2307693E-1,8.571429E-2,-2.1052632E-1,3.0769232E-1,4.864865E-2,8.2894735E-2,-1.3333335E-2,9.090909E-2,5.714286E-2,-5E-2,5.714286E-2,-0E0,-3.3982687E-2,-7.643312E-3,7.4074077E-3,8.1250004E-2,2.1428572E-2,9.3333334E-2,-4.4999998E-2,7.4712643E-3,-9.179105E-2,-4.4999998E-2,-9.5454544E-2,-4.952381E-2,-9.411765E-2,-3.636364E-2,8.888889E-2,-2.9464288E-2,8.6363636E-2,3.0555556E-2,-1.4634146E-2,5.714286E-2,6.0344826E-2,-9.52381E-3,1.6666668E-2,-3.5714287E-2,-0E0,7.4074075E-2],"categories":[],"categories_nodes":[],"categories_segments":[],"categories_sizes":[],"default_left":[0,0,0,0,0,0,0,0,0,0,0,0,0,0,0,0,0,0,0,0,0,0,0,0,0,0,0,0,0,0,0,0,0,0,0,0,0,0,0,0,0,0,0,0,0,0,0,0,0,0,0,0,0,0,0,0,0,0,0,0,0,0,0,0,0,0,0,0,0,0,0,0,0,0,0,0,0,0,0,0,0,0,0,0,0,0,0,0,0,0,0,0,0,0,0,0,0,0,0,0,0,0,0,0,0],"id":8,"left_children":[1,-1,3,5,7,9,11,13,15,17,19,21,23,-1,25,27,29,31,33,35,37,39,41,-1,-1,-1,-1,-1,-1,43,45,47,49,51,-1,53,-1,55,-1,57,59,61,63,65,67,69,-1,71,73,-1,-1,75,-1,77,-1,-1,-1,79,81,83,85,87,89,91,93,95,97,99,-1,101,103,-1,-1,-1,-1,-1,-1,-1,-1,-1,-1,-1,-1,-1,-1,-1,-1,-1,-1,-1,-1,-1,-1,-1,-1,-1,-1,-1,-1,-1,-1,-1,-1,-1,-1],"loss_changes":[2.0705087E2,0E0,2.5003348E2,1.11692474E2,1.4273819E1,1.8924343E1,5.466429E1,1.9691544E0,8.133896E0,5.8354645E0,5.822479E0,5.506337E1,2.218521E0,0E0,2.0608974E0,1.0028187E1,7.740345E0,2.0801315E0,6.0639577E0,3.125E0,2.2190933E0,1.7845484E1,1.728479E1,0E0,0E0,0E0,0E0,0E0,0E0,4.352886E0,1.0651729E1,2.8977127E0,3.0535715E0,1.8214285E0,0E0,3.5164838E0,0E0,1.3402778E0,0E0,1.5584492E1,8.399785E0,5.0069427E0,6.153285E0,8.26293E0,4.238323E0,3.9116144E0,0E0,2.4000816E0,6.7975755E0,0E0,0E0,3.7023811E0,0E0,1.0549451E0,0E0,0E0,0E0,8.054802E0,5.3535056E0,3.3880959E0,4.938363E0,3.070633E0,3.5041847E0,1.698554E0,1.1625992E1,3.9807272E0,3.0786567E0,7.3496265E0,0E0,1.1102756E0,8.660969E0,0E0,0E0,0E0,0E0,0E0,0E0,0E0,0E0,0E0,0E0,0E0,0E0,0E0,0E0,0E0,0E0,0E0,0E0,0E0,0E0,0E0,0E0,0E0,0E0,0E0,0E0,0E0,0E0,0E0,0E0,0E0,0E0,0E0,0E0],"parents":[2147483647,0,0,2,2,3,3,4,4,5,5,6,6,7,7,8,8,9,9,10,10,11,11,12,12,14,14,15,15,16,16,17,17,18,18,19,19,20,20,21,21,22,22,29,29,30,30,31,31,32,32,33,33,35,35,37,37,39,39,40,40,41,41,42,42,43,43,44,44,45,45,47,47,48,48,51,51,53,53,57,57,58,58,59,59,60,60,61,61,62,62,63,63,64,64,65,65,66,66,67,67,69,69,70,70],"right_children":[2,-1,4,6,8,10,12,14,16,18,20,22,24,-1,26,28,30,32,34,36,38,40,42,-1,-1,-1,-1,-1,-1,44,46,48,50,52,-1,54,-1,56,-1,58,60,62,64,66,68,70,-1,72,74,-1,-1,76,-1,78,-1,-1,-1,80,82,84,86,88,90,92,94,96,98,100,-1,102,104,-1,-1,-1,-1,-1,-1,-1,-1,-1,-1,-1,-1,-1,-1,-1,-1,-1,-1,-1,-1,-1,-1,-1,-1,-1,-1,-1,-1,-1,-1,-1,-1,-1,-1],"split_conditions":[1.7923653E-1,2.7312098E-2,9.2930335E-1,3.9917368E-1,2.5E-1,1E0,5.999789E-1,9.0835315E-1,4.403927E-1,5.4222584E-1,3.229921E-1,7.8577095E-1,5.2410334E-1,3.8772967E-2,5.669241E-1,8.0452275E-1,3.4971184E-1,8.0452275E-1,6.371328E-1,6.617135E-1,3.7029907E-1,6.666667E-1,3.1761456E-1,-3.7112106E-2,-7.815075E-2,-3.2078119E-3,2.6130468E-2,2.8400928E-2,-6.9013E-3,3.3333334E-1,7.3840964E-1,7.883012E-1,6.1703473E-1,5.8489186E-1,2.4312785E-2,7.253653E-1,3.250772E-2,4.2554566E-1,-4.0936615E-2,6.196768E-1,2.4074113E-1,1.4963241E-1,8.155753E-1,7.9772955E-1,3.259785E-1,4.1486454E-1,-6.209612E-3,2.5E-1,4.2554566E-1,-2.3356348E-3,4.266751E-3,4.316425E-1,-7.512516E-3,3.7029907E-1,-1.70831E-2,-3.5260767E-3,3.0293227E-3,5.8670104E-1,2.5637498E-2,3.298281E-1,4.449346E-2,9.612245E-1,7.444894E-1,4.4200382E-1,2.460151E-1,2.6566967E-1,9.345238E-1,7.468183E-1,1.2874596E-2,5.992994E-1,5.505255E-1,2.002283E-2,1.8451035E-2,-8.864612E-4,1.7215984E-2,1.1355436E-2,-2.2974921E-2,2.0932287E-3,-4.7269436E-3,-8.621848E-3,-1.5942752E-3,4.354784E-3,1.3019252E-2,4.0685833E-3,1.5063639E-2,-5.7461024E-3,1.0135174E-3,-4.7660496E-2,-2.8490484E-2,-3.6233496E-2,-2.130791E-2,-1.5019602E-2,-2.6350052E-3,4.8793047E-3,-4.2384267E-3,1.2488097E-2,5.0434708E-3,-1.7269388E-3,3.5731494E-3,2.0458085E-2,-4.3183565E-4,6.2570754E-3,-3.460136E-3,-4.9380213E-4,1.8629521E-2],"split_indices":[13,0,11,2,18,8,13,2,2,1,2,2,2,0,5,3,6,3,1,6,9,8,11,0,0,0,0,0,0,8,2,12,6,3,0,3,0,1,0,6,6,6,1,2,5,6,0,18,1,0,0,13,0,9,0,0,0,3,5,3,5,2,1,3,5,6,2,2,0,1,1,0,0,0,0,0,0,0,0,0,0,0,0,0,0,0,0,0,0,0,0,0,0,0,0,0,0,0,0,0,0,0,0,0,0],"split_type":[0,0,0,0,0,0,0,0,0,0,0,0,0,0,0,0,0,0,0,0,0,0,0,0,0,0,0,0,0,0,0,0,0,0,0,0,0,0,0,0,0,0,0,0,0,0,0,0,0,0,0,0,0,0,0,0,0,0,0,0,0,0,0,0,0,0,0,0,0,0,0,0,0,0,0,0,0,0,0,0,0,0,0,0,0,0,0,0,0,0,0,0,0,0,0,0,0,0,0,0,0,0,0,0,0],"sum_hessian":[2.454E3,1.95E2,2.259E3,1.706E3,5.53E2,2.28E2,1.478E3,1.84E2,3.69E2,1.78E2,5E1,1.299E3,1.79E2,1.72E2,1.2E1,6.5E1,3.04E2,1.48E2,3E1,2.3E1,2.7E1,8.77E2,4.22E2,3.2E1,1.47E2,5E0,7E0,5.8E1,7E0,2.13E2,9.1E1,1.35E2,1.3E1,2E1,1E1,1.8E1,5E0,1.5E1,1.2E1,6.58E2,2.19E2,2.77E2,1.45E2,1.02E2,1.11E2,8.2E1,9E0,1.11E2,2.4E1,6E0,7E0,1.1E1,9E0,1.2E1,6E0,8E0,7E0,6.17E2,4.1E1,2.7E1,1.92E2,1.52E2,1.25E2,2.6E1,1.19E2,5.6E1,4.6E1,7.7E1,3.4E1,1.8E1,6.4E1,3.6E1,7.5E1,1.4E1,1E1,6E0,5E0,6E0,6E0,4.61E2,1.56E2,2.6E1,1.5E1,1.3E1,1.4E1,1.9E1,1.73E2,1.33E2,1.9E1,2.1E1,1.04E2,1.6E1,1E1,8E0,1.11E2,2.1E1,3.5E1,4E1,6E0,5.7E1,2E1,5E0,1.3E1,3.8E1,2.6E1],"tree_param":{"num_deleted":"0","num_feature":"19","num_nodes":"105","size_leaf_vector":"1"}},{"base_weights":[3.3402923E-2,9.949749E-2,-5.3709604E-2,-2.9839328E-1,3.0527496E-1,8.7403595E-2,-4.6137106E-1,1.22180454E-1,5.75E-1,1.8844984E-1,-4.5901638E-1,-1.8227848E-1,-6.704762E-1,2.6123595E-1,-1.5819208E-1,4.4117647E-1,6.9109946E-1,5.0666666E-1,9.411765E-2,-0E0,-6.511628E-1,-1.4851485E-2,-3.556701E-1,-7.807882E-1,-2.9166666E-1,6.481481E-1,1.9141914E-1,-5.365854E-1,-4.379562E-2,3.4042552E-1,8.9999996E-2,7.5E-2,-2.5E-1,5.846154E-1,-0E0,-5.0561797E-2,4.2307693E-1,-4.4444446E-2,3.636364E-2,-7.4285716E-1,-2.2222223E-2,-3.137255E-1,8.552632E-2,-9.3333334E-2,-3.0555555E-1,-8.7171054E-1,-5.048544E-1,-6.896552E-2,-8.529412E-2,7.291667E-1,-0E0,3.607595E-1,6.849315E-3,5E-2,-6.944444E-1,7E-2,-3.4210527E-1,4.9E-1,-2.3809524E-2,-5.714286E-2,1.6666668E-2,4.2553192E-1,9.4736844E-2,-2.015504E-1,3.4E-1,8.8E-2,2.037037E-1,-1.6666668E-2,-8.3333336E-2,5E-2,-4.1304347E-1,4.318182E-1,-5.5045873E-2,-1.8691589E-1,-4.7297296E-1,-9.4444446E-2,-7.2897196E-1,-5.6122446E-1,5E-2,-3.4375E-1,8.928572E-2,8.3333336E-2,-0E0,3.9215687E-1,-5E-2,5E-2,-8.571429E-2,-8.571429E-2,-4.375E-1,5.9375E-1,-1.7391305E-1,-7.692308E-2,-1.15384616E-1,8.9999996E-2,4.3956044E-1,1.5625E-1,-5.4545456E-1,-2.857143E-2,5.365854E-2,6.153846E-3,-4.6153847E-2,8.888889E-2,2.1428572E-2,-2.7777778E-3,6.315789E-2,-9.375E-2,-1.2903226E-2,7.4074075E-2,-5.5555557E-3,-4.2424243E-2,1.038961E-2,-2.795699E-2,4.0000003E-2,-8.275863E-2,-2.3913044E-2,-5.714286E-2,-9.3333334E-2,-3.59375E-2,-9.142857E-2,5E-2,-5.185185E-2,6.875E-2,-1.4634146E-2,3.2061066E-2,7.826087E-2,-4.6296297E-3,3.636364E-2,-8.888889E-2,1.25E-2,9.2857145E-2,3.1578947E-2,-1.923077E-3,-6.111111E-2,-8.571429E-2,1.5000001E-2,-2.857143E-2,4.9411766E-2,3.809524E-2,-2.5E-2,-1.6666668E-2,-8.3333336E-2],"categories":[],"categories_nodes":[],"categories_segments":[],"categories_sizes":[],"default_left":[0,0,0,0,0,0,0,0,0,0,0,0,0,0,0,0,0,0,0,0,0,0,0,0,0,0,0,0,0,0,0,0,0,0,0,0,0,0,0,0,0,0,0,0,0,0,0,0,0,0,0,0,0,0,0,0,0,0,0,0,0,0,0,0,0,0,0,0,0,0,0,0,0,0,0,0,0,0,0,0,0,0,0,0,0,0,0,0,0,0,0,0,0,0,0,0,0,0,0,0,0,0,0,0,0,0,0,0,0,0,0,0,0,0,0,0,0,0,0,0,0,0,0,0,0,0,0,0,0,0,0,0,0,0,0,0,0,0,0,0,0],"id":9,"left_children":[1,-1,3,5,7,9,11,13,15,17,19,21,23,25,27,29,31,33,35,37,39,41,43,45,47,49,51,53,55,57,-1,-1,59,61,-1,63,65,-1,-1,67,-1,69,71,-1,73,75,77,79,-1,81,-1,83,85,-1,87,89,91,93,95,-1,-1,97,-1,99,101,-1,103,-1,-1,-1,105,107,109,111,113,-1,115,117,-1,119,121,-1,-1,123,-1,125,-1,-1,127,129,131,-1,133,-1,135,137,139,-1,-1,-1,-1,-1,-1,-1,-1,-1,-1,-1,-1,-1,-1,-1,-1,-1,-1,-1,-1,-1,-1,-1,-1,-1,-1,-1,-1,-1,-1,-1,-1,-1,-1,-1,-1,-1,-1,-1,-1,-1,-1,-1,-1],"loss_changes":[2.0067052E2,0E0,1.9307043E2,8.221967E1,4.393194E1,2.1564629E1,5.3510345E1,2.0782593E1,5.2883606E0,9.828267E0,5.3800983E0,1.146174E1,2.1710587E1,9.49255E0,7.6382732E0,7.5521927E0,1.0774872E1,2.9620514E0,1.2157771E1,3.2323232E0,1.5261726E0,6.086896E0,5.330986E0,9.74588E0,1.4940755E1,2.8356495E0,9.467831E0,7.0562325E0,4.674595E0,7.693384E0,0E0,0E0,1.7023811E0,3.3478851E0,0E0,1.0565254E1,7.639204E0,0E0,0E0,1.6857147E0,0E0,4.328218E0,7.4229784E0,0E0,3.4868164E0,2.467636E0,6.1149197E0,3.8138857E0,0E0,3.645832E0,0E0,4.46612E0,5.4860077E0,0E0,1.129961E0,1.2878206E1,3.591093E0,1.6724186E0,4.0301676E0,0E0,0E0,3.8656683E0,0E0,8.851997E0,3.2596822E0,0E0,5.3659844E0,0E0,0E0,0E0,6.7308025E0,6.665825E0,6.4402876E0,5.9305E0,5.938448E0,0E0,2.9116173E0,6.6554184E0,0E0,4.978009E0,7.99412E0,0E0,0E0,4.0231934E0,0E0,4.245118E0,0E0,0E0,4.173611E0,2.6849155E0,4.6544967E0,0E0,5.246703E0,0E0,3.741951E0,3.016369E0,1.0606058E0,0E0,0E0,0E0,0E0,0E0,0E0,0E0,0E0,0E0,0E0,0E0,0E0,0E0,0E0,0E0,0E0,0E0,0E0,0E0,0E0,0E0,0E0,0E0,0E0,0E0,0E0,0E0,0E0,0E0,0E0,0E0,0E0,0E0,0E0,0E0,0E0,0E0,0E0,0E0,0E0,0E0,0E0,0E0,0E0],"parents":[2147483647,0,0,2,2,3,3,4,4,5,5,6,6,7,7,8,8,9,9,10,10,11,11,12,12,13,13,14,14,15,15,16,16,17,17,18,18,19,19,20,20,21,21,22,22,23,23,24,24,25,25,26,26,27,27,28,28,29,29,32,32,33,33,35,35,36,36,39,39,41,41,42,42,44,44,45,45,46,46,47,47,49,49,51,51,52,52,54,54,55,55,56,56,57,57,58,58,61,61,63,63,64,64,66,66,70,70,71,71,72,72,73,73,74,74,76,76,77,77,79,79,80,80,83,83,85,85,88,88,89,89,90,90,92,92,94,94,95,95,96,96],"right_children":[2,-1,4,6,8,10,12,14,16,18,20,22,24,26,28,30,32,34,36,38,40,42,44,46,48,50,52,54,56,58,-1,-1,60,62,-1,64,66,-1,-1,68,-1,70,72,-1,74,76,78,80,-1,82,-1,84,86,-1,88,90,92,94,96,-1,-1,98,-1,100,102,-1,104,-1,-1,-1,106,108,110,112,114,-1,116,118,-1,120,122,-1,-1,124,-1,126,-1,-1,128,130,132,-1,134,-1,136,138,140,-1,-1,-1,-1,-1,-1,-1,-1,-1,-1,-1,-1,-1,-1,-1,-1,-1,-1,-1,-1,-1,-1,-1,-1,-1,-1,-1,-1,-1,-1,-1,-1,-1,-1,-1,-1,-1,-1,-1,-1,-1,-1,-1,-1],"split_conditions":[8.889634E-2,2.4580887E-2,5.0644946E-1,4.597036E-1,2.0321116E-1,4.007875E-1,2.2802326E-1,7.4174184E-1,3.17001E-1,3.229921E-1,3.5292795E-1,7.4174184E-1,1E0,3.266559E-1,7.2678393E-1,8.1374097E-1,8.845415E-1,5.2454865E-1,4.0996352E-1,3.1883153E-1,4.286669E-1,6.5206146E-1,7.444894E-1,3.2948E-1,8.42342E-1,5.800593E-1,3.700772E-1,1.09549E-1,8.8319546E-1,7.554298E-1,1.1791659E-2,3.2296646E-2,9.5326316E-1,2.8516698E-1,-3.8413706E-5,6.456725E-1,1.585005E-1,-2.7933216E-2,2.1308155E-3,2.682835E-1,-1.8340278E-2,5.107075E-1,7.186203E-1,-1.9270767E-2,8.360506E-1,5E-1,7.213689E-1,5.82028E-1,-7.745371E-2,7.280251E-1,-5.593613E-4,6.883004E-1,6.6434926E-1,1.8577421E-2,7.612503E-1,1.235486E-1,9.0649086E-1,3.229921E-1,2.541332E-1,-6.452914E-3,3.0227005E-3,1.6577742E-1,5.0178576E-2,5.3237087E-1,8.2194515E-2,8.525597E-3,5.107075E-1,-5.495441E-2,-5.0263297E-2,1.3123549E-2,4.17588E-1,5.884135E-1,7.4524385E-1,8.2420534E-1,4.898904E-1,-5.439755E-2,8.4667206E-1,3.3333334E-1,1.1058807E-2,8.38073E-2,6.8665725E-1,1.7556861E-2,2.0329315E-2,7.235023E-1,-3.7146867E-3,6.196768E-1,-1.3228885E-2,-4.3080687E-3,2.2536655E-1,8.622075E-1,3.5652798E-1,-3.7551492E-3,1.0139378E-1,5.3259697E-2,2.2204902E-2,3.1483108E-1,7.7192134E-1,-2.1523908E-3,2.2612503E-2,2.0015866E-3,-1.27888145E-2,5.2943446E-2,3.840077E-3,-4.503727E-4,2.3030033E-2,-1.6879624E-2,-2.0167262E-3,6.0883136E-3,-1.2180567E-3,-9.384656E-3,1.8192619E-3,-5.009386E-3,1.22855995E-2,-1.4612076E-2,-5.974114E-3,-1.2723229E-2,-4.126015E-2,-1.000883E-2,-4.386285E-2,1.0240513E-2,-1.9606218E-2,1.3874835E-2,-6.986967E-3,6.077415E-3,1.09184E-2,-1.887858E-4,7.163407E-3,-7.1843266E-3,2.5740266E-3,4.0719807E-3,1.8924505E-3,-1.4953882E-3,-7.954872E-3,-1.5611589E-2,4.951954E-4,-4.4275955E-3,1.4966975E-2,7.979649E-3,-3.289068E-3,-1.507467E-3,-8.823454E-3],"split_indices":[7,0,11,4,7,11,7,2,7,2,2,2,7,2,4,4,4,1,4,2,4,1,1,6,2,1,6,5,4,1,0,0,2,7,0,6,7,0,0,1,0,2,1,0,4,7,1,4,0,6,0,4,1,0,1,6,4,2,6,0,0,1,0,6,4,0,2,0,0,0,6,4,1,4,5,0,1,8,0,5,2,0,0,2,0,6,0,0,6,2,5,0,7,0,5,5,1,0,0,0,0,0,0,0,0,0,0,0,0,0,0,0,0,0,0,0,0,0,0,0,0,0,0,0,0,0,0,0,0,0,0,0,0,0,0,0,0,0,0,0,0],"split_type":[0,0,0,0,0,0,0,0,0,0,0,0,0,0,0,0,0,0,0,0,0,0,0,0,0,0,0,0,0,0,0,0,0,0,0,0,0,0,0,0,0,0,0,0,0,0,0,0,0,0,0,0,0,0,0,0,0,0,0,0,0,0,0,0,0,0,0,0,0,0,0,0,0,0,0,0,0,0,0,0,0,0,0,0,0,0,0,0,0,0,0,0,0,0,0,0,0,0,0,0,0,0,0,0,0,0,0,0,0,0,0,0,0,0,0,0,0,0,0,0,0,0,0,0,0,0,0,0,0,0,0,0,0,0,0,0,0,0,0,0,0],"sum_hessian":[2.394E3,1.98E2,2.196E3,1.306E3,8.9E2,3.88E2,9.18E2,5.31E2,3.59E2,3.28E2,6E1,3.94E2,5.24E2,3.55E2,1.76E2,1.69E2,1.9E2,7.4E1,2.54E2,1.8E1,4.2E1,2.01E2,1.93E2,4.05E2,1.19E2,5.3E1,3.02E2,4E1,1.36E2,1.4E2,2.9E1,1.79E2,1.1E1,6.4E1,1E1,1.77E2,7.7E1,8E0,1E1,3.4E1,8E0,5E1,1.51E2,1.4E1,1.79E2,3.03E2,1.02E2,8.6E1,3.3E1,4.7E1,6E0,1.57E2,1.45E2,5E0,3.5E1,9.9E1,3.7E1,9.9E1,4.1E1,6E0,5E0,4.6E1,1.8E1,1.28E2,4.9E1,2.4E1,5.3E1,5E0,2.9E1,5E0,4.5E1,4.3E1,1.08E2,1.06E2,7.3E1,1.97E2,1.06E2,9.7E1,5E0,3.1E1,5.5E1,4.1E1,6E0,1.52E2,5E0,1.39E2,6E0,2E1,1.5E1,3.1E1,6.8E1,1.2E1,2.5E1,9E0,9E1,3.1E1,1E1,6E0,4E1,6.4E1,6.4E1,8E0,4.1E1,3.5E1,1.8E1,1.5E1,3E1,2.6E1,1.7E1,3.2E1,7.6E1,9.2E1,1.4E1,2.8E1,4.5E1,6.2E1,4.4E1,6.3E1,3.4E1,5E0,2.6E1,1.5E1,4E1,1.3E2,2.2E1,1.07E2,3.2E1,8E0,7E0,1.3E1,1.8E1,5.1E1,1.7E1,6E0,1.9E1,6E0,8.4E1,2E1,1.1E1,5E0,5E0],"tree_param":{"num_deleted":"0","num_feature":"19","num_nodes":"141","size_leaf_vector":"1"}},{"base_weights":[8.14664E-3,9.950249E-2,-7.9822615E-2,-3.3258426E-1,2.8664497E-1,-4.7070915E-1,3.8567495E-2,-3.1756756E-1,4.018088E-1,-1.7375886E-1,-5.910405E-1,-8.2474224E-2,5.205479E-1,7E-2,-3.8848922E-1,2.4367817E-1,6.0294116E-1,-7.457627E-1,-2.232143E-2,-7.297921E-1,-3.576923E-1,6.4E-1,-1.4981273E-1,6.212121E-1,-3.75E-2,-6.875E-1,-2.2826087E-1,5.123457E-1,8.394161E-2,8.2840234E-1,3.7790698E-1,-8.1632656E-1,-3.636364E-2,2.9213482E-1,-2.2794117E-1,-7.617925E-1,7E-2,-4.3693694E-1,1.02564104E-1,9.090909E-2,4E-1,-5.5813953E-2,-5.283019E-1,8.8E-2,4.5238096E-1,-1.8181819E-1,-8.157895E-2,-4.090909E-1,2.2222222E-1,2.5454545E-1,6.388889E-1,-3.1944445E-1,2.2660099E-1,8.588957E-1,-0E0,2.1505376E-2,7.875001E-2,-4.6153846E-1,-9.189189E-2,-0E0,6.0465115E-1,-4.4339624E-1,5.16129E-1,-9.1612905E-2,-6.703704E-1,-6.760563E-1,-3.223684E-1,2.580645E-1,-4.4444446E-2,-1.6666668E-2,7E-2,9.929078E-2,-3.4666666E-1,-7.3170733E-1,1.5384616E-1,2.8125E-1,9.090909E-2,5E-2,-8.3333336E-2,1.3333334E-1,-5.576923E-1,5.5E-1,-6.25E-2,2.631579E-2,7.222222E-1,7.368421E-1,-7.1428575E-2,-6.1538464E-1,2.9411765E-2,-8.75E-2,2.7040815E-1,6.136364E-1,9.4166666E-2,7.096774E-1,-3.1746033E-1,1.6666668E-2,-8.75E-2,-2.2222223E-2,2.857143E-2,9.411765E-2,3.7037037E-2,-6.904762E-2,-2.7692309E-2,6.666667E-2,1.818182E-2,-7.072243E-2,6.25E-2,-4.2424243E-2,-8.717949E-2,-5.1960785E-2,7.843138E-3,8.695653E-3,6.666667E-2,-6.0869563E-2,2.3529412E-2,3.0000001E-2,-4.3939393E-2,-8.0000006E-2,-2.857143E-2,5.714286E-2,-2.857143E-2,7E-2,8.695653E-3,8.75E-2,-6.25E-2,-9.3333334E-2,-3.9473686E-2,1.0000001E-2,9.090909E-2,-8.571429E-2,2.1875E-2,9.166667E-2,2.857143E-2,3.0769233E-2,7.951807E-2,2.2222223E-2,-5E-2,-2.1428572E-2,-8.076923E-2,-3.5714287E-2,2.857143E-2,4.344262E-2,-0E0,8.4375E-2,-0E0,9.4444446E-2,3.5714287E-2,-6.4E-2,-1.0256411E-2],"categories":[],"categories_nodes":[],"categories_segments":[],"categories_sizes":[],"default_left":[0,0,0,0,0,0,0,0,0,0,0,0,0,0,0,0,0,0,0,0,0,0,0,0,0,0,0,0,0,0,0,0,0,0,0,0,0,0,0,0,0,0,0,0,0,0,0,0,0,0,0,0,0,0,0,0,0,0,0,0,0,0,0,0,0,0,0,0,0,0,0,0,0,0,0,0,0,0,0,0,0,0,0,0,0,0,0,0,0,0,0,0,0,0,0,0,0,0,0,0,0,0,0,0,0,0,0,0,0,0,0,0,0,0,0,0,0,0,0,0,0,0,0,0,0,0,0,0,0,0,0,0,0,0,0,0,0,0,0,0,0,0,0,0,0,0,0,0,0],"id":10,"left_children":[1,-1,3,5,7,9,11,13,15,17,19,21,23,-1,25,27,29,31,33,35,37,39,41,43,-1,45,47,49,51,53,55,57,-1,59,61,63,-1,65,67,-1,69,71,73,-1,75,77,-1,79,81,83,85,87,89,91,-1,93,-1,95,-1,97,99,101,103,-1,105,107,109,111,-1,-1,-1,113,115,117,119,121,-1,-1,-1,123,125,127,-1,129,131,133,135,137,139,-1,141,143,-1,145,147,-1,-1,-1,-1,-1,-1,-1,-1,-1,-1,-1,-1,-1,-1,-1,-1,-1,-1,-1,-1,-1,-1,-1,-1,-1,-1,-1,-1,-1,-1,-1,-1,-1,-1,-1,-1,-1,-1,-1,-1,-1,-1,-1,-1,-1,-1,-1,-1,-1,-1,-1,-1,-1,-1],"loss_changes":[2.1321011E2,0E0,2.0897362E2,6.845732E1,6.421394E1,3.4664948E1,2.1220259E1,1.0952741E1,2.4470299E1,2.4410984E1,2.214415E1,1.4253128E1,6.8138733E0,0E0,6.5025616E0,1.8625463E1,1.693734E1,1.2940445E0,1.4550075E1,2.0344635E1,9.527752E0,1.2509098E0,9.469711E0,2.4855423E0,0E0,2.9656105E0,7.5853095E0,5.1222763E0,1.584021E1,4.269066E0,2.5091557E1,1.3594131E0,0E0,8.125424E0,2.203151E1,5.368393E0,0E0,5.8638763E0,3.4320374E0,0E0,2.6666665E0,9.733637E0,7.4664583E0,0E0,3.0269213E0,5.30303E0,0E0,5.394288E0,7.8416667E0,5.8515687E0,7.567047E0,7.45142E0,1.0032988E1,2.7311172E0,0E0,2.19191E1,0E0,3.5224357E0,0E0,3.047619E0,3.0415974E0,4.1688023E0,1.4389048E0,0E0,1.3331696E1,3.1297188E0,1.2056889E1,2.109397E0,0E0,0E0,0E0,1.3719903E1,4.6290903E0,1.0202084E0,2.5494506E0,2.542663E0,0E0,0E0,0E0,8.983334E0,2.814642E0,3.1409092E0,0E0,6.6477914E0,1.265872E0,2.133747E0,1.8730159E0,2.835164E0,3.4705882E0,0E0,8.692957E0,6.213068E0,0E0,2.2283669E0,4.3010497E0,0E0,0E0,0E0,0E0,0E0,0E0,0E0,0E0,0E0,0E0,0E0,0E0,0E0,0E0,0E0,0E0,0E0,0E0,0E0,0E0,0E0,0E0,0E0,0E0,0E0,0E0,0E0,0E0,0E0,0E0,0E0,0E0,0E0,0E0,0E0,0E0,0E0,0E0,0E0,0E0,0E0,0E0,0E0,0E0,0E0,0E0,0E0,0E0,0E0,0E0,0E0,0E0,0E0,0E0],"parents":[2147483647,0,0,2,2,3,3,4,4,5,5,6,6,7,7,8,8,9,9,10,10,11,11,12,12,14,14,15,15,16,16,17,17,18,18,19,19,20,20,21,21,22,22,23,23,25,25,26,26,27,27,28,28,29,29,30,30,31,31,33,33,34,34,35,35,37,37,38,38,40,40,41,41,42,42,44,44,45,45,47,47,48,48,49,49,50,50,51,51,52,52,53,53,55,55,57,57,59,59,60,60,61,61,62,62,64,64,65,65,66,66,67,67,71,71,72,72,73,73,74,74,75,75,79,79,80,80,81,81,83,83,84,84,85,85,86,86,87,87,88,88,90,90,91,91,93,93,94,94],"right_children":[2,-1,4,6,8,10,12,14,16,18,20,22,24,-1,26,28,30,32,34,36,38,40,42,44,-1,46,48,50,52,54,56,58,-1,60,62,64,-1,66,68,-1,70,72,74,-1,76,78,-1,80,82,84,86,88,90,92,-1,94,-1,96,-1,98,100,102,104,-1,106,108,110,112,-1,-1,-1,114,116,118,120,122,-1,-1,-1,124,126,128,-1,130,132,134,136,138,140,-1,142,144,-1,146,148,-1,-1,-1,-1,-1,-1,-1,-1,-1,-1,-1,-1,-1,-1,-1,-1,-1,-1,-1,-1,-1,-1,-1,-1,-1,-1,-1,-1,-1,-1,-1,-1,-1,-1,-1,-1,-1,-1,-1,-1,-1,-1,-1,-1,-1,-1,-1,-1,-1,-1,-1,-1,-1,-1],"split_conditions":[3.393901E-2,2.2122798E-2,5.0644946E-1,5.940247E-1,1.6674341E-1,2.8140703E-1,2.4271972E-1,3.006763E-1,2.1450104E-1,1.2173575E-1,4.2653707E-1,2.4116744E-1,7.998168E-1,2.5254717E-2,1.5015359E-1,5.79624E-1,8.960727E-1,8.8078684E-1,1.8208914E-1,4.3266606E-1,3.5074338E-1,3.3333334E-1,4.007875E-1,3.5839397E-1,-8.137405E-3,3.3333334E-1,6.1699283E-1,5.85704E-1,1.7816898E-1,9.461184E-1,2.8303987E-1,5.454529E-1,-1.0511539E-2,1.3611242E-1,2.6077327E-1,2.2019395E-1,2.4393529E-2,2.5E-1,7.1286255E-1,5.312104E-2,2.8315818E-1,2.0560656E-1,1.9657077E-1,6.748947E-2,2.5E-1,1.4229463E-1,-2.173148E-2,3.3333334E-1,7.998168E-1,6.8342763E-1,8.960727E-1,6.666667E-1,2.5E-1,2.3894426E-1,9.454352E-3,5.107075E-1,1.5619951E-2,5.34304E-1,-1.6423563E-2,3.4391716E-1,3.7782001E-1,3.4177804E-1,8.42342E-1,-5.7554025E-2,8.8078684E-1,5.6846607E-1,5.2658355E-1,6.577294E-1,-1.1361933E-2,-1.211671E-2,2.2852296E-2,1.1509548E-1,6.0589856E-1,5.322486E-1,6.445836E-1,4.3732247E-1,1.4758413E-2,9.408462E-3,-5.362755E-3,1.6426851E-1,6.666667E-1,6.666667E-1,-2.4808107E-2,4.609874E-1,7.084344E-1,3.0687147E-1,3.283285E-1,1.7085819E-1,1.7295133E-1,-2.1006076E-2,8.248155E-1,6.993856E-1,5.0156254E-2,4.3732247E-1,4.26218E-1,1.6543866E-4,-1.8584346E-2,-2.4288713E-3,1.4635265E-3,1.6850594E-2,8.73867E-3,-1.1118936E-2,-8.702896E-3,1.1957997E-2,2.4788678E-3,-2.4788862E-2,2.107811E-2,-5.432999E-3,-2.5173802E-2,-1.7820537E-2,2.3746223E-3,3.3370436E-3,1.5285188E-2,-2.195231E-2,4.807815E-3,2.7245998E-3,-7.188201E-3,-3.61499E-2,-2.901876E-2,2.3790956E-2,-1.6773874E-2,3.7235584E-2,5.319944E-3,9.24396E-3,-5.4249736E-3,-1.306392E-2,-7.0756315E-3,1.3047159E-3,9.836565E-3,-4.6642385E-3,1.290086E-3,4.672706E-3,5.5026463E-3,1.0497838E-2,1.4390568E-2,3.007156E-2,-2.191116E-2,-9.522319E-4,-9.775079E-3,-3.0138553E-3,1.7200292E-3,7.4539366E-3,1.4971793E-4,2.906698E-2,3.1177425E-3,2.6483098E-2,7.86005E-3,-6.2723756E-3,-1.1741311E-3],"split_indices":[10,0,11,3,0,15,0,2,0,0,3,2,3,0,0,2,12,1,0,0,0,8,11,1,0,8,3,3,0,2,0,2,0,0,0,3,0,18,2,0,1,0,0,0,18,0,0,8,3,1,12,8,18,0,0,2,0,3,0,3,3,3,2,0,1,2,9,2,0,0,0,0,3,2,3,2,0,0,0,0,8,8,0,3,1,1,2,0,0,0,2,2,0,2,3,0,0,0,0,0,0,0,0,0,0,0,0,0,0,0,0,0,0,0,0,0,0,0,0,0,0,0,0,0,0,0,0,0,0,0,0,0,0,0,0,0,0,0,0,0,0,0,0,0,0,0,0,0,0],"split_type":[0,0,0,0,0,0,0,0,0,0,0,0,0,0,0,0,0,0,0,0,0,0,0,0,0,0,0,0,0,0,0,0,0,0,0,0,0,0,0,0,0,0,0,0,0,0,0,0,0,0,0,0,0,0,0,0,0,0,0,0,0,0,0,0,0,0,0,0,0,0,0,0,0,0,0,0,0,0,0,0,0,0,0,0,0,0,0,0,0,0,0,0,0,0,0,0,0,0,0,0,0,0,0,0,0,0,0,0,0,0,0,0,0,0,0,0,0,0,0,0,0,0,0,0,0,0,0,0,0,0,0,0,0,0,0,0,0,0,0,0,0,0,0,0,0,0,0,0,0],"sum_hessian":[2.454E3,2E2,2.254E3,1.334E3,9.2E2,9.72E2,3.62E2,1.47E2,7.73E2,2.81E2,6.91E2,2.9E2,7.2E1,9E0,1.38E2,4.34E2,3.39E2,5.8E1,2.23E2,4.32E2,2.59E2,2.4E1,2.66E2,6.5E1,7E0,4.7E1,9.1E1,1.61E2,2.73E2,1.68E2,1.71E2,4.8E1,1E1,8.8E1,1.35E2,4.23E2,9E0,2.21E2,3.8E1,1E1,1.4E1,2.14E2,5.2E1,2.4E1,4.1E1,1E1,3.7E1,6.5E1,2.6E1,5.4E1,1.07E2,7.1E1,2.02E2,1.62E2,6E0,9.2E1,7.9E1,1.2E1,3.6E1,4.6E1,4.2E1,1.05E2,3E1,1.54E2,2.69E2,7E1,1.51E2,3E1,8E0,5E0,9E0,1.4E2,7.4E1,4E1,1.2E1,3.1E1,1E1,5E0,5E0,1.4E1,5.1E1,1.9E1,7E0,3.7E1,1.7E1,9.4E1,1.3E1,3.8E1,3.3E1,7E0,1.95E2,4.3E1,1.19E2,3E1,6.2E1,5E0,7E0,2.6E1,2E1,1.6E1,2.6E1,4.1E1,6.4E1,2E1,1E1,2.62E2,7E0,3.2E1,3.8E1,1.01E2,5E1,2.2E1,8E0,2.2E1,1.18E2,9E0,6.5E1,3.4E1,6E0,6E0,6E0,9E0,2.2E1,7E0,7E0,1.4E1,3.7E1,9E0,1E1,6E0,3.1E1,1.1E1,6E0,1.2E1,8.2E1,8E0,5E0,1.3E1,2.5E1,1.3E1,2E1,1.21E2,7.4E1,3.1E1,1.2E1,1.7E1,1.3E1,2.4E1,3.8E1],"tree_param":{"num_deleted":"0","num_feature":"19","num_nodes":"149","size_leaf_vector":"1"}},{"base_weights":[2.4034673E-2,9.952153E-2,-6.309013E-2,-2.2461712E-1,4.3838027E-1,3.539823E-2,-4.3576568E-1,2.512563E-1,5.3783786E-1,5.258621E-1,-4.881657E-2,-7.093023E-1,-2.1875E-1,4.0875912E-1,-9.52381E-2,5.5586594E-1,-0E0,8.3333336E-2,7.160494E-1,5.811138E-2,-2.159091E-1,-9.593023E-2,-5.405405E-1,2.7173913E-1,-3.178808E-1,6.896552E-1,3.3027524E-1,-6.4285713E-1,6E-2,8.958333E-2,5.016077E-1,-4.375E-1,4.7619048E-1,-0E0,7.733333E-1,5.3619305E-3,5.365854E-1,-6.2222224E-1,-1.3181818E-1,-3.464567E-1,-7.218045E-1,5.714286E-1,-6.818182E-2,-5.45977E-1,-1.75E-1,4.0000003E-2,9.3333334E-2,-2.5E-2,3.9795917E-1,-8.888889E-2,-1.6666668E-2,1.75E-1,-3.636364E-2,-2.857143E-2,5.180328E-1,-0E0,-8.75E-2,8.75E-2,2.1428572E-2,8.382353E-2,1.25E-2,-4.3243244E-1,5.3412464E-2,8.0000006E-2,3.7037036E-1,-2.857143E-1,-8.8E-2,-9.478673E-2,-8.9999996E-2,-5.882353E-1,-1.8181819E-1,-4.5652175E-1,-8.5227275E-1,3.8709676E-1,8.421053E-2,4.4444446E-2,-1.9444445E-1,-0E0,-5.8641976E-1,2.1875E-1,-2.248996E-1,2.962963E-1,8.3333336E-2,3.125E-2,6.666667E-2,5.3355706E-1,-1.25E-2,1.3333335E-2,-7.826087E-2,1.275862E-2,-3.9583337E-2,8.571429E-2,1.904762E-2,-8.571429E-2,-0E0,-1.7177915E-2,1.632653E-2,-2.2222223E-2,-6.511628E-2,2.5E-2,-4.2E-2,-8.695652E-2,-4.166667E-3,-5.9375E-2,-9.824561E-2,6.666667E-2,1.1764706E-2,-3.4615386E-2,1.818182E-2,8.3333336E-2,-6.25E-2,-7.702703E-2,-4.269663E-2,-1.1764706E-2,5.6250002E-2,-8.1250004E-2,-1.837607E-2,1.0416667E-2,5.5882353E-2,4.0000003E-2,-2.777778E-2,4.942966E-2,8.055556E-2],"categories":[],"categories_nodes":[],"categories_segments":[],"categories_sizes":[],"default_left":[0,0,0,0,0,0,0,0,0,0,0,0,0,0,0,0,0,0,0,0,0,0,0,0,0,0,0,0,0,0,0,0,0,0,0,0,0,0,0,0,0,0,0,0,0,0,0,0,0,0,0,0,0,0,0,0,0,0,0,0,0,0,0,0,0,0,0,0,0,0,0,0,0,0,0,0,0,0,0,0,0,0,0,0,0,0,0,0,0,0,0,0,0,0,0,0,0,0,0,0,0,0,0,0,0,0,0,0,0,0,0,0,0,0,0,0,0,0,0,0,0,0,0],"id":11,"left_children":[1,-1,3,5,7,9,11,13,15,17,19,21,23,25,27,29,-1,31,33,35,37,-1,39,41,43,45,47,49,51,-1,53,55,57,-1,59,61,63,65,67,69,71,73,75,77,79,-1,-1,-1,81,-1,-1,83,-1,-1,85,-1,-1,-1,-1,-1,-1,87,89,-1,91,93,-1,95,-1,97,99,101,103,105,-1,-1,107,109,111,113,115,117,-1,119,-1,121,-1,-1,-1,-1,-1,-1,-1,-1,-1,-1,-1,-1,-1,-1,-1,-1,-1,-1,-1,-1,-1,-1,-1,-1,-1,-1,-1,-1,-1,-1,-1,-1,-1,-1,-1,-1,-1],"loss_changes":[2.1481293E2,0E0,1.8883083E2,9.680741E1,1.0435852E1,3.2697384E1,5.7603806E1,1.0899125E1,3.5875854E0,9.703278E0,1.2090545E1,1.7623352E1,2.6537064E1,2.7924995E0,5.394285E0,6.15432E0,0E0,7.5744047E0,3.3224678E0,1.0420929E1,8.938131E0,0E0,8.861656E0,9.411068E0,1.4667984E1,1.673564E0,4.380501E0,1.4920635E0,2.4995453E0,0E0,4.1698074E0,3.0625E0,2.0059524E0,0E0,3.0510788E0,7.8696194E0,1.498826E0,3.6520634E0,6.173008E0,4.9484177E0,4.21418E0,2.118845E0,2.9343433E0,3.84206E0,5.5506277E0,0E0,0E0,0E0,4.090702E0,0E0,0E0,2.80625E0,0E0,0E0,3.1113892E0,0E0,0E0,0E0,0E0,0E0,0E0,7.4347043E0,1.12801E1,0E0,2.2010581E0,3.4285712E0,0E0,4.2202034E0,0E0,1.0299435E0,8.024546E0,7.846013E0,2.3783417E0,2.2567997E0,0E0,0E0,2.11791E0,7.2916665E0,4.42025E0,3.7665443E0,5.869833E0,4.027369E0,0E0,3.757639E0,0E0,2.7840881E0,0E0,0E0,0E0,0E0,0E0,0E0,0E0,0E0,0E0,0E0,0E0,0E0,0E0,0E0,0E0,0E0,0E0,0E0,0E0,0E0,0E0,0E0,0E0,0E0,0E0,0E0,0E0,0E0,0E0,0E0,0E0,0E0,0E0,0E0,0E0,0E0,0E0],"parents":[2147483647,0,0,2,2,3,3,4,4,5,5,6,6,7,7,8,8,9,9,10,10,11,11,12,12,13,13,14,14,15,15,17,17,18,18,19,19,20,20,22,22,23,23,24,24,25,25,26,26,27,27,28,28,30,30,31,31,32,32,34,34,35,35,36,36,37,37,38,38,39,39,40,40,41,41,42,42,43,43,44,44,48,48,51,51,54,54,61,61,62,62,64,64,65,65,67,67,69,69,70,70,71,71,72,72,73,73,76,76,77,77,78,78,79,79,80,80,81,81,83,83,85,85],"right_children":[2,-1,4,6,8,10,12,14,16,18,20,22,24,26,28,30,-1,32,34,36,38,-1,40,42,44,46,48,50,52,-1,54,56,58,-1,60,62,64,66,68,70,72,74,76,78,80,-1,-1,-1,82,-1,-1,84,-1,-1,86,-1,-1,-1,-1,-1,-1,88,90,-1,92,94,-1,96,-1,98,100,102,104,106,-1,-1,108,110,112,114,116,118,-1,120,-1,122,-1,-1,-1,-1,-1,-1,-1,-1,-1,-1,-1,-1,-1,-1,-1,-1,-1,-1,-1,-1,-1,-1,-1,-1,-1,-1,-1,-1,-1,-1,-1,-1,-1,-1,-1,-1,-1],"split_conditions":[8.889634E-2,1.991052E-2,6.377379E-1,1.585005E-1,2.0321116E-1,4.3732247E-1,4.1596484E-1,7.4174184E-1,8.0452275E-1,9.51514E-2,7.4174184E-1,8.5454017E-1,3.5292795E-1,2.7799016E-1,2.1421328E-1,4.3732247E-1,3.3235021E-3,3.249259E-1,1.6825654E-1,7.235023E-1,1.9932525E-1,-6.696005E-2,7.8469336E-1,2.9253918E-1,8.5454017E-1,2.8590676E-1,4.612234E-1,8.362559E-1,8.8392365E-1,2.391938E-2,4.403927E-1,3.229921E-1,2.7799016E-1,-1.8974365E-3,5.877122E-1,3.355393E-1,6.744118E-1,1.0139378E-1,6.778746E-1,6.4053E-1,2.2802326E-1,5E-1,2.2802326E-1,4.3934265E-1,2.8291497E-2,2.6255239E-2,2.8541476E-2,-5.8208792E-3,6.3225657E-1,-5.470221E-3,-1.0834337E-4,8.664078E-1,-2.6866794E-3,-2.8979466E-3,6.778746E-1,-9.281576E-4,-1.2484956E-2,1.2919388E-2,3.5244883E-3,1.6066669E-2,2.020601E-2,2.8291497E-2,6.8665725E-1,1.1619409E-2,9.51514E-2,3.9834812E-1,-1.0652676E-2,4.898904E-1,-1.599819E-2,5.023125E-1,7.3840964E-1,9.2519534E-1,8.318401E-1,2.4116744E-1,3.2261938E-2,7.0482004E-3,7.9383814E-1,7.04554E-1,5.8878577E-1,7.159098E-1,4.2150363E-1,5.837652E-1,2.1428425E-2,7.843021E-1,2.4504454E-3,9.161412E-1,-1.030472E-3,2.2651346E-3,-1.5376896E-2,2.2806644E-3,-6.6348673E-3,1.5422354E-2,9.968072E-4,-1.1943543E-2,-1.141119E-3,-2.2946955E-3,7.816166E-4,-3.8393678E-3,-1.6609047E-2,3.6372007E-3,-2.2377986E-2,-1.2292069E-2,-1.3361454E-3,-3.401953E-2,-3.9811254E-2,3.767989E-2,1.8229857E-3,-2.6350617E-3,1.478234E-3,1.04086995E-2,-4.0779352E-2,-2.1832598E-2,-1.1653584E-2,-2.8782308E-3,1.6029714E-2,-4.140242E-2,-5.5467486E-3,1.7795742E-3,7.870383E-3,2.5869638E-3,-1.3608218E-3,1.5914818E-2,1.2179494E-2],"split_indices":[7,0,13,7,7,2,3,2,3,7,2,10,2,4,5,2,0,1,1,2,5,0,4,4,10,1,1,2,4,0,2,2,4,0,1,4,4,7,5,4,7,7,7,3,5,0,0,0,3,0,0,2,0,0,5,0,0,0,0,0,0,5,2,0,7,3,0,5,0,4,2,1,4,2,0,0,3,1,3,3,1,4,0,4,0,1,0,0,0,0,0,0,0,0,0,0,0,0,0,0,0,0,0,0,0,0,0,0,0,0,0,0,0,0,0,0,0,0,0,0,0,0,0],"split_type":[0,0,0,0,0,0,0,0,0,0,0,0,0,0,0,0,0,0,0,0,0,0,0,0,0,0,0,0,0,0,0,0,0,0,0,0,0,0,0,0,0,0,0,0,0,0,0,0,0,0,0,0,0,0,0,0,0,0,0,0,0,0,0,0,0,0,0,0,0,0,0,0,0,0,0,0,0,0,0,0,0,0,0,0,0,0,0,0,0,0,0,0,0,0,0,0,0,0,0,0,0,0,0,0,0,0,0,0,0,0,0,0,0,0,0,0,0,0,0,0,0,0,0],"sum_hessian":[2.537E3,2.08E2,2.329E3,1.762E3,5.67E2,7.9E2,9.72E2,1.98E2,3.69E2,1.15E2,6.75E2,4.29E2,5.43E2,1.36E2,6.2E1,3.57E2,1.2E1,3.5E1,8E1,4.12E2,2.63E2,1.71E2,2.58E2,9.1E1,4.52E2,2.8E1,1.08E2,1.3E1,4.9E1,4.7E1,3.1E2,1.5E1,2E1,6E0,7.4E1,3.72E2,4E1,4.4E1,2.19E2,1.26E2,1.32E2,4.8E1,4.3E1,1.73E2,2.79E2,1.4E1,1.4E1,1.1E1,9.7E1,8E0,5E0,3.9E1,1E1,6E0,3.04E2,8E0,7E0,7E0,1.3E1,6.7E1,7E0,3.6E1,3.36E2,1.4E1,2.6E1,2E1,2.4E1,2.1E2,9E0,5E1,7.6E1,4.5E1,8.7E1,3E1,1.8E1,8E0,3.5E1,1.2E1,1.61E2,3.1E1,2.48E2,8E1,1.7E1,3.1E1,8E0,2.97E2,7E0,1.4E1,2.2E1,2.89E2,4.7E1,6E0,2E1,6E0,1.4E1,1.62E2,4.8E1,8E0,4.2E1,2.7E1,4.9E1,2.2E1,2.3E1,3.1E1,5.6E1,1.4E1,1.6E1,2.5E1,1E1,5E0,7E0,7.3E1,8.8E1,1.6E1,1.5E1,1.5E1,2.33E2,4.7E1,3.3E1,1.4E1,1.7E1,2.62E2,3.5E1],"tree_param":{"num_deleted":"0","num_feature":"19","num_nodes":"123","size_leaf_vector":"1"}},{"base_weights":[2.7591644E-2,9.9534884E-2,-6.198881E-2,-2.1310541E-1,4.0421793E-1,-3.7213254E-1,1.10535406E-1,2.5409836E-1,6.7156863E-1,-1.8238021E-1,-6.026365E-1,1.9723865E-1,-4.9315068E-1,-4.5801528E-2,4.1949153E-1,9.135803E-2,5.080645E-1,-7.8E-2,-1.3210702E-1,-7.7150536E-1,-2.0625E-1,-2.0731707E-1,2.746479E-1,-6.6129035E-1,4.1666668E-2,6.603774E-2,-5E-1,3.3510637E-1,7.346939E-1,9.3023255E-2,7.195122E-1,2.4719101E-1,-1.9803922E-1,-8.1179774E-1,1.1764706E-1,-7.5E-1,-0E0,-4.0384614E-1,1.2903225E-1,4.722222E-1,1.2955466E-1,-9.52381E-2,-5E-1,2.2727273E-1,-1.9512194E-1,1.6666668E-2,-6.666667E-2,4.950495E-1,1.4772727E-1,4.5E-1,8.9999996E-2,-5.882353E-1,5.185185E-1,5.1282054E-1,8.863636E-2,3.508772E-2,6.060606E-1,-5.945946E-1,-8.75E-2,-9.322917E-2,-6.666667E-1,-2.857143E-2,3.6363637E-1,-3.0000001E-2,-8.571429E-2,5.588235E-1,-2.2619048E-1,-7.7272725E-1,-1.2903225E-1,-3.5714287E-2,5E-1,2.0289855E-1,6.339286E-1,7.916667E-1,5.8035713E-2,-1.1764706E-1,-7.3076926E-2,5.5555556E-2,9.2307694E-2,2.666667E-2,-4.4444445E-1,5.714286E-1,-1.8181819E-1,-6.111111E-1,3.3802816E-1,8.75E-2,1.5384616E-1,-1.6666668E-2,-7.5E-2,8.888889E-2,3.1578947E-2,7.083333E-1,1.875E-1,7E-2,-1.0416667E-2,7.916667E-2,1.0000001E-2,-8.387097E-2,-4.9382716E-2,3.4E-2,-1.48148155E-2,-9.5E-2,-5E-2,8.3333336E-2,-1.6666668E-2,7.586207E-2,-5E-2,7.894737E-3,-4.680851E-2,-3.75E-2,-9.3333334E-2,2.2727273E-2,-8.9999996E-2,2.5E-2,8.571429E-2,-2.777778E-2,3.6538463E-2,6.7289725E-2,-1.6666668E-2,2.857143E-2,9.4444446E-2,5.8823533E-2,1.4423077E-3,1.818182E-2,-5.714286E-2,-1.923077E-2,2.7586207E-2,1.25E-2,-6.5E-2,-0E0,6.1176475E-2,-5E-2,1.6666668E-2,-1.25E-2,-9.090909E-2,9.090909E-2,2.2950819E-2,5E-2,-1.25E-2,9.2857145E-2,3.636364E-2,5.454546E-2,-5E-2],"categories":[],"categories_nodes":[],"categories_segments":[],"categories_sizes":[],"default_left":[0,0,0,0,0,0,0,0,0,0,0,0,0,0,0,0,0,0,0,0,0,0,0,0,0,0,0,0,0,0,0,0,0,0,0,0,0,0,0,0,0,0,0,0,0,0,0,0,0,0,0,0,0,0,0,0,0,0,0,0,0,0,0,0,0,0,0,0,0,0,0,0,0,0,0,0,0,0,0,0,0,0,0,0,0,0,0,0,0,0,0,0,0,0,0,0,0,0,0,0,0,0,0,0,0,0,0,0,0,0,0,0,0,0,0,0,0,0,0,0,0,0,0,0,0,0,0,0,0,0,0,0,0,0,0,0,0,0,0,0,0,0,0],"id":12,"left_children":[1,-1,3,5,7,9,11,13,15,17,19,21,23,25,27,-1,29,-1,31,33,35,37,39,41,-1,43,45,47,49,51,53,55,57,59,61,63,65,67,69,71,73,-1,75,77,79,-1,-1,81,83,85,-1,87,89,91,-1,93,95,97,99,-1,101,-1,103,-1,-1,105,107,109,111,-1,113,115,117,119,121,123,-1,125,-1,-1,127,129,131,133,135,-1,137,-1,-1,-1,-1,139,141,-1,-1,-1,-1,-1,-1,-1,-1,-1,-1,-1,-1,-1,-1,-1,-1,-1,-1,-1,-1,-1,-1,-1,-1,-1,-1,-1,-1,-1,-1,-1,-1,-1,-1,-1,-1,-1,-1,-1,-1,-1,-1,-1,-1,-1,-1,-1,-1,-1,-1],"loss_changes":[2.1999963E2,0E0,1.6374515E2,9.036689E1,2.2665932E1,5.1370514E1,3.0403025E1,1.8173323E1,7.6080933E0,1.9335587E1,3.5384598E1,1.593433E1,1.1442812E1,6.6874547E0,6.031025E0,0E0,1.0815247E1,0E0,1.5003708E1,1.3422806E1,1.794375E1,5.4725084E0,1.2150833E1,2.4347153E0,0E0,4.5078025E0,3E0,5.561228E0,1.9010181E0,1.2769519E1,2.373375E0,6.753185E0,2.2303783E1,5.6039734E0,1.7906799E0,1.8642845E0,1.4915266E1,5.1717234E0,5.769585E0,7.710621E0,1.1650382E1,0E0,3.6199093E0,7.8344994E0,4.8390245E0,0E0,0E0,5.325445E0,1.2914444E1,2.3826923E0,0E0,1.0343137E0,1.7465887E0,2.3477564E0,0E0,5.350658E0,3.0204554E0,2.3162956E0,1.0421204E1,0E0,7.3166656E0,0E0,2.8787875E0,0E0,0E0,7.572008E0,6.237096E0,1.0553026E0,8.720236E0,0E0,1.3928571E0,5.490616E0,3.6063347E0,1.5853167E0,5.171158E0,2.4140565E0,0E0,3.0017684E0,0E0,0E0,3.2416663E0,2.0974789E0,1.3030303E0,2.4936867E0,4.191348E0,0E0,1.3173077E0,0E0,0E0,0E0,0E0,1.4843073E0,4.210227E0,0E0,0E0,0E0,0E0,0E0,0E0,0E0,0E0,0E0,0E0,0E0,0E0,0E0,0E0,0E0,0E0,0E0,0E0,0E0,0E0,0E0,0E0,0E0,0E0,0E0,0E0,0E0,0E0,0E0,0E0,0E0,0E0,0E0,0E0,0E0,0E0,0E0,0E0,0E0,0E0,0E0,0E0,0E0,0E0,0E0,0E0,0E0,0E0,0E0,0E0],"parents":[2147483647,0,0,2,2,3,3,4,4,5,5,6,6,7,7,8,8,9,9,10,10,11,11,12,12,13,13,14,14,16,16,18,18,19,19,20,20,21,21,22,22,23,23,25,25,26,26,27,27,28,28,29,29,30,30,31,31,32,32,33,33,34,34,35,35,36,36,37,37,38,38,39,39,40,40,42,42,43,43,44,44,47,47,48,48,49,49,51,51,52,52,53,53,55,55,56,56,57,57,58,58,60,60,62,62,65,65,66,66,67,67,68,68,70,70,71,71,72,72,73,73,74,74,75,75,77,77,80,80,81,81,82,82,83,83,84,84,86,86,91,91,92,92],"right_children":[2,-1,4,6,8,10,12,14,16,18,20,22,24,26,28,-1,30,-1,32,34,36,38,40,42,-1,44,46,48,50,52,54,56,58,60,62,64,66,68,70,72,74,-1,76,78,80,-1,-1,82,84,86,-1,88,90,92,-1,94,96,98,100,-1,102,-1,104,-1,-1,106,108,110,112,-1,114,116,118,120,122,124,-1,126,-1,-1,128,130,132,134,136,-1,138,-1,-1,-1,-1,140,142,-1,-1,-1,-1,-1,-1,-1,-1,-1,-1,-1,-1,-1,-1,-1,-1,-1,-1,-1,-1,-1,-1,-1,-1,-1,-1,-1,-1,-1,-1,-1,-1,-1,-1,-1,-1,-1,-1,-1,-1,-1,-1,-1,-1,-1,-1,-1,-1,-1,-1],"split_conditions":[8.889634E-2,1.7919468E-2,9.2930335E-1,4.2707407E-1,2.5988212E-1,2.2802326E-1,5.999789E-1,4.3658718E-1,3.3333334E-1,1.1899015E-1,3.1504783E-1,1.4229463E-1,2.0440818E-1,2.7031898E-1,2.3254879E-1,5.499065E-2,2.8303987E-1,-1.9398725E-2,9.51514E-2,4.2458504E-1,2.1577162E-1,6.196768E-1,1.585005E-1,6.1118466E-1,7.3813796E-3,2.0321116E-1,1.4411256E-1,6.8196766E-2,3.17001E-1,3.2985172E-1,3.0865425E-1,1.380814E-1,1.7734674E-1,5E-1,2.2289501E-1,4.3995535E-1,4.609874E-1,1.1509548E-1,1.7407643E-2,1.698721E-1,1.2609756E-2,-4.0966153E-2,5.633619E-1,1.9801004E-1,1.6211057E-1,1.5428246E-3,-7.548362E-3,8.0452275E-1,8.1415035E-2,2.396353E-1,3.638917E-2,3.6298776E-1,2.71143E-1,2.1101126E-1,1.2122894E-2,8.911148E-2,5.109734E-1,1.5866427E-1,1.0139378E-1,-5.3715657E-2,1.4963241E-1,-5.2523177E-2,3.6597523E-1,-9.392142E-3,-4.08401E-2,3.4818754E-1,1.029944E-1,3.4924537E-2,9.51514E-2,-1.1777848E-2,7.046036E-1,5.940247E-1,9.602497E-2,2.1865536E-1,1.8208914E-1,7.117222E-1,-3.2927003E-2,1.8743438E-1,1.8745434E-2,2.774755E-3,2.2509517E-1,1.5866427E-1,6.1703473E-1,4.653868E-1,8.731021E-2,8.308279E-3,6.1055744E-1,-5.952704E-3,-6.7712814E-3,1.7559191E-2,1.3491235E-2,2.9433134E-1,2.964727E-1,2.7425587E-3,-1.2570441E-3,1.3678202E-2,3.8913607E-3,-1.878838E-2,-6.7964913E-3,6.6422285E-3,-1.3150215E-3,-4.1348364E-2,-1.2956095E-2,3.236373E-2,-1.0420561E-3,1.29132215E-2,-4.746275E-2,2.3620129E-4,-1.5915051E-2,-3.1515595E-2,-2.2088727E-2,1.1948704E-3,-2.4718558E-2,6.9901947E-4,9.037288E-3,-3.3447326E-3,5.1838905E-3,1.0223291E-2,-1.3349033E-2,1.1243917E-3,4.626072E-2,2.2362566E-2,4.1987895E-4,9.6467737E-4,-3.4433063E-2,-2.2440554E-4,7.5917394E-4,1.2045613E-2,-4.529917E-3,3.3073218E-3,1.855942E-2,-2.0911401E-2,1.8576315E-2,-6.358406E-3,-1.1796951E-2,1.8386917E-2,1.8634528E-3,6.9445106E-3,-2.7097135E-3,2.0780874E-2,1.7996626E-2,5.49659E-3,-2.0004213E-3],"split_indices":[7,0,11,6,0,7,13,3,8,0,6,0,0,6,0,0,0,0,7,0,0,6,7,3,0,7,5,5,7,6,0,0,0,7,3,3,3,0,5,0,5,0,6,0,3,0,0,3,5,0,0,3,0,5,0,6,3,0,7,0,6,0,3,0,0,6,5,5,7,0,6,3,5,0,0,3,0,0,0,0,5,0,6,6,5,0,3,0,0,0,0,0,3,0,0,0,0,0,0,0,0,0,0,0,0,0,0,0,0,0,0,0,0,0,0,0,0,0,0,0,0,0,0,0,0,0,0,0,0,0,0,0,0,0,0,0,0,0,0,0,0,0,0],"split_type":[0,0,0,0,0,0,0,0,0,0,0,0,0,0,0,0,0,0,0,0,0,0,0,0,0,0,0,0,0,0,0,0,0,0,0,0,0,0,0,0,0,0,0,0,0,0,0,0,0,0,0,0,0,0,0,0,0,0,0,0,0,0,0,0,0,0,0,0,0,0,0,0,0,0,0,0,0,0,0,0,0,0,0,0,0,0,0,0,0,0,0,0,0,0,0,0,0,0,0,0,0,0,0,0,0,0,0,0,0,0,0,0,0,0,0,0,0,0,0,0,0,0,0,0,0,0,0,0,0,0,0,0,0,0,0,0,0,0,0,0,0,0,0],"sum_hessian":[2.536E3,2.14E2,2.322E3,1.754E3,5.68E2,1.176E3,5.78E2,3.65E2,2.03E2,6.46E2,5.3E2,5.06E2,7.2E1,1.3E2,2.35E2,8E1,1.23E2,4.9E1,5.97E2,3.71E2,1.59E2,8.1E1,4.25E2,6.1E1,1.1E1,1.05E2,2.5E1,1.87E2,4.8E1,4.2E1,8.1E1,8.8E1,5.09E2,3.55E2,1.6E1,4.3E1,1.16E2,5.1E1,3E1,1.79E2,2.46E2,2E1,4.1E1,6.5E1,4E1,5E0,2E1,1E2,8.7E1,1.9E1,2.9E1,1.6E1,2.6E1,3.8E1,4.3E1,5.6E1,3.2E1,1.1E2,3.99E2,1.91E2,1.64E2,6E0,1E1,9E0,3.4E1,3.3E1,8.3E1,2.1E1,3E1,1.3E1,1.7E1,6.8E1,1.11E2,2.3E1,2.23E2,1.6E1,2.5E1,5.3E1,1.2E1,1.4E1,2.6E1,9E1,1E1,1.7E1,7E1,7E0,1.2E1,5E0,1.1E1,8E0,1.8E1,2.3E1,1.5E1,9E0,4.7E1,2.3E1,9E0,3E1,8E1,4.9E1,3.5E2,5.9E1,1.05E2,5E0,5E0,2.8E1,5E0,3.7E1,4.6E1,7E0,1.4E1,2.1E1,9E0,1.1E1,6E0,1.7E1,5.1E1,1.06E2,5E0,6E0,1.7E1,1.6E1,2.07E2,1E1,6E0,2.5E1,2.8E1,7E0,1.9E1,6E0,8.4E1,5E0,5E0,7E0,1E1,1E1,6E1,5E0,7E0,1.3E1,1E1,1E1,5E0],"tree_param":{"num_deleted":"0","num_feature":"19","num_nodes":"143","size_leaf_vector":"1"}},{"base_weights":[2.7926078E-2,9.952607E-2,-6.382023E-2,-1.98915E-1,3.3156967E-1,-3.0384272E-2,-5.4713494E-1,4.579208E-1,1.8292682E-2,3.7962038E-2,-6.0504204E-1,-5.762712E-1,9.090909E-2,1.1235955E-1,5.537975E-1,-1.6793893E-1,7.352941E-1,4.4375E-1,-3.91924E-2,-0E0,-7.2727275E-1,-3.438914E-1,-7.395498E-1,-3.018868E-1,7.027027E-1,6.894737E-1,3.464567E-1,2.1276596E-1,-3.764706E-1,8.8E-2,3.0000001E-2,5.174825E-1,-1.6666667E-1,-8.3333336E-2,-9.840098E-3,3.125E-1,-8.3333336E-2,-7.765958E-1,1.6666668E-2,3.75E-1,-4.2929292E-1,-8.298969E-1,-5.8474576E-1,2.1428572E-1,-4.75E-1,7.8125E-2,1.6666668E-2,5.420561E-1,8.6904764E-2,1.097561E-1,7.6086956E-1,5.217391E-1,-8E-2,-2.2950819E-1,-7.2000004E-2,7.361111E-1,2.9166666E-1,3.0000001E-2,-6.666667E-2,1.1084906E-1,-1.4102565E-1,-1.6666668E-2,5.4545456E-1,-8.8709675E-2,-5.4545456E-1,7.857143E-2,-1.8181819E-1,-4.864865E-1,3.5714287E-1,-8.6187845E-1,-3.5714287E-2,1.818182E-2,-6.574074E-1,5.714286E-2,-1.25E-2,-7.916667E-2,-0E0,3.75E-1,8.611111E-2,3.3898306E-1,-4.5833334E-1,5.6E-1,9.5454544E-2,9.090909E-2,1.5384616E-1,-8.571429E-2,2.1052632E-1,-0E0,-6.666667E-1,-1.6666668E-2,8.059701E-2,-3.3333336E-3,5.116279E-2,-1.8023256E-2,3.083004E-2,-1.9283747E-2,5.357143E-2,1.6666668E-2,8.3333336E-2,-8.695652E-2,1.818182E-2,1.6666668E-2,-5E-2,-3.7956204E-2,-7.755102E-2,6.666667E-2,-1.6666668E-2,-7.361111E-2,-9.3636364E-2,-5.15625E-2,-8.444445E-2,-5E-2,2.5E-2,4.918033E-2,-2.5E-2,-1.5000001E-2,5.75E-2,-9.2857145E-2,1.818182E-2,7.368421E-2,-0E0,-3.75E-2,8.3333336E-2,-1.0000001E-2,5E-2,1.6666668E-2,-4.1666668E-2,-9.2307694E-2,-2.2222223E-2],"categories":[],"categories_nodes":[],"categories_segments":[],"categories_sizes":[],"default_left":[0,0,0,0,0,0,0,0,0,0,0,0,0,0,0,0,0,0,0,0,0,0,0,0,0,0,0,0,0,0,0,0,0,0,0,0,0,0,0,0,0,0,0,0,0,0,0,0,0,0,0,0,0,0,0,0,0,0,0,0,0,0,0,0,0,0,0,0,0,0,0,0,0,0,0,0,0,0,0,0,0,0,0,0,0,0,0,0,0,0,0,0,0,0,0,0,0,0,0,0,0,0,0,0,0,0,0,0,0,0,0,0,0,0,0,0,0,0,0,0,0,0,0,0,0,0,0,0,0],"id":13,"left_children":[1,-1,3,5,7,9,11,13,15,17,19,21,-1,23,25,27,29,31,33,35,37,39,41,43,45,47,49,51,53,-1,-1,55,57,-1,59,61,-1,63,-1,65,67,69,71,73,75,-1,-1,77,-1,79,81,83,85,87,-1,89,91,-1,-1,93,95,-1,97,-1,99,-1,101,103,105,107,-1,-1,109,-1,-1,-1,111,113,-1,115,117,119,-1,-1,121,-1,123,125,127,-1,-1,-1,-1,-1,-1,-1,-1,-1,-1,-1,-1,-1,-1,-1,-1,-1,-1,-1,-1,-1,-1,-1,-1,-1,-1,-1,-1,-1,-1,-1,-1,-1,-1,-1,-1,-1,-1,-1,-1],"loss_changes":[2.1616824E2,0E0,1.1891458E2,9.734305E1,2.2435127E1,4.397252E1,2.3477966E1,1.3322807E1,2.2022131E1,3.135704E1,8.80061E0,1.9893219E1,0E0,2.1976862E1,8.650589E0,1.04800625E1,1.8776474E0,7.2874546E0,1.9618706E1,5.7291665E0,4.494522E0,1.3729153E1,3.8643951E0,4.8376684E0,1.4276466E0,4.5586777E0,1.2374144E1,4.29321E0,4.1260557E0,0E0,0E0,6.8451843E0,4.4E0,0E0,1.2887595E1,1.876894E0,0E0,1.9170151E0,0E0,5.6314936E0,9.079597E0,2.625351E0,6.6921043E0,1.7678573E0,6.0166674E0,0E0,0E0,5.38019E0,0E0,1.0833523E1,1.2550201E0,3.137732E0,5.8249626E0,6.1202183E0,0E0,4.675167E0,5.1641474E0,0E0,0E0,2.4424734E1,1.37779255E1,0E0,1.0606058E0,0E0,7.936758E0,0E0,1.3030303E0,5.4228287E0,2.3809524E0,1.0063171E0,0E0,0E0,2.4285889E0,0E0,0E0,0E0,2.25E0,5.379098E0,0E0,6.895339E0,7.393398E0,2.475789E0,0E0,0E0,4.983974E0,0E0,1.7578946E0,2.9166665E0,2.188035E0,0E0,0E0,0E0,0E0,0E0,0E0,0E0,0E0,0E0,0E0,0E0,0E0,0E0,0E0,0E0,0E0,0E0,0E0,0E0,0E0,0E0,0E0,0E0,0E0,0E0,0E0,0E0,0E0,0E0,0E0,0E0,0E0,0E0,0E0,0E0,0E0,0E0,0E0,0E0,0E0],"parents":[2147483647,0,0,2,2,3,3,4,4,5,5,6,6,7,7,8,8,9,9,10,10,11,11,13,13,14,14,15,15,16,16,17,17,18,18,19,19,20,20,21,21,22,22,23,23,24,24,25,25,26,26,27,27,28,28,31,31,32,32,34,34,35,35,37,37,39,39,40,40,41,41,42,42,43,43,44,44,47,47,49,49,50,50,51,51,52,52,53,53,55,55,56,56,59,59,60,60,62,62,64,64,66,66,67,67,68,68,69,69,72,72,76,76,77,77,79,79,80,80,81,81,84,84,86,86,87,87,88,88],"right_children":[2,-1,4,6,8,10,12,14,16,18,20,22,-1,24,26,28,30,32,34,36,38,40,42,44,46,48,50,52,54,-1,-1,56,58,-1,60,62,-1,64,-1,66,68,70,72,74,76,-1,-1,78,-1,80,82,84,86,88,-1,90,92,-1,-1,94,96,-1,98,-1,100,-1,102,104,106,108,-1,-1,110,-1,-1,-1,112,114,-1,116,118,120,-1,-1,122,-1,124,126,128,-1,-1,-1,-1,-1,-1,-1,-1,-1,-1,-1,-1,-1,-1,-1,-1,-1,-1,-1,-1,-1,-1,-1,-1,-1,-1,-1,-1,-1,-1,-1,-1,-1,-1,-1,-1,-1,-1,-1,-1],"split_conditions":[3.393901E-2,1.6127521E-2,9.2930335E-1,7.4174184E-1,7.79914E-1,3.6348408E-1,4.3266606E-1,1.854582E-1,3.0865425E-1,3.5292795E-1,3.266559E-1,2.8140703E-1,3.7349362E-2,6.798279E-1,3.3333334E-1,1.6250141E-1,8.832264E-1,3.442625E-1,9.495804E-2,3.0806044E-1,2.3571458E-1,7.595213E-2,2.0148706E-1,4.7736233E-1,5.107075E-1,2.3894426E-1,2.8303987E-1,8.8319546E-1,3.3086866E-1,6.655173E-3,3.698808E-3,7.2403836E-1,4.772554E-1,-2.9312504E-2,2.1213672E-1,1.8552692E-1,-2.4263693E-2,2.0675075E-1,1.1821496E-2,8.8319546E-1,2.584814E-1,9.5526063E-1,3.0979675E-1,1.6426851E-1,5.82028E-1,1.7023517E-2,2.3851587E-2,6.1699283E-1,5.0998237E-2,6.015637E-1,3.0070877E-1,9.1748126E-2,9.226944E-1,8.1697154E-1,-6.295565E-3,1.4229463E-1,6.48403E-1,2.864483E-3,-7.755092E-3,1.698721E-1,6.196768E-1,-2.8914869E-2,5.527729E-1,-4.6186913E-2,3.286784E-1,4.7390284E-3,3.7029907E-1,8.360506E-1,2.320895E-1,8.4636116E-1,-5.198952E-2,8.597744E-3,8.403758E-1,8.802481E-3,-1.569669E-3,-4.5751273E-3,4.288357E-1,2.2600448E-1,2.5036573E-2,5.8369184E-1,2.584814E-1,6.3844216E-1,2.2897838E-2,8.899674E-3,1.4044587E-1,-6.814528E-3,9.3523836E-1,3.3333334E-1,1.3939738E-1,-1.2123317E-3,1.9690514E-2,-7.922769E-4,1.0945626E-2,-1.5812636E-3,3.9568036E-3,-4.7095953E-3,1.48383975E-2,1.3820827E-3,1.1746228E-2,-1.5784794E-2,4.047805E-3,3.2254755E-3,-1.445632E-2,-5.8576795E-3,-6.951162E-3,8.481801E-3,-1.1458874E-3,-2.9963935E-2,-5.0241243E-2,-2.9024959E-2,-4.8932422E-2,-4.5291604E-3,6.8969997E-3,6.5322253E-3,-4.0756614E-4,-2.6720674E-3,1.6718684E-2,-1.5086293E-2,4.068609E-3,1.1219174E-2,-3.0569003E-3,-1.0474444E-3,4.998362E-3,-2.8945506E-3,1.8302024E-3,5.123943E-4,-1.8003791E-3,-5.27063E-3,-4.7649383E-3],"split_indices":[10,0,11,2,2,15,0,0,0,2,2,15,0,3,8,3,4,4,0,4,0,6,6,2,2,0,0,4,3,0,0,3,3,0,0,4,0,0,0,4,0,4,3,0,4,0,0,3,0,2,0,6,2,4,0,0,6,0,0,0,6,0,6,0,6,0,9,4,3,2,0,0,2,0,0,0,3,0,0,3,0,4,0,0,3,0,4,8,6,0,0,0,0,0,0,0,0,0,0,0,0,0,0,0,0,0,0,0,0,0,0,0,0,0,0,0,0,0,0,0,0,0,0,0,0,0,0,0,0],"split_type":[0,0,0,0,0,0,0,0,0,0,0,0,0,0,0,0,0,0,0,0,0,0,0,0,0,0,0,0,0,0,0,0,0,0,0,0,0,0,0,0,0,0,0,0,0,0,0,0,0,0,0,0,0,0,0,0,0,0,0,0,0,0,0,0,0,0,0,0,0,0,0,0,0,0,0,0,0,0,0,0,0,0,0,0,0,0,0,0,0,0,0,0,0,0,0,0,0,0,0,0,0,0,0,0,0,0,0,0,0,0,0,0,0,0,0,0,0,0,0,0,0,0,0,0,0,0,0,0,0],"sum_hessian":[2.434E3,2.1E2,2.224E3,1.658E3,5.66E2,1.118E3,5.4E2,4.03E2,1.63E2,1E3,1.18E2,5.3E2,1E1,8.8E1,3.15E2,1.3E2,3.3E1,1.59E2,8.41E2,2E1,9.8E1,2.2E2,3.1E2,5.2E1,3.6E1,1.89E2,1.26E2,4.6E1,8.4E1,2.4E1,9E0,1.42E2,1.7E1,2.9E1,8.12E2,1.5E1,5E0,9.3E1,5E0,2.3E1,1.97E2,1.93E2,1.17E2,1.3E1,3.9E1,3.1E1,5E0,1.06E2,8.3E1,8.1E1,4.5E1,2.2E1,2.4E1,6E1,2.4E1,7.1E1,7.1E1,9E0,8E0,4.23E2,3.89E2,5E0,1E1,6.1E1,3.2E1,1.3E1,1E1,1.84E2,1.3E1,1.8E2,1.3E1,1E1,1.07E2,6E0,7E0,2.3E1,1.6E1,7.1E1,3.5E1,5.8E1,2.3E1,2.4E1,2.1E1,1E1,1.2E1,6E0,1.8E1,4E1,2E1,5E0,6.6E1,2.9E1,4.2E1,1.71E2,2.52E2,3.62E2,2.7E1,5E0,5E0,2.2E1,1E1,5E0,5E0,1.36E2,4.8E1,8E0,5E0,7.1E1,1.09E2,6.3E1,4.4E1,5E0,1.1E1,6E1,1.1E1,1.9E1,3.9E1,1.3E1,1E1,1.8E1,6E0,7E0,5E0,9E0,9E0,2.9E1,1.1E1,1.2E1,8E0],"tree_param":{"num_deleted":"0","num_feature":"19","num_nodes":"129","size_leaf_vector":"1"}},{"base_weights":[3.8603697E-2,9.951923E-2,-5.0718132E-2,-1.6252956E-1,3.0167598E-1,3.6842104E-2,-4.1722745E-1,1.7661692E-1,6.691176E-1,-4.9382716E-1,8.62069E-2,-1.6933638E-1,-7.687296E-1,4.256757E-1,3.137255E-2,9.7500004E-2,5.3608245E-1,-5.6578946E-1,5E-2,-1.09375E-2,3.5497835E-1,-3.1023103E-1,1.4814815E-1,-8.2167834E-1,-4.5454547E-2,5.585586E-1,2.631579E-2,1.1363637E-1,-4.722222E-1,3.809524E-1,8E-1,-3.2258064E-1,-7.173913E-2,-5.0083473E-2,5.4761904E-1,4.6783626E-1,3.2786883E-2,7.272728E-2,-3.4812286E-1,6.486486E-1,-4.040404E-2,-9.349113E-2,-6.5254235E-1,5.833333E-1,-7.272728E-2,8.301887E-1,3.0508474E-1,2.2222222E-1,-4.1666666E-1,-3.3333335E-2,4.225352E-1,-6.4E-1,-8.333334E-3,6.764706E-1,3.3333335E-2,8.928572E-2,3.75E-2,-4.8E-1,2.857143E-2,1.39442235E-2,-3.7755102E-1,3.7037036E-1,8.1250004E-2,1.7283951E-1,7.2527474E-1,-3.478261E-1,2.5641027E-1,-8.888889E-2,-2.9213482E-1,8.333333E-1,-1.25E-2,-2.2972973E-1,5E-1,-8.8709675E-2,-3.859649E-1,1.6666668E-2,8.571429E-2,5E-1,9.7222224E-2,2.7777778E-2,7.083333E-2,-5E-2,4.090909E-1,-0E0,-8.3333336E-2,7.03125E-2,-6.086956E-1,8.9655176E-2,9.3023255E-2,-2.5E-1,-9.2857145E-2,3.888889E-1,9.411765E-2,-5.714286E-2,2.0833333E-1,-2.777778E-2,-8.75E-2,-5.0000004E-3,3.373494E-2,1.5000001E-2,-5.0632913E-2,1.904762E-2,8.571429E-2,3.773585E-2,-2.0689657E-2,