{"learner":{"attributes":{"scikit_learn":"{\"_estimator_type\": \"regressor\"}"},"feature_names":[],"feature_types":[],"gradient_booster":{"model":{"gbtree_model_param":{"num_parallel_tree":"1","num_trees":"200"},"iteration_indptr":[0,1,2,3,4,5,6,7,8,9,10,11,12,13,14,15,16,17,18,19,20,21,22,23,24,25,26,27,28,29,30,31,32,33,34,35,36,37,38,39,40,41,42,43,44,45,46,47,48,49,50,51,52,53,54,55,56,57,58,59,60,61,62,63,64,65,66,67,68,69,70,71,72,73,74,75,76,77,78,79,80,81,82,83,84,85,86,87,88,89,90,91,92,93,94,95,96,97,98,99,100,101,102,103,104,105,106,107,108,109,110,111,112,113,114,115,116,117,118,119,120,121,122,123,124,125,126,127,128,129,130,131,132,133,134,135,136,137,138,139,140,141,142,143,144,145,146,147,148,149,150,151,152,153,154,155,156,157,158,159,160,161,162,163,164,165,166,167,168,169,170,171,172,173,174,175,176,177,178,179,180,181,182,183,184,185,186,187,188,189,190,191,192,193,194,195,196,197,198,199,200],"tree_info":[0,0,0,0,0,0,0,0,0,0,0,0,0,0,0,0,0,0,0,0,0,0,0,0,0,0,0,0,0,0,0,0,0,0,0,0,0,0,0,0,0,0,0,0,0,0,0,0,0,0,0,0,0,0,0,0,0,0,0,0,0,0,0,0,0,0,0,0,0,0,0,0,0,0,0,0,0,0,0,0,0,0,0,0,0,0,0,0,0,0,0,0,0,0,0,0,0,0,0,0,0,0,0,0,0,0,0,0,0,0,0,0,0,0,0,0,0,0,0,0,0,0,0,0,0,0,0,0,0,0,0,0,0,0,0,0,0,0,0,0,0,0,0,0,0,0,0,0,0,0,0,0,0,0,0,0,0,0,0,0,0,0,0,0,0,0,0,0,0,0,0,0,0,0,0,0,0,0,0,0,0,0,0,0,0,0,0,0,0,0,0,0,0,0,0,0,0,0,0,0],"trees":[{"base_weights":[-1.2844036E-2,-2.5786164E-1,8.3835614E-1,9.781819E-2,-4.0783107E-1,-1.4285715E-2,8.459422E-1,4.4281524E-1,-5.5785125E-1,-0E0,8.508287E-1,5.7755774E-1,-5.2380955E-1,-2.7570093E-1,-7.7675277E-1,-0E0,8.5575587E-1,6.571429E-1,-2.5925925E-1,2.0000001E-2,-7.222222E-1,1.7408123E-2,-7.201166E-1,-8.220503E-1,1.1111111E-1,-0E0,8.579387E-1,-1.3043478E-1,7.241379E-1,-6.25E-2,6.666667E-2,-8.1250004E-2,-0E0,-6.893204E-1,1.9617225E-1,1.4285715E-2,-7.352941E-1,-8.616352E-1,-3.0952382E-1,-5.555556E-2,4.5E-1,8.6013985E-1,-0E0,-3.75E-1,9.090909E-2,-2E-1,7.76E-1,-1.1111111E-2,4.0000003E-2,-7.7319586E-1,2.0000001E-2,-5.882353E-1,2.6804122E-1,-3.0612245E-1,-7.898305E-1,-6.2051284E-1,-9.161206E-1,4.347826E-2,-7.1428573E-1,-0E0,5.882353E-1,2E-1,8.664773E-2,-5.3846158E-2,-0E0,-0E0,2.5E-2,-4.5454547E-2,-0E0,8.43318E-2,2.4324325E-1,-8.2978725E-1,1.4285715E-2,-0E0,-7.5E-2,1.0416667E-2,5E-1,-6.296296E-1,-0E0,-8.181818E-1,-0E0,-8.778626E-1,-5.882353E-2,-9.2338175E-1,-0E0,-3.3333334E-1,4.6153846E-1,-7.948718E-1,-0E0,-1.4285715E-2,-0E0,-0E0,6.666667E-1,-0E0,4.0000003E-2,-0E0,3.7931034E-1,-8.6363636E-2,-0E0,-2.5E-2,-0E0,4.0425533E-1,-3.3333334E-1,-5E-2,5.625E-1,-7.5E-2,-0E0,3.3333334E-1,-3.3333335E-2,-0E0,-8.291815E-1,-1.1111111E-2,2.5E-2,-8.90625E-1,-0E0,-4.375E-1,2E-1,-9.280959E-2,-0E0,-1.4285715E-2,1.4285715E-2,-5.2380955E-1,1.4285715E-2,5.652174E-2,-0E0,-8.3333336E-2,-0E0,-0E0,7.037037E-2,-3.3333335E-2,1.4285715E-2,-0E0,6.1904766E-2,-1.4285715E-2,-0E0,-0E0,1.4285715E-2,-1.0000001E-2,5.3846158E-2,-5.9322037E-2,-0E0,-0E0,6.089386E-2,-0E0,4.2857144E-2,-8.976745E-2,-5.4285716E-2,-0E0,-9.04E-2,-6.666667E-2,-0E0,4.8387095E-2,-3.846154E-2,-1.4285715E-2,-0E0,-6.666667E-2,-0E0],"categories":[],"categories_nodes":[],"categories_segments":[],"categories_sizes":[],"default_left":[0,0,0,0,0,0,0,0,0,0,0,0,0,0,0,0,0,0,0,0,0,0,0,0,0,0,0,0,0,0,0,0,0,0,0,0,0,0,0,0,0,0,0,0,0,0,0,0,0,0,0,0,0,0,0,0,0,0,0,0,0,0,0,0,0,0,0,0,0,0,0,0,0,0,0,0,0,0,0,0,0,0,0,0,0,0,0,0,0,0,0,0,0,0,0,0,0,0,0,0,0,0,0,0,0,0,0,0,0,0,0,0,0,0,0,0,0,0,0,0,0,0,0,0,0,0,0,0,0,0,0,0,0,0,0,0,0,0,0,0,0,0,0,0,0,0,0,0,0,0,0,0,0,0,0,0,0],"id":0,"left_children":[1,3,5,-1,7,-1,9,11,13,-1,15,17,19,21,23,-1,25,27,29,-1,31,33,35,37,39,-1,41,43,45,-1,47,-1,-1,49,51,-1,53,55,57,-1,59,61,-1,63,65,67,69,-1,-1,71,-1,73,75,77,79,81,83,85,87,89,91,93,-1,-1,-1,-1,-1,-1,-1,-1,95,97,-1,99,-1,101,103,105,107,109,111,113,115,117,119,121,123,125,-1,-1,-1,-1,127,-1,-1,129,131,-1,133,-1,135,137,139,-1,141,-1,-1,143,-1,-1,145,-1,-1,147,-1,149,151,-1,153,-1,-1,155,-1,-1,-1,-1,-1,-1,-1,-1,-1,-1,-1,-1,-1,-1,-1,-1,-1,-1,-1,-1,-1,-1,-1,-1,-1,-1,-1,-1,-1,-1,-1,-1,-1,-1,-1],"loss_changes":[6.816918E2,4.7203308E2,7.3233643E0,0E0,2.9128503E2,0E0,3.856018E0,4.5731316E1,1.1661194E2,0E0,3.8909302E0,2.1656487E1,7.653969E0,1.1296006E2,4.5383606E1,0E0,4.8883057E-1,1.6339104E1,4.501852E0,0E0,2.3472214E0,6.48712E1,6.09758E0,1.756903E1,1.2988889E1,0E0,4.9578857E-1,1.9496046E0,1.4281937E1,0E0,1.6444445E0,0E0,0E0,9.447945E0,2.355487E1,0E0,4.798813E0,7.186157E0,1.3467909E1,0E0,3.6647053E0,1.651001E-1,0E0,1.5192308E0,4.090909E-1,1.6727272E0,5.9723816E0,0E0,0E0,6.8765755E0,0E0,1.7352943E0,2.2144543E1,6.111867E0,7.4240417E0,2.6107437E1,5.0755615E0,8.118172E0,3.2124538E0,1.4285715E-1,1.5686274E0,1E0,0E0,0E0,0E0,0E0,0E0,0E0,0E0,0E0,1.9832246E0,9.1295624E-1,0E0,5E-1,0E0,2.66742E1,1.375E1,2.7962961E0,3.3333335E0,1.744751E0,6.111111E-1,5.7704926E-1,7.4897056E0,1.4389648E0,2.857143E-1,3.238095E0,1.8093643E0,3.5897446E-1,0E0,0E0,0E0,0E0,3.7036896E-2,0E0,0E0,1.1428572E0,3.875205E0,0E0,1.4285715E-1,0E0,1.4285715E-1,7.453684E0,9.429379E0,0E0,5.624298E0,0E0,0E0,5.7142854E-1,0E0,0E0,6.804352E-1,0E0,0E0,6.207504E-1,0E0,4.541667E0,7.581142E0,0E0,1.4285715E-1,0E0,0E0,2.2380953E0,0E0,0E0,0E0,0E0,0E0,0E0,0E0,0E0,0E0,0E0,0E0,0E0,0E0,0E0,0E0,0E0,0E0,0E0,0E0,0E0,0E0,0E0,0E0,0E0,0E0,0E0,0E0,0E0,0E0,0E0,0E0,0E0,0E0,0E0,0E0],"parents":[2147483647,0,0,1,1,2,2,4,4,6,6,7,7,8,8,10,10,11,11,12,12,13,13,14,14,16,16,17,17,18,18,20,20,21,21,22,22,23,23,24,24,26,26,27,27,28,28,30,30,33,33,34,34,36,36,37,37,38,38,40,40,41,41,43,43,44,44,45,45,46,46,49,49,51,51,52,52,53,53,54,54,55,55,56,56,57,57,58,58,59,59,60,60,61,61,70,70,71,71,73,73,75,75,76,76,77,77,78,78,79,79,80,80,81,81,82,82,83,83,84,84,85,85,86,86,87,87,92,92,95,95,96,96,98,98,100,100,101,101,102,102,104,104,107,107,110,110,113,113,115,115,116,116,118,118,121,121],"right_children":[2,4,6,-1,8,-1,10,12,14,-1,16,18,20,22,24,-1,26,28,30,-1,32,34,36,38,40,-1,42,44,46,-1,48,-1,-1,50,52,-1,54,56,58,-1,60,62,-1,64,66,68,70,-1,-1,72,-1,74,76,78,80,82,84,86,88,90,92,94,-1,-1,-1,-1,-1,-1,-1,-1,96,98,-1,100,-1,102,104,106,108,110,112,114,116,118,120,122,124,126,-1,-1,-1,-1,128,-1,-1,130,132,-1,134,-1,136,138,140,-1,142,-1,-1,144,-1,-1,146,-1,-1,148,-1,150,152,-1,154,-1,-1,156,-1,-1,-1,-1,-1,-1,-1,-1,-1,-1,-1,-1,-1,-1,-1,-1,-1,-1,-1,-1,-1,-1,-1,-1,-1,-1,-1,-1,-1,-1,-1,-1,-1,-1,-1],"split_conditions":[9.2930335E-1,8.889634E-2,3.3333334E-1,6.3447565E-2,4.3732247E-1,-6.279441E-2,2.746747E-1,5.999789E-1,1.585005E-1,-2.1370644E-2,1.8399012E-1,8.0452275E-1,1.7277667E-1,7.4174184E-1,5.599341E-1,-1.8679918E-3,3.670286E-2,3.7832874E-1,3.6774194E-1,1.6990567E-2,3.083894E-1,3.3978495E-1,1.1306925E-1,5.6965125E-1,3.466483E-1,1.5060744E-2,9.844602E-1,3.425814E-1,2.0252644E-1,-2.5683675E-2,3.7258014E-1,-6.156395E-2,2.0250767E-2,5.5325985E-1,3.930211E-1,1.3839788E-2,4.5725647E-2,2.2802326E-1,2.930698E-1,-3.309644E-2,1.299893E-1,3.6305934E-1,8.868379E-3,4.27957E-1,4.0215054E-1,2.4946237E-1,3.9917368E-1,-1.8665493E-2,2.2364335E-2,3.241796E-1,1.15910275E-2,5.107075E-1,2.8298777E-1,2.8806812E-1,5.97337E-1,3.935484E-1,1.7020951E-1,4.4536272E-1,6.2534434E-1,3.6822772E-1,5.677605E-1,4.9081725E-1,4.483774E-2,-1.552962E-2,2.2986937E-2,-8.429569E-3,8.827278E-3,-3.577077E-2,3.2106459E-3,3.4885235E-2,2.5E-1,7.844551E-1,7.581246E-3,2.6911986E-1,-1.5354452E-2,5.922216E-1,2.607109E-1,3.6623293E-1,5.794307E-1,5.4358445E-2,3.0418915E-1,4.8238653E-1,4.6097338E-1,6.7914945E-1,3.939394E-1,4.2902517E-1,7.12006E-1,4.802479E-1,1.8430216E-2,-1.3915551E-2,3.112996E-2,-6.327927E-5,1.3503593E-1,-8.712691E-3,2.0231424E-2,4.904792E-1,3.4623656E-1,-2.5972737E-2,1.9140464E-1,-1.479601E-2,3.8797063E-1,3.548387E-1,4.4352618E-1,-3.4306463E-2,3.989899E-1,-2.0420874E-2,9.279656E-3,2.8990796E-1,-1.1936388E-2,-1.5707606E-2,4.1335726E-1,-2.4803216E-2,2.2841347E-2,4.7736233E-1,-4.2929055E-4,5.671591E-1,6.896561E-1,-9.2327826E-2,3.4205693E-1,-5.849469E-3,2.2701631E-1,1.3931794E-1,4.2582776E-2,1.9894918E-2,-4.3021053E-2,-7.6747805E-2,-2.5674189E-2,3.4823593E-2,2.7515829E-2,-2.7746612E-2,4.159055E-2,-9.590074E-3,1.8653756E-2,-5.626729E-2,4.267151E-2,-5.7739913E-3,2.4321286E-2,-7.6526045E-3,8.610511E-3,-1.0046303E-2,1.011467E-3,-3.949934E-3,1.3635159E-2,1.3856232E-3,5.2995207E-3,-2.6728023E-2,-8.662703E-3,-4.078744E-2,-4.0191013E-2,-7.70528E-3,4.621142E-3,6.39078E-3,-3.5049606E-2,-4.1497704E-2,1.04787825E-2,-4.9565084E-2,5.657307E-2],"split_indices":[15,11,2,0,6,0,0,17,11,0,3,7,6,6,3,0,1,2,4,0,3,4,5,10,2,0,6,8,3,0,0,0,0,2,2,0,1,11,13,0,1,0,0,4,4,4,6,0,0,3,0,6,3,3,2,4,1,2,2,2,3,2,0,0,0,0,0,0,0,0,22,7,0,3,0,6,0,0,2,7,0,0,2,0,2,8,6,5,0,0,0,0,1,0,0,0,4,0,3,0,2,4,2,0,2,0,0,0,0,0,14,0,0,6,0,7,8,0,2,0,0,1,0,0,0,0,0,0,0,0,0,0,0,0,0,0,0,0,0,0,0,0,0,0,0,0,0,0,0,0,0,0,0,0,0,0,0],"split_type":[0,0,0,0,0,0,0,0,0,0,0,0,0,0,0,0,0,0,0,0,0,0,0,0,0,0,0,0,0,0,0,0,0,0,0,0,0,0,0,0,0,0,0,0,0,0,0,0,0,0,0,0,0,0,0,0,0,0,0,0,0,0,0,0,0,0,0,0,0,0,0,0,0,0,0,0,0,0,0,0,0,0,0,0,0,0,0,0,0,0,0,0,0,0,0,0,0,0,0,0,0,0,0,0,0,0,0,0,0,0,0,0,0,0,0,0,0,0,0,0,0,0,0,0,0,0,0,0,0,0,0,0,0,0,0,0,0,0,0,0,0,0,0,0,0,0,0,0,0,0,0,0,0,0,0,0,0],"sum_hessian":[3.266E3,2.54E3,7.26E2,2.71E2,2.269E3,3E0,7.23E2,3.37E2,1.932E3,3E0,7.2E2,2.99E2,3.8E1,8.52E2,1.08E3,3E0,7.17E2,2.76E2,2.3E1,6E0,3.2E1,5.13E2,3.39E2,1.03E3,5E1,3E0,7.14E2,1.9E1,2.57E2,1.2E1,1.1E1,2.8E1,4E0,9.9E1,4.14E2,3E0,3.36E2,9.5E2,8E1,1.4E1,3.6E1,7.11E2,3E0,1.2E1,7E0,1.1E1,2.46E2,5E0,6E0,9.3E1,6E0,3E1,3.84E2,4.5E1,2.91E2,1.91E2,7.59E2,4.2E1,3.8E1,6E0,3E1,1.1E1,7E2,9E0,3E0,3E0,4E0,7E0,4E0,2.13E2,3.3E1,9E1,3E0,1E1,2E1,1.88E2,1.96E2,2.3E1,2.2E1,2.82E2,9E0,1.27E2,6.4E1,7.53E2,6E0,2E1,2.2E1,3.5E1,3E0,3E0,3E0,4E0,2.6E1,5E0,6E0,8E0,2.5E1,8.4E1,6E0,4E0,6E0,9E1,9.8E1,8E0,1.88E2,2E1,3E0,1.4E1,8E0,5E0,2.77E2,5E0,4E0,1.24E2,3E0,2.8E1,3.6E1,7.47E2,6E0,3E0,3E0,1.7E1,3E0,1.9E1,3E0,3.2E1,3E0,3E0,2.3E1,5E0,3E0,8E0,1.7E1,3E0,3E0,3E0,3E0,1.6E1,7.4E1,5.5E1,4.3E1,1.3E1,1.75E2,4E0,1E1,2.11E2,6.6E1,3E0,1.21E2,2E1,8E0,2.7E1,9E0,3E0,3E0,1.4E1,3E0],"tree_param":{"num_deleted":"0","num_feature":"23","num_nodes":"157","size_leaf_vector":"1"}},{"base_weights":[-1.8159806E-3,-2.3058915E-1,7.8255033E-1,9.784173E-2,-3.7789428E-1,5.030303E-1,8.5273975E-1,4.164306E-1,-5.226804E-1,6.2666667E-1,-4.7368422E-1,-0E0,8.6206895E-1,5.1724136E-1,-4.2105263E-1,-3.255814E-1,-8.378378E-1,-4E-2,7.51938E-1,-5.714286E-2,-0E0,-0E0,8.682842E-1,5.878378E-1,-2.5925925E-1,-7.1428573E-1,1.4285715E-1,-4.0816326E-2,-6.934866E-1,-8.6187845E-1,1E-1,-2.857143E-1,6.666667E-2,-0E0,7.777778E-1,8.961039E-2,3.809524E-1,-1.0344828E-1,6.605166E-1,-5.294118E-2,-0E0,-7.6E-2,-0E0,-1.4285715E-2,4.5454547E-2,-5.903614E-1,1.29771E-1,-8.9041096E-1,-2.173913E-1,-5.5421686E-1,-9.430605E-1,-4.0000003E-2,5.714286E-2,-0E0,-4.0000003E-2,2.0000001E-2,-0E0,8.0487806E-1,-0E0,-7.692308E-2,5.7575756E-1,-5.555556E-2,3.3333334E-1,-0E0,7.327935E-1,3.3333335E-2,-1.1111111E-2,-6.666667E-1,2.857143E-1,5.686275E-1,-4.5333333E-2,-9.005525E-1,-0E0,-5.8762884E-1,2.9411766E-1,-6.7832166E-1,1.1111111E-1,-9.4633274E-2,-0E0,-0E0,8.319328E-1,-0E0,-3.3333335E-2,-1.4285715E-2,7.3333335E-1,5E-2,-0E0,1.25E-1,-2.5E-1,-0E0,7.6371306E-1,-7.9816514E-1,-2.9411766E-1,-0E0,4.0000003E-2,-5.714286E-2,6.7832166E-1,-6.712329E-1,9.803922E-2,-9.052925E-2,-0E0,2.2222222E-1,-7.590361E-1,4.909091E-1,-2.9411766E-1,-7.2262776E-1,-0E0,-2.5E-2,3.043478E-1,8.596491E-1,-0E0,-0E0,7.777778E-2,-0E0,3.3333335E-2,-5.3846158E-2,1.4285715E-2,-1.1111111E-2,1.1111111E-2,4.4262296E-1,8.4444445E-1,-8.252427E-1,-0E0,1.4285715E-2,-3.75E-1,-9.090909E-2,7.352941E-1,-0E0,-7.352941E-1,-3.877551E-1,1.954023E-1,-1.1111111E-2,5.3846158E-2,-8.181818E-1,-0E0,-0E0,5.2E-1,-5E-2,-0E0,-7.557252E-1,-0E0,-0E0,1.4285715E-2,-1.1111111E-2,5.555556E-2,-0E0,8.738739E-2,-6.6666673E-3,6.0000002E-2,3.7931036E-2,8.9677416E-2,-8.695652E-2,-2.0000001E-2,-0E0,-1.4285715E-2,-5E-2,-0E0,-1.4285715E-2,-0E0,7.913043E-2,2.8E-2,-8.245614E-2,-6.6666673E-3,-5.3488374E-2,2.0000001E-2,5.121951E-2,3.8251367E-3,-8.630137E-2,-0E0,5.555556E-2,-0E0,-8.070176E-2,-2.3809524E-2],"categories":[],"categories_nodes":[],"categories_segments":[],"categories_sizes":[],"default_left":[0,0,0,0,0,0,0,0,0,0,0,0,0,0,0,0,0,0,0,0,0,0,0,0,0,0,0,0,0,0,0,0,0,0,0,0,0,0,0,0,0,0,0,0,0,0,0,0,0,0,0,0,0,0,0,0,0,0,0,0,0,0,0,0,0,0,0,0,0,0,0,0,0,0,0,0,0,0,0,0,0,0,0,0,0,0,0,0,0,0,0,0,0,0,0,0,0,0,0,0,0,0,0,0,0,0,0,0,0,0,0,0,0,0,0,0,0,0,0,0,0,0,0,0,0,0,0,0,0,0,0,0,0,0,0,0,0,0,0,0,0,0,0,0,0,0,0,0,0,0,0,0,0,0,0,0,0,0,0,0,0,0,0,0,0,0,0,0,0,0,0,0,0],"id":1,"left_children":[1,3,5,-1,7,9,11,13,15,17,19,-1,21,23,25,27,29,31,33,-1,-1,-1,35,37,39,41,43,45,47,49,51,53,55,-1,57,-1,59,61,63,-1,65,-1,-1,-1,-1,67,69,71,73,75,77,-1,-1,-1,-1,-1,-1,79,-1,81,83,-1,85,87,89,-1,-1,91,93,95,97,99,-1,101,103,105,107,-1,-1,-1,109,-1,-1,-1,111,-1,-1,113,115,117,119,121,123,-1,-1,-1,125,127,129,-1,-1,131,133,135,137,139,141,-1,143,145,-1,-1,-1,-1,-1,-1,-1,-1,-1,147,149,151,153,-1,155,157,159,-1,161,163,165,-1,-1,167,-1,-1,169,-1,-1,171,-1,-1,-1,-1,-1,-1,-1,-1,-1,-1,-1,-1,-1,-1,-1,-1,-1,-1,-1,-1,-1,-1,-1,-1,-1,-1,-1,-1,-1,-1,-1,-1,-1],"loss_changes":[5.924941E2,4.5672986E2,1.0189087E1,0E0,2.6433466E2,2.1418308E1,6.3700867E0,3.0866367E1,1.1708948E2,1.4071323E1,3.0827093E-1,0E0,3.9759216E0,1.8753769E1,7.834586E0,1.2455709E2,1.8552673E1,1.169524E0,3.284233E0,0E0,0E0,0E0,3.9030151E0,1.625904E1,2.9498909E0,1.5428543E-1,2.12987E0,6.553699E1,4.5950134E1,1.2997864E1,5.971429E0,4.5714283E-1,3.3333334E-1,0E0,3.4607086E0,0E0,4.921079E0,6.911877E0,1.4403145E1,0E0,1.1111112E0,0E0,0E0,0E0,0E0,1.2620773E1,4.141683E1,4.196533E0,3.1768501E1,1.5142586E1,7.8796387E-1,0E0,0E0,0E0,0E0,0E0,0E0,2.6784134E0,0E0,9.230769E-1,5.336796E0,0E0,1.3333334E0,1.25E0,5.596451E0,0E0,0E0,4.518799E0,4.5714283E-1,2.089804E1,3.506092E1,6.399536E-1,0E0,1.5213322E1,8.842781E0,5.742943E0,2.2971015E0,0E0,0E0,0E0,1.8842697E0,0E0,0E0,0E0,2.0000076E-1,0E0,0E0,1.0833334E0,2.912088E0,2.2222222E-1,2.0743103E0,7.0526123E-1,2.4810925E0,0E0,0E0,0E0,7.82312E0,3.8742943E0,1.4391686E1,0E0,0E0,2.9914532E0,3.7261772E0,2.6545525E-1,1.5294118E0,3.2766495E0,1.4285715E-1,0E0,3.5362318E0,5.2014923E-1,0E0,0E0,0E0,0E0,0E0,0E0,0E0,0E0,0E0,6.1158476E0,4.6846008E-1,1.9584656E-2,1.4285715E-1,0E0,3.25E0,5.1948056E-2,4.3928528E-1,0E0,2.056347E0,5.334978E0,1.1814438E1,0E0,0E0,2.8244057E0,0E0,0E0,3.6888885E-1,0E0,0E0,6.192932E-1,0E0,0E0,0E0,0E0,0E0,0E0,0E0,0E0,0E0,0E0,0E0,0E0,0E0,0E0,0E0,0E0,0E0,0E0,0E0,0E0,0E0,0E0,0E0,0E0,0E0,0E0,0E0,0E0,0E0,0E0,0E0,0E0,0E0],"parents":[2147483647,0,0,1,1,2,2,4,4,5,5,6,6,7,7,8,8,9,9,10,10,12,12,13,13,14,14,15,15,16,16,17,17,18,18,22,22,23,23,24,24,25,25,26,26,27,27,28,28,29,29,30,30,31,31,32,32,34,34,36,36,37,37,38,38,40,40,45,45,46,46,47,47,48,48,49,49,50,50,57,57,59,59,60,60,62,62,63,63,64,64,67,67,68,68,69,69,70,70,71,71,73,73,74,74,75,75,76,76,80,80,84,84,87,87,88,88,89,89,90,90,91,91,92,92,96,96,97,97,98,98,101,101,102,102,103,103,104,104,105,105,106,106,108,108,109,109,119,119,120,120,121,121,122,122,124,124,125,125,126,126,128,128,129,129,130,130,133,133,136,136,139,139],"right_children":[2,4,6,-1,8,10,12,14,16,18,20,-1,22,24,26,28,30,32,34,-1,-1,-1,36,38,40,42,44,46,48,50,52,54,56,-1,58,-1,60,62,64,-1,66,-1,-1,-1,-1,68,70,72,74,76,78,-1,-1,-1,-1,-1,-1,80,-1,82,84,-1,86,88,90,-1,-1,92,94,96,98,100,-1,102,104,106,108,-1,-1,-1,110,-1,-1,-1,112,-1,-1,114,116,118,120,122,124,-1,-1,-1,126,128,130,-1,-1,132,134,136,138,140,142,-1,144,146,-1,-1,-1,-1,-1,-1,-1,-1,-1,148,150,152,154,-1,156,158,160,-1,162,164,166,-1,-1,168,-1,-1,170,-1,-1,172,-1,-1,-1,-1,-1,-1,-1,-1,-1,-1,-1,-1,-1,-1,-1,-1,-1,-1,-1,-1,-1,-1,-1,-1,-1,-1,-1,-1,-1,-1,-1,-1,-1],"split_conditions":[9.2930335E-1,8.889634E-2,2.83537E-1,5.710281E-2,4.3732247E-1,8.8078684E-1,2.746747E-1,5.999789E-1,7.4174184E-1,4.119327E-1,9.185664E-1,-3.4154173E-2,3.670286E-2,8.0452275E-1,3.827957E-1,2.2802326E-1,5.516957E-1,3.7634408E-1,2.0252644E-1,-1.6619463E-2,-5.4062367E-3,-1.0564411E-2,8.845415E-1,2.2916381E-1,3.72043E-1,6.912372E-2,3.940019E-1,3.5268816E-1,9.680379E-2,1.0139378E-1,3.3333334E-1,4.3066558E-1,6.015637E-1,-1.6811908E-3,7.917548E-1,4.2658146E-2,3.059179E-1,4.2605522E-1,3.7832874E-1,-2.3097193E-2,1.585005E-1,-5.8078676E-2,-1.7108275E-2,-3.038444E-2,4.5475654E-2,5.5325985E-1,1.0139378E-1,4.7096774E-1,4.172043E-1,3.6344087E-1,4.6021506E-1,-1.1923378E-1,3.491652E-2,-4.213506E-3,-5.428627E-3,1.2140498E-2,-4.582775E-3,3.9715335E-1,-3.8655996E-4,2.975422E-1,3.8416377E-1,-2.547544E-2,2.1653165E-1,9.206301E-2,4.609874E-1,2.7714217E-2,-5.4389476E-3,3.3978495E-1,2.062337E-1,2.607109E-1,3.827957E-1,6.9651055E-1,8.46979E-3,3.6356822E-1,6.257001E-1,3.0509406E-1,2.607109E-1,-6.90644E-2,-8.8565595E-2,6.155719E-3,3.3333334E-1,5.3598494E-3,-4.4809342E-3,-7.653713E-3,3.548387E-1,2.2222716E-2,-8.586645E-5,2.744748E-1,1.08885154E-1,4.1970804E-1,2.5E-1,3.241796E-1,2.3245145E-2,2.9814437E-3,1.4060712E-2,-3.6674112E-2,4.2929292E-1,2.631737E-2,3.8527453E-1,-6.216466E-2,-2.6836146E-2,4.6786043E-1,5.784704E-1,3.3333334E-1,3.5307622E-1,4.1145667E-1,2.746747E-1,-4.6078797E-2,2.4564053E-1,2.0215054E-1,4.4268616E-2,1.2972588E-2,2.1540755E-2,-3.636527E-3,1.6398823E-2,-1.38479415E-2,5.281955E-3,-6.107217E-3,3.9037527E-3,5.1104313E-1,3.9511266E-1,7.4683243E-1,3.1529674E-1,1.818938E-2,4.0050778E-1,3.979689E-1,4.855925E-1,6.004554E-3,3.8064516E-1,4.7654623E-1,1.1401163E-1,-4.4689156E-2,6.737938E-2,5.633619E-1,-3.7685037E-4,2.0709515E-3,1.5002294E-1,-2.145264E-2,1.8198311E-2,2.8422353E-1,2.4812669E-3,-1.7163754E-4,2.06603E-2,-5.0793174E-3,2.1295255E-2,5.906064E-2,3.704517E-2,-1.3792574E-3,5.128866E-2,8.56247E-3,3.3708226E-2,-2.4237627E-2,-3.530091E-2,6.8231225E-3,-3.6708694E-2,-9.362972E-3,1.0525376E-3,-4.9034418E-3,5.482033E-3,1.8721929E-2,6.6879513E-3,-1.4908451E-2,-1.3188821E-2,-9.870762E-3,5.066526E-3,6.4844997E-3,9.930969E-4,-3.2241266E-2,1.2440741E-3,6.067312E-3,1.7698017E-1,-1.6929189E-2,-5.8178664E-3],"split_indices":[15,11,3,0,6,5,0,17,6,0,5,0,1,7,4,11,3,4,3,0,0,0,8,3,4,1,0,4,1,11,2,5,6,0,8,0,3,0,2,0,11,0,0,0,0,2,11,4,4,4,4,0,0,0,0,0,0,2,0,3,0,0,3,1,7,0,0,4,3,0,4,2,0,8,8,3,0,0,0,0,12,0,0,0,4,0,0,3,1,0,22,3,1,0,0,0,2,9,0,0,0,2,3,2,2,0,0,0,3,4,0,0,0,0,0,0,0,0,0,10,0,7,0,0,0,0,10,0,4,10,11,0,0,10,0,0,1,0,0,3,0,0,0,0,0,0,0,0,0,0,0,0,0,0,0,0,0,0,0,0,0,0,0,0,0,0,0,0,0,0,0,0,0],"split_type":[0,0,0,0,0,0,0,0,0,0,0,0,0,0,0,0,0,0,0,0,0,0,0,0,0,0,0,0,0,0,0,0,0,0,0,0,0,0,0,0,0,0,0,0,0,0,0,0,0,0,0,0,0,0,0,0,0,0,0,0,0,0,0,0,0,0,0,0,0,0,0,0,0,0,0,0,0,0,0,0,0,0,0,0,0,0,0,0,0,0,0,0,0,0,0,0,0,0,0,0,0,0,0,0,0,0,0,0,0,0,0,0,0,0,0,0,0,0,0,0,0,0,0,0,0,0,0,0,0,0,0,0,0,0,0,0,0,0,0,0,0,0,0,0,0,0,0,0,0,0,0,0,0,0,0,0,0,0,0,0,0,0,0,0,0,0,0,0,0,0,0,0,0],"sum_hessian":[3.3E3,2.559E3,7.41E2,2.74E2,2.285E3,1.61E2,5.8E2,3.49E2,1.936E3,1.46E2,1.5E1,4E0,5.76E2,3.15E2,3.4E1,1.2E3,7.36E2,2.1E1,1.25E2,1E1,5E0,3E0,5.73E2,2.92E2,2.3E1,2.4E1,1E1,6.82E2,5.18E2,7.2E2,1.6E1,1E1,1.1E1,3E0,1.22E2,5.35E2,3.8E1,2.5E1,2.67E2,1.3E1,1E1,2.1E1,3E0,3E0,7E0,1.62E2,5.2E2,3.61E2,1.57E2,1.62E2,5.58E2,6E0,1E1,4E0,6E0,6E0,5E0,1.19E2,3E0,9E0,2.9E1,1.4E1,1.1E1,2.4E1,2.43E2,5E0,5E0,1.52E2,1E1,1.49E2,3.71E2,3.58E2,3E0,9.3E1,6.4E1,1.39E2,2.3E1,5.55E2,3E0,4E0,1.15E2,4E0,5E0,3E0,2.6E1,8E0,3E0,1.2E1,1.2E1,1E1,2.33E2,1.05E2,4.7E1,4E0,6E0,1E1,1.39E2,6.9E1,3.02E2,3.55E2,3E0,1.4E1,7.9E1,5.1E1,1.3E1,1.33E2,6E0,4E0,1.9E1,1.1E2,5E0,3E0,2.3E1,4E0,8E0,9E0,3E0,5E0,5E0,5.7E1,1.76E2,9.9E1,6E0,3E0,4.4E1,7E0,1.32E2,5E0,6.4E1,4.5E1,2.57E2,5E0,9E0,7.3E1,6E0,5E0,4.6E1,8E0,5E0,1.27E2,6E0,3E0,3E0,5E0,1.4E1,3E0,1.07E2,1.1E1,4.6E1,2.5E1,1.51E2,8.8E1,1.1E1,3E0,3E0,3.6E1,8E0,3E0,4E0,1.11E2,2.1E1,5.3E1,1.1E1,3.9E1,6E0,7.8E1,1.79E2,6.9E1,4E0,4.1E1,5E0,1.1E2,1.7E1],"tree_param":{"num_deleted":"0","num_feature":"23","num_nodes":"173","size_leaf_vector":"1"}},{"base_weights":[-0E0,-2.0877399E-1,7.315068E-1,9.7794116E-2,-3.5054705E-1,8.384615E-1,4.4859812E-1,4.1547278E-1,-4.886598E-1,4.761905E-2,8.60835E-1,-1.2658228E-2,7.122302E-1,5.2903223E-1,-3.9534885E-1,-2.0184544E-1,-7.158774E-1,-1.6666667E-1,3.846154E-2,-0E0,8.6773545E-1,1.2727273E-1,-3.5714287E-1,8.3333336E-2,7.9831934E-1,-2E-1,6.056338E-1,-6.969697E-1,2.857143E-1,3.7931036E-2,-6.838488E-1,-7.7823406E-1,-1.0280374E-1,-3.3333335E-2,-0E0,2E-1,8.84058E-2,-1.1111111E-1,2.682927E-1,-0E0,-5E-1,-2.727273E-2,4.117647E-1,-0E0,8.245614E-1,-3.3333334E-1,1.4285715E-2,-4.0000003E-2,6.4028776E-1,-0E0,-8.0000006E-2,-0E0,4.5454547E-2,-4.7368422E-1,1.9290465E-1,-7.0714283E-1,-0E0,-8.5335016E-1,-4.331551E-1,-4.1333333E-1,5E-1,-1.4285715E-2,4.117647E-1,-0E0,-3.3333335E-2,-0E0,3.5135135E-1,-1.1111111E-2,1.4285715E-2,-6.4705886E-2,-0E0,5.714286E-2,-0E0,8.378378E-2,-0E0,-0E0,-5E-1,1.1111111E-1,6.99187E-1,-5.726496E-1,1E-1,-3.7593983E-2,5.2380955E-1,-0E0,-7.236364E-1,-3.3333335E-2,2.0000001E-2,-8.801598E-1,-2.7272728E-1,-7.099237E-1,1.6666667E-1,-6.923077E-1,-5E-2,-0E0,6.666667E-2,-0E0,5E-2,-0E0,1.4285715E-2,-0E0,5E-1,-1.4285715E-2,2.5E-2,-6.25E-2,-0E0,-4.5454547E-2,3.7931034E-1,2.5925925E-1,7.9591835E-1,-6.481481E-1,7.692308E-2,4.2857144E-2,-2.0000001E-2,-6E-1,8.181818E-2,-4.5454547E-2,5.824176E-1,-7.352941E-1,-0E0,-8.8978493E-1,-0E0,-5E-1,-0E0,-7.34375E-1,-0E0,4.054054E-1,-1.1111111E-1,-7.777778E-2,-0E0,-5.2380955E-1,3.043478E-1,-0E0,-1.4285715E-2,-1.4285715E-2,-0E0,1.1111111E-2,-2.5E-2,5.833333E-1,-0E0,6.363636E-2,-9.090909E-2,-2.8571429E-2,7.3913045E-2,3.3333334E-1,8.86076E-1,-7.083333E-2,-0E0,2.0000001E-2,-0E0,-0E0,-7.1428573E-1,3.3333334E-1,-1.923077E-1,-0E0,6.72956E-1,-2.5925925E-1,-7.6706827E-1,-6.6863906E-1,-9.447323E-1,-0E0,1.4285715E-2,-0E0,-5.833333E-1,-1.4285715E-1,4.0000003E-2,-7.5609756E-1,-0E0,-0E0,5.151515E-1,1.6666667E-1,-3.6842105E-1,-0E0,-6.666667E-2,4.7368422E-1,-0E0,6.842106E-2,-0E0,-0E0,-2.5E-2,3.3333335E-2,-2.5925925E-2,6.666667E-2,-2.5E-2,8.9677416E-2,-0E0,-4.5454547E-2,3.3333335E-2,-1.4285715E-2,1.1111111E-2,-0E0,-7.435898E-2,-4.0000003E-2,4.035088E-2,-4.3243244E-2,2.9411767E-2,-4.6666667E-2,3.75E-2,6.794872E-2,-0E0,-6.0000002E-2,2.727273E-2,-0E0,-7.786886E-2,-8.604651E-2,-0E0,-0E0,-9.479167E-2,-6.842106E-2,-0E0,-0E0,-2.0000001E-2,-0E0,-7.777778E-2,6.0000002E-2,-0E0,-0E0,3.3333335E-2,-5E-2,-0E0,6.0000002E-2,-0E0],"categories":[],"categories_nodes":[],"categories_segments":[],"categories_sizes":[],"default_left":[0,0,0,0,0,0,0,0,0,0,0,0,0,0,0,0,0,0,0,0,0,0,0,0,0,0,0,0,0,0,0,0,0,0,0,0,0,0,0,0,0,0,0,0,0,0,0,0,0,0,0,0,0,0,0,0,0,0,0,0,0,0,0,0,0,0,0,0,0,0,0,0,0,0,0,0,0,0,0,0,0,0,0,0,0,0,0,0,0,0,0,0,0,0,0,0,0,0,0,0,0,0,0,0,0,0,0,0,0,0,0,0,0,0,0,0,0,0,0,0,0,0,0,0,0,0,0,0,0,0,0,0,0,0,0,0,0,0,0,0,0,0,0,0,0,0,0,0,0,0,0,0,0,0,0,0,0,0,0,0,0,0,0,0,0,0,0,0,0,0,0,0,0,0,0,0,0,0,0,0,0,0,0,0,0,0,0,0,0,0,0,0,0,0,0,0,0,0,0,0,0,0,0,0,0,0,0,0,0,0,0,0,0,0,0,0,0,0,0,0,0],"id":2,"left_children":[1,3,5,-1,7,9,11,13,15,17,19,21,23,25,27,29,31,33,-1,-1,35,37,39,41,43,45,47,49,51,53,55,57,59,-1,-1,61,-1,63,65,67,69,-1,71,-1,73,75,-1,-1,77,-1,-1,-1,-1,79,81,83,85,87,89,91,93,-1,95,97,-1,-1,99,-1,-1,-1,-1,-1,-1,-1,-1,101,103,105,107,109,111,113,115,-1,117,-1,-1,119,121,123,125,127,129,131,-1,-1,-1,133,-1,135,137,-1,-1,-1,-1,-1,139,141,143,145,147,-1,-1,149,151,-1,153,155,-1,157,159,161,163,165,-1,167,169,-1,-1,171,173,-1,-1,-1,-1,-1,-1,175,-1,-1,177,179,-1,181,183,-1,185,-1,-1,187,189,191,193,195,197,199,201,203,205,-1,-1,-1,207,209,-1,211,-1,-1,213,215,217,-1,-1,219,-1,-1,-1,-1,-1,-1,-1,-1,-1,-1,-1,-1,-1,-1,-1,-1,-1,-1,-1,-1,-1,-1,-1,-1,-1,-1,-1,-1,-1,-1,-1,-1,-1,-1,-1,-1,-1,-1,-1,-1,-1,-1,-1,-1,-1,-1,-1],"loss_changes":[5.0190118E2,4.2964398E2,1.801001E1,0E0,2.4270486E2,7.2199097E0,2.7458023E1,3.323867E1,1.24014984E2,2.208791E0,2.987915E0,4.4496794E0,5.496216E0,1.860772E1,1.045223E1,1.0159744E2,3.909076E1,6.666666E-1,0E0,0E0,2.5632935E0,2.2825327E0,1.4285715E0,3.5338678E0,1.6684341E0,1.942857E0,1.1402206E1,3.1696968E0,1.12987E0,4.5790325E1,3.9283752E0,2.1195496E1,2.0682493E1,0E0,0E0,2.22521E0,0E0,7.777778E-1,1.6163478E0,2.5396827E-1,2.1176472E0,0E0,1.689076E0,0E0,4.1014862E-1,2E0,0E0,0E0,6.733383E0,0E0,0E0,0E0,0E0,8.725418E0,3.545038E1,3.9893494E0,1.4E0,9.046997E0,3.2604008E1,5.9789753E0,4.333333E0,0E0,1.1764717E-1,1.4285715E-1,0E0,0E0,2.4324327E0,0E0,0E0,0E0,0E0,0E0,0E0,0E0,0E0,6.4285713E-1,1.25E0,6.000696E0,7.5327377E0,7.079769E0,2.7714286E0,1.9096786E1,1.2151844E1,0E0,3.055191E0,0E0,0E0,7.252014E0,3.7272727E0,3.0083466E0,4.747748E0,3.0854702E0,7.79234E0,1.4285715E-1,0E0,0E0,0E0,1.4285715E-1,0E0,6.111111E-1,1.166667E0,0E0,0E0,0E0,0E0,0E0,4.827586E0,8.964159E0,4.5540314E0,2.796299E0,3.2307693E-1,0E0,0E0,3.4285717E0,1.570676E1,0E0,1.0270023E1,1.266037E0,0E0,3.2871094E0,1.4285715E-1,1.166667E0,1.8857143E0,1.28582E0,0E0,2.676495E0,2.5789473E0,0E0,0E0,2.2380953E0,2.132723E0,0E0,0E0,0E0,0E0,0E0,0E0,7.2807026E-1,0E0,0E0,4.090909E-1,3.1195767E0,0E0,9.666666E0,6.0097504E-1,0E0,3.2727273E0,0E0,0E0,2.5396827E-1,1.3553047E-1,6.8280706E0,1.2932861E1,5.5166664E0,1.9355774E-2,6.203367E0,1.4407806E0,1.9955414E1,7.939453E-1,0E0,0E0,0E0,7.2807026E-1,1.1428571E-1,0E0,4.6070862E-1,0E0,0E0,2.0424242E0,6.666666E-1,1.4210527E0,0E0,0E0,1.1368423E0,0E0,0E0,0E0,0E0,0E0,0E0,0E0,0E0,0E0,0E0,0E0,0E0,0E0,0E0,0E0,0E0,0E0,0E0,0E0,0E0,0E0,0E0,0E0,0E0,0E0,0E0,0E0,0E0,0E0,0E0,0E0,0E0,0E0,0E0,0E0,0E0,0E0,0E0,0E0,0E0,0E0,0E0,0E0,0E0,0E0,0E0,0E0],"parents":[2147483647,0,0,1,1,2,2,4,4,5,5,6,6,7,7,8,8,9,9,10,10,11,11,12,12,13,13,14,14,15,15,16,16,17,17,20,20,21,21,22,22,23,23,24,24,25,25,26,26,27,27,28,28,29,29,30,30,31,31,32,32,35,35,37,37,38,38,39,39,40,40,42,42,44,44,45,45,48,48,53,53,54,54,55,55,56,56,57,57,58,58,59,59,60,60,62,62,63,63,66,66,75,75,76,76,77,77,78,78,79,79,80,80,81,81,82,82,84,84,87,87,88,88,89,89,90,90,91,91,92,92,93,93,97,97,99,99,100,100,106,106,107,107,108,108,109,109,110,110,113,113,114,114,116,116,117,117,119,119,120,120,121,121,122,122,123,123,125,125,126,126,129,129,130,130,137,137,140,140,141,141,143,143,144,144,146,146,149,149,150,150,151,151,152,152,153,153,154,154,155,155,156,156,157,157,158,158,162,162,163,163,165,165,168,168,169,169,170,170,173,173],"right_children":[2,4,6,-1,8,10,12,14,16,18,20,22,24,26,28,30,32,34,-1,-1,36,38,40,42,44,46,48,50,52,54,56,58,60,-1,-1,62,-1,64,66,68,70,-1,72,-1,74,76,-1,-1,78,-1,-1,-1,-1,80,82,84,86,88,90,92,94,-1,96,98,-1,-1,100,-1,-1,-1,-1,-1,-1,-1,-1,102,104,106,108,110,112,114,116,-1,118,-1,-1,120,122,124,126,128,130,132,-1,-1,-1,134,-1,136,138,-1,-1,-1,-1,-1,140,142,144,146,148,-1,-1,150,152,-1,154,156,-1,158,160,162,164,166,-1,168,170,-1,-1,172,174,-1,-1,-1,-1,-1,-1,176,-1,-1,178,180,-1,182,184,-1,186,-1,-1,188,190,192,194,196,198,200,202,204,206,-1,-1,-1,208,210,-1,212,-1,-1,214,216,218,-1,-1,220,-1,-1,-1,-1,-1,-1,-1,-1,-1,-1,-1,-1,-1,-1,-1,-1,-1,-1,-1,-1,-1,-1,-1,-1,-1,-1,-1,-1,-1,-1,-1,-1,-1,-1,-1,-1,-1,-1,-1,-1,-1,-1,-1,-1,-1,-1,-1],"split_conditions":[9.2930335E-1,8.889634E-2,7.79914E-1,5.1392533E-2,4.3732247E-1,3.9715335E-1,4.3541732E-1,5.999789E-1,1.585005E-1,4.708165E-1,2.0430107E-1,7.6158434E-2,4.5959595E-1,3.7832874E-1,3.827957E-1,7.8577095E-1,4.3010753E-1,3.8064516E-1,1.7900666E-2,2.5028536E-2,2.8182894E-1,3.8971755E-1,3.7849462E-1,4.6715328E-1,6.866493E-2,1.08885154E-1,1.8399012E-1,2.4116744E-1,5.612479E-2,3.483871E-1,5.918274E-1,5.8878577E-1,5.031736E-1,-3.0841142E-2,3.3674587E-2,6.254779E-2,4.14846E-2,4.0860215E-1,2.8298777E-1,9.0633255E-1,3.892473E-1,-1.3759762E-2,8.932902E-1,2.6996983E-2,9.844602E-1,6.453586E-2,4.753757E-3,-1.7512714E-2,3.973342E-1,2.8921606E-3,-4.960599E-2,-2.2619236E-2,1.661473E-2,5.4820937E-1,4.1919193E-1,4.190243E-2,2.8578228E-1,5.4537964E-1,3.5479885E-1,4.6556473E-1,3.38843E-1,-1.3778496E-2,7.202936E-2,5.1606977E-1,-1.2107235E-2,-5.5937083E-3,7.004129E-2,-2.1555366E-3,2.2021772E-3,-3.8753392E-3,1.4223027E-2,3.4081306E-2,-8.974654E-3,3.1532593E-2,1.2166065E-2,4E-1,7.6589215E-1,2.5305507E-1,2.5E-1,3.0784017E-1,7.3840964E-1,3.8064516E-1,1.931133E-1,9.521836E-3,9.0380795E-2,-3.9960004E-2,3.4377992E-3,6.7914945E-1,3.576676E-1,6.51056E-1,5.922216E-1,5.256076E-1,3.9225644E-1,7.7709514E-1,2.9550422E-2,8.888817E-3,2.3402242E-2,3.2266924E-1,5.2363635E-3,8.297494E-1,9.344112E-1,-2.514692E-2,7.4372888E-3,-9.642834E-3,-1.4200309E-2,-1.9352442E-2,5.9642147E-2,1.01850435E-1,3.5698923E-1,6.393968E-1,2.8750574E-2,1.0133783E-2,-1.843357E-2,5.107075E-1,7.186203E-1,-2.7655095E-2,3.548387E-1,8.248155E-1,3.8956942E-3,2.2802326E-1,3.6455464E-1,5.8071095E-1,7.170035E-1,9.506086E-1,1.9270808E-2,3.766457E-1,2.2802326E-1,-4.1606896E-2,1.8638552E-3,5.175424E-1,7.140379E-1,2.1369232E-2,-1.1460568E-1,-1.2417078E-2,4.7127544E-3,2.7261147E-2,-6.9240513E-3,4.035227E-1,1.4894307E-4,1.2769532E-2,2.3186797E-1,3.006763E-1,8.7949894E-2,2.3186797E-1,4.0996352E-1,-1.9114522E-2,2.1103941E-1,5.7097524E-3,-7.85209E-3,3.930211E-1,3.8527453E-1,3.8797063E-1,3.1855005E-1,6.468337E-1,4.912726E-1,2.947961E-1,3.939394E-1,3.9569893E-1,5.508651E-2,-1.7743964E-2,1.633734E-2,-3.358081E-3,5.92669E-1,6.354082E-1,2.6256768E-2,5.905224E-1,-8.619184E-3,-2.455846E-2,7.794555E-1,6.560636E-2,4.9571565E-1,2.445352E-3,-4.8997108E-2,5.050505E-1,-1.3451025E-2,5.9377044E-3,1.585865E-3,2.407831E-3,-1.8365094E-2,2.8378768E-2,-1.0358447E-2,1.621021E-2,-1.9952E-3,2.8740833E-2,7.928914E-3,-1.2503254E-2,5.526E-3,-7.506317E-3,4.859513E-3,-2.100088E-2,-1.1731947E-2,-1.5198901E-2,6.7854165E-3,-6.0561686E-3,2.3289532E-3,-8.306432E-3,5.6453915E-3,1.5697105E-2,7.286075E-2,-1.6807E-2,6.892425E-3,-1.8732846E-2,-1.644634E-2,-2.9868746E-2,-7.2992145E-4,-6.01343E-2,-8.504337E-2,-2.5965173E-2,-4.2394996E-3,4.4408324E-3,-9.983159E-3,-4.80586E-3,-4.0406823E-2,2.8053332E-2,-2.0375704E-2,-1.715808E-2,6.305373E-3,-1.9460076E-2,6.0877204E-3,9.007818E-3,-1.0768297E-2],"split_indices":[15,11,6,0,6,2,0,17,11,5,4,1,2,2,4,6,4,4,0,0,7,0,4,0,1,1,3,6,1,4,2,7,0,0,0,1,0,4,3,5,4,0,5,0,6,1,0,0,0,0,0,0,0,2,2,1,0,3,3,2,2,0,1,2,0,0,1,0,0,0,0,0,0,0,0,4,7,3,22,3,6,4,0,0,1,0,0,0,2,2,6,3,0,5,0,0,0,3,0,5,5,0,0,0,0,0,1,1,4,10,1,0,0,6,5,0,4,6,0,11,2,8,5,7,0,10,11,0,0,5,6,0,0,0,0,0,0,0,0,0,8,6,0,8,8,0,3,0,0,2,0,2,3,5,0,3,2,4,9,0,0,0,0,5,0,7,0,0,7,1,0,0,0,2,0,0,0,0,0,0,0,0,0,0,0,0,0,0,0,0,0,0,0,0,0,0,0,0,0,0,0,0,0,0,0,0,0,0,0,0,0,0,0,0,0,0,0,0,0,0,0],"split_type":[0,0,0,0,0,0,0,0,0,0,0,0,0,0,0,0,0,0,0,0,0,0,0,0,0,0,0,0,0,0,0,0,0,0,0,0,0,0,0,0,0,0,0,0,0,0,0,0,0,0,0,0,0,0,0,0,0,0,0,0,0,0,0,0,0,0,0,0,0,0,0,0,0,0,0,0,0,0,0,0,0,0,0,0,0,0,0,0,0,0,0,0,0,0,0,0,0,0,0,0,0,0,0,0,0,0,0,0,0,0,0,0,0,0,0,0,0,0,0,0,0,0,0,0,0,0,0,0,0,0,0,0,0,0,0,0,0,0,0,0,0,0,0,0,0,0,0,0,0,0,0,0,0,0,0,0,0,0,0,0,0,0,0,0,0,0,0,0,0,0,0,0,0,0,0,0,0,0,0,0,0,0,0,0,0,0,0,0,0,0,0,0,0,0,0,0,0,0,0,0,0,0,0,0,0,0,0,0,0,0,0,0,0,0,0,0,0,0,0,0,0],"sum_hessian":[3.275E3,2.549E3,7.26E2,2.68E2,2.281E3,5.16E2,2.1E2,3.45E2,1.936E3,1.7E1,4.99E2,7.5E1,1.35E2,3.06E2,3.9E1,8.63E2,1.073E3,8E0,9E0,4E0,4.95E2,5.1E1,2.4E1,2E1,1.15E2,2.6E1,2.8E2,2.9E1,1E1,5.76E2,2.87E2,9.7E2,1.03E2,5E0,3E0,1.6E1,4.79E2,1.4E1,3.7E1,8E0,1.6E1,7E0,1.3E1,5E0,1.1E2,2.3E1,3E0,6E0,2.74E2,3E0,2.6E1,3E0,7E0,1.29E2,4.47E2,2.76E2,1.1E1,7.87E2,1.83E2,7.1E1,3.2E1,3E0,1.3E1,9E0,5E0,4E0,3.3E1,5E0,3E0,1.3E1,3E0,1E1,3E0,1.07E2,3E0,7E0,1.6E1,3.2E1,2.42E2,1.13E2,1.6E1,2.62E2,1.85E2,5E0,2.71E2,5E0,6E0,7.47E2,4E1,1.27E2,5.6E1,3.5E1,3.6E1,6E0,2.6E1,5E0,8E0,6E0,3E0,9E0,2.4E1,3E0,4E0,1.2E1,4E0,7E0,2.5E1,5E1,1.92E2,1.04E2,9E0,1E1,6E0,4.6E1,2.16E2,7E0,1.78E2,2.68E2,3E0,7.4E2,7E0,2.4E1,1.6E1,1.24E2,3E0,3.3E1,2.3E1,3.2E1,3E0,1.7E1,1.9E1,3E0,3E0,3E0,3E0,5E0,4E0,2E1,4E0,1.8E1,7E0,3.1E1,1.9E1,3.8E1,1.54E2,9.2E1,1.2E1,6E0,3E0,8E0,3.8E1,1.16E2,1E2,2.3E1,1.55E2,2.3E1,2.45E2,1.65E2,5.75E2,4E0,3E0,4E0,2E1,1E1,6E0,1.19E2,5E0,4E0,2.9E1,8E0,1.5E1,3E0,1.4E1,1.5E1,4E0,1.5E1,5E0,3E0,4E0,8E0,2.3E1,2.6E1,1.2E1,1.51E2,3E0,7E0,5E0,3E0,5E0,3E0,3.5E1,6E0,1.1E2,7E1,3E1,1.1E1,1.2E1,1.52E2,3E0,1.6E1,7E0,5E0,2.4E2,1.25E2,4E1,3E0,5.72E2,1.5E1,5E0,4E0,6E0,6E0,1.13E2,2.6E1,3E0,3E0,5E0,1.2E1,3E0,1.1E1,4E0],"tree_param":{"num_deleted":"0","num_feature":"23","num_nodes":"221","size_leaf_vector":"1"}},{"base_weights":[-1.4015844E-2,-2.1195439E-1,6.6083443E-1,9.76923E-2,-3.4761697E-1,3.5519126E-1,7.5177306E-1,8.1743866E-2,-5.504175E-1,-1.1627907E-1,7.6237625E-1,-3.3333335E-2,7.6744187E-1,1.9325154E-1,-7.4418604E-1,-2.8882438E-1,-7.522936E-1,-6.4285713E-1,9.677419E-2,-0E0,8.876405E-1,6.594427E-1,8.9166665E-1,5.911111E-1,-1.1600928E-2,-8.292683E-1,2.5E-2,-5.21327E-2,-6.457565E-1,-7.975904E-1,8.695652E-2,-0E0,-7.5E-2,-1.4285715E-1,4.1935483E-1,1.4285715E-2,-2.3076923E-1,-0E0,9.0697676E-2,5.225225E-1,9.047619E-2,9.227468E-1,-0E0,6.7464113E-1,-3E-1,-1.572327E-1,3.6752138E-1,-0E0,-8.947369E-2,-3.6898395E-1,1.8828452E-1,-6.6917294E-1,1.1111111E-2,-6.4830506E-1,-9.7790055E-2,-3.3333334E-1,6.5217394E-1,-3.6842105E-1,-0E0,-0E0,5.7894737E-2,-4.0000003E-2,-0E0,8.110236E-1,1.1111111E-1,-0E0,9.38326E-1,-2.5E-2,1.4285715E-2,-0E0,7.368421E-1,-4.117647E-1,-0E0,1.4285715E-1,-4.6583852E-1,-9.52381E-2,6.2025315E-1,-1.4285715E-2,1.4285715E-2,-8.0487806E-1,-2.2666667E-1,-1.9354838E-1,3.2596686E-1,-6.929134E-1,-0E0,-8.2724255E-1,-3.1428573E-1,9.09091E-3,-6.0000002E-2,-0E0,7E-2,-4.6666667E-2,-0E0,3.846154E-2,-2.727273E-2,2.727273E-2,-1.1111111E-2,8.608696E-1,1.25E-1,-1.7857143E-1,4.893617E-1,-0E0,1.4285715E-2,-0E0,9.464286E-1,-4.0000003E-2,2.9411766E-1,-0E0,8.034682E-1,-0E0,-5.3846158E-2,-4.909091E-1,4.7272727E-1,-6.422764E-1,4.761905E-2,-2.777778E-1,4.0000003E-2,-0E0,6.619718E-1,-8.421053E-2,-0E0,-4.5132744E-1,3.6585367E-1,1.8518518E-1,-4.871795E-1,-5.714286E-2,4.0350878E-1,-7.051793E-1,-0E0,-4.0000003E-2,2.0000001E-2,-8.498294E-1,-0E0,-6.666667E-1,-1.6030534E-1,-0E0,8.75E-2,-1.4285715E-2,3.846154E-2,6.666667E-2,-4.6666667E-1,-0E0,6.097561E-2,9.5475115E-2,-0E0,-0E0,4.2857144E-2,2.727273E-2,-1.4285715E-1,3.3333334E-1,8.5333335E-1,-5.9183675E-1,-0E0,-1.764706E-1,5.8762884E-1,-7.0434785E-1,-0E0,-1.764706E-1,2.413793E-1,-0E0,-5E-1,2.5E-2,-0E0,-0E0,6.764706E-1,-5.555556E-1,-0E0,4.7368422E-1,-1.4285715E-2,-0E0,5E-2,-7.3913045E-2,-0E0,4.3712574E-1,-2.5E-2,-0E0,-7.096774E-1,-0E0,-8.6713284E-1,-7.2727275E-1,-0E0,-3.7142858E-1,4.6153847E-2,-2E-1,3.6842105E-1,-5.8333334E-2,-0E0,-1.4285715E-2,-0E0,-4.0000003E-2,-0E0,-1.6666668E-2,6.842106E-2,8.75E-2,-0E0,-0E0,-6.52174E-2,1.4285715E-2,-0E0,-3.846154E-2,-0E0,6.7058824E-2,-0E0,-0E0,-7.52381E-2,-0E0,1.1111111E-2,-4.0000003E-2,-0E0,-1.4285715E-2,3.846154E-2,2.727273E-2,-1.1111111E-2,-6.0000002E-2,-0E0,-0E0,7.096774E-2,-6.486487E-2,-0E0,1.1111111E-2,-2.3076924E-2,-0E0,5.294118E-2,-2.0000001E-2,2.5E-2,1.4285715E-2,-1.764706E-2,5.18797E-2,5.263158E-3,-4.4262297E-2,-7.696336E-2,-0E0,-1.4285715E-2,-8.901099E-2,-1.764706E-2,-7.560976E-2,-0E0,-5.636364E-2,1.5789473E-2,-3.0434782E-2,2.6086956E-2,-4.0000003E-2,-0E0,5.3846158E-2,-0E0,1.4285715E-2,-1.4285715E-2],"categories":[],"categories_nodes":[],"categories_segments":[],"categories_sizes":[],"default_left":[0,0,0,0,0,0,0,0,0,0,0,0,0,0,0,0,0,0,0,0,0,0,0,0,0,0,0,0,0,0,0,0,0,0,0,0,0,0,0,0,0,0,0,0,0,0,0,0,0,0,0,0,0,0,0,0,0,0,0,0,0,0,0,0,0,0,0,0,0,0,0,0,0,0,0,0,0,0,0,0,0,0,0,0,0,0,0,0,0,0,0,0,0,0,0,0,0,0,0,0,0,0,0,0,0,0,0,0,0,0,0,0,0,0,0,0,0,0,0,0,0,0,0,0,0,0,0,0,0,0,0,0,0,0,0,0,0,0,0,0,0,0,0,0,0,0,0,0,0,0,0,0,0,0,0,0,0,0,0,0,0,0,0,0,0,0,0,0,0,0,0,0,0,0,0,0,0,0,0,0,0,0,0,0,0,0,0,0,0,0,0,0,0,0,0,0,0,0,0,0,0,0,0,0,0,0,0,0,0,0,0,0,0,0,0,0,0,0,0,0,0,0,0,0,0,0,0,0,0,0,0,0,0,0,0,0,0,0,0,0,0,0,0,0,0,0,0],"id":3,"left_children":[1,3,5,-1,7,9,11,13,15,17,19,-1,21,23,25,27,29,31,33,35,37,39,41,43,45,47,-1,49,51,53,55,-1,-1,57,59,-1,61,-1,-1,63,-1,65,67,69,71,73,75,77,-1,79,81,83,-1,85,-1,87,89,91,93,95,-1,-1,-1,97,99,101,103,-1,-1,105,107,109,-1,111,113,115,117,-1,-1,119,121,123,125,127,129,131,133,-1,-1,-1,-1,-1,-1,-1,-1,-1,-1,135,137,139,141,-1,-1,-1,143,-1,145,147,149,-1,-1,151,153,155,157,159,-1,161,163,-1,-1,165,167,169,171,-1,173,175,-1,-1,-1,177,-1,179,181,-1,-1,-1,-1,183,185,187,-1,-1,-1,-1,-1,-1,189,191,193,195,197,199,201,203,205,207,209,211,213,-1,-1,-1,215,217,219,221,-1,223,-1,-1,225,227,-1,-1,229,231,233,235,-1,237,239,241,243,-1,245,-1,-1,-1,-1,-1,-1,-1,-1,-1,-1,-1,-1,-1,-1,-1,-1,-1,-1,-1,-1,-1,-1,-1,-1,-1,-1,-1,-1,-1,-1,-1,-1,-1,-1,-1,-1,-1,-1,-1,-1,-1,-1,-1,-1,-1,-1,-1,-1,-1,-1,-1,-1,-1,-1,-1,-1,-1,-1,-1,-1],"loss_changes":[4.3806842E2,4.1025055E2,1.7369476E1,0E0,2.002569E2,3.6778328E1,1.1480774E1,6.707297E1,7.927289E1,1.0989284E1,1.1420628E1,0E0,2.0454102E0,5.4326088E1,9.262337E0,5.6678246E1,3.4848083E1,1.9285717E0,5.5852537E0,8.3516484E-1,6.205902E-1,6.1036835E0,7.5738983E0,1.8306633E1,2.360705E1,4.4518623E0,0E0,3.2785774E1,6.216522E0,1.6553345E1,1.2434783E1,0E0,0E0,1.8646616E0,9.168081E-1,0E0,9.076923E-1,0E0,0E0,2.4145039E1,0E0,1.4728699E0,6.4285713E-1,8.033493E0,1.0823529E0,3.0361967E1,1.4969938E1,2.857143E-1,0E0,8.807751E0,1.3081821E1,2.8399734E0,0E0,2.4887741E1,0E0,4.290909E0,1.7391205E-2,6.8771935E-1,2.7412586E0,9.292929E-1,0E0,0E0,0E0,1.9406586E0,1.1818811E1,1.4285715E-1,7.7941895E-1,0E0,0E0,3.070588E0,8.524185E0,8.86878E-1,0E0,3.455065E1,1.5897186E1,3.9968252E0,7.2027206E-1,0E0,0E0,3.863926E-1,2.0798836E1,7.8597565E0,1.3181492E1,2.8639755E0,2E0,5.6241302E0,7.41403E0,0E0,0E0,0E0,0E0,0E0,0E0,0E0,0E0,0E0,0E0,5.239105E-1,1.815934E0,4.8809524E0,3.9885826E0,0E0,0E0,0E0,8.0963135E-1,0E0,1.1008403E0,1.1038961E0,5.445862E-1,0E0,0E0,3.90872E0,9.44244E0,6.312336E0,2.123829E0,3.2222223E0,0E0,5E-1,4.9705505E-3,0E0,0E0,4.7600803E0,3.1813684E0,2.074074E0,3.3088064E0,0E0,4.5680733E0,8.6494446E-2,0E0,0E0,0E0,3.4414368E0,0E0,1.939394E0,6.4291916E0,0E0,0E0,0E0,0E0,3.045614E0,1.6333337E0,1.4285715E-1,0E0,0E0,0E0,0E0,0E0,0E0,1.3142858E0,6.2280703E0,1.0233307E0,2.4019527E0,1.4285715E-1,1.3936651E0,4.7286835E0,2.3859215E0,1.1111111E-1,1.0705882E0,2.2993555E0,9.292929E-1,1.1999998E0,0E0,0E0,0E0,1.0816002E-1,3.357357E0,9.145299E-1,1.0030956E0,0E0,1.1E0,0E0,0E0,6.722689E-1,3.9920769E0,0E0,0E0,1.8371582E-1,1.4285715E-1,1.7771759E0,1.66296E-1,0E0,8.2892685E0,5.122408E0,1E0,1.1902835E0,0E0,2.857143E-1,0E0,0E0,0E0,0E0,0E0,0E0,0E0,0E0,0E0,0E0,0E0,0E0,0E0,0E0,0E0,0E0,0E0,0E0,0E0,0E0,0E0,0E0,0E0,0E0,0E0,0E0,0E0,0E0,0E0,0E0,0E0,0E0,0E0,0E0,0E0,0E0,0E0,0E0,0E0,0E0,0E0,0E0,0E0,0E0,0E0,0E0,0E0,0E0,0E0,0E0,0E0,0E0,0E0,0E0,0E0,0E0,0E0,0E0,0E0,0E0],"parents":[2147483647,0,0,1,1,2,2,4,4,5,5,6,6,7,7,8,8,9,9,10,10,12,12,13,13,14,14,15,15,16,16,17,17,18,18,19,19,20,20,21,21,22,22,23,23,24,24,25,25,27,27,28,28,29,29,30,30,33,33,34,34,36,36,39,39,41,41,42,42,43,43,44,44,45,45,46,46,47,47,49,49,50,50,51,51,53,53,55,55,56,56,57,57,58,58,59,59,63,63,64,64,65,65,66,66,69,69,70,70,71,71,73,73,74,74,75,75,76,76,79,79,80,80,81,81,82,82,83,83,84,84,85,85,86,86,97,97,98,98,99,99,100,100,104,104,106,106,107,107,108,108,111,111,112,112,113,113,114,114,115,115,117,117,118,118,121,121,122,122,123,123,124,124,126,126,127,127,131,131,133,133,134,134,139,139,140,140,141,141,148,148,149,149,150,150,151,151,152,152,153,153,154,154,155,155,156,156,157,157,158,158,159,159,160,160,164,164,165,165,166,166,167,167,169,169,172,172,173,173,176,176,177,177,178,178,179,179,181,181,182,182,183,183,184,184,186,186],"right_children":[2,4,6,-1,8,10,12,14,16,18,20,-1,22,24,26,28,30,32,34,36,38,40,42,44,46,48,-1,50,52,54,56,-1,-1,58,60,-1,62,-1,-1,64,-1,66,68,70,72,74,76,78,-1,80,82,84,-1,86,-1,88,90,92,94,96,-1,-1,-1,98,100,102,104,-1,-1,106,108,110,-1,112,114,116,118,-1,-1,120,122,124,126,128,130,132,134,-1,-1,-1,-1,-1,-1,-1,-1,-1,-1,136,138,140,142,-1,-1,-1,144,-1,146,148,150,-1,-1,152,154,156,158,160,-1,162,164,-1,-1,166,168,170,172,-1,174,176,-1,-1,-1,178,-1,180,182,-1,-1,-1,-1,184,186,188,-1,-1,-1,-1,-1,-1,190,192,194,196,198,200,202,204,206,208,210,212,214,-1,-1,-1,216,218,220,222,-1,224,-1,-1,226,228,-1,-1,230,232,234,236,-1,238,240,242,244,-1,246,-1,-1,-1,-1,-1,-1,-1,-1,-1,-1,-1,-1,-1,-1,-1,-1,-1,-1,-1,-1,-1,-1,-1,-1,-1,-1,-1,-1,-1,-1,-1,-1,-1,-1,-1,-1,-1,-1,-1,-1,-1,-1,-1,-1,-1,-1,-1,-1,-1,-1,-1,-1,-1,-1,-1,-1,-1,-1,-1,-1],"split_conditions":[9.2930335E-1,8.889634E-2,4.127261E-1,4.625328E-2,5.409363E-1,3.892473E-1,2.0252644E-1,5.999789E-1,1.585005E-1,2.9081422E-1,3.6305934E-1,-5.600357E-3,3.17001E-1,3.5292795E-1,8.089922E-2,7.8089553E-1,5.599341E-1,3.7423983E-1,2.5292215E-1,6.2241934E-2,2.0432837E-1,4.6862558E-1,9.461184E-1,8.2575786E-1,4.5546374E-1,2.4116744E-1,9.9739276E-2,2.8298777E-1,5.415741E-1,2.930698E-1,3.5307622E-1,-1.779235E-2,-3.8495392E-3,9.269739E-1,3.8527453E-1,2.3291497E-2,7.2641075E-2,6.2476995E-4,3.1578574E-2,5.322486E-1,2.4297286E-2,3.9072543E-1,4.7223103E-1,2.2916381E-1,4.639797E-1,1.585005E-1,3.3978495E-1,2.5003433E-1,-6.575107E-2,3.6623293E-1,4.040404E-1,5.918274E-1,8.296584E-2,2.9160592E-1,-9.7915076E-2,6.257001E-1,1.3503593E-1,3.1278318E-1,5.669241E-1,6.352466E-1,7.596263E-3,-1.4501611E-2,2.0068884E-4,8.0452275E-1,4.8668504E-1,4.590606E-1,2.0215054E-1,-1.1838168E-2,1.7262286E-2,4.254205E-1,3.7832874E-1,5.9183363E-2,6.8960874E-3,3.655914E-1,5.166614E-1,4.3700412E-1,3.159254E-1,-2.4836713E-2,7.135087E-3,7.9881436E-1,4.5867768E-1,7.186203E-1,2.607109E-1,9.0380795E-2,2.8578228E-1,6.7914945E-1,3.9139786E-1,4.139E-3,-2.5045013E-2,8.509457E-4,2.3631094E-2,-2.9290975E-3,-1.3501405E-3,3.302479E-3,-4.0495098E-3,8.073285E-3,-2.6822686E-3,4.526686E-2,4.2056933E-1,6.8665725E-1,2.2463271E-1,-5.8406116E-3,5.0639715E-2,5.0651725E-2,9.5510644E-1,-6.685555E-3,4.1092744E-1,6.499465E-2,3.9761248E-1,2.6254952E-3,-3.85921E-3,2.6390225E-1,3.865932E-1,4.513315E-1,5.8670104E-1,3.4830213E-1,2.9861873E-2,3.9569893E-1,2.2188659E-1,-3.2534685E-2,-1.4097673E-2,4.1290322E-1,4.3224373E-1,3.9784947E-1,3.9944905E-1,-2.3194928E-2,7.2548825E-1,4.190243E-2,3.506124E-3,-5.5666286E-2,1.0971926E-2,5.9948005E-2,1.6170562E-3,1.4405872E-1,4.6097338E-1,6.353271E-3,3.3898797E-2,-2.1151787E-2,1.3852707E-2,4.4536272E-1,4.4946235E-1,8.472244E-2,2.0493224E-2,6.3040435E-2,6.384612E-2,-2.6231469E-3,1.781355E-2,3.6613287E-3,4.6874008E-1,3.4556416E-1,3.5277656E-1,3.4132853E-1,3.813075E-1,4.4922248E-1,4.8405847E-1,6.1936077E-2,3.8241827E-1,1.2861294E-1,3.548387E-1,5.107075E-1,5.107075E-1,1.2141535E-2,-1.5159505E-2,2.4144078E-2,3.548387E-1,6.1118466E-1,6.241933E-1,5.0794935E-1,-1.1877007E-2,7.0061976E-1,1.0017261E-2,-1.1434746E-2,6.331243E-2,4.1290322E-1,-2.3032606E-3,-1.1066556E-3,7.785402E-1,4.5362717E-1,4.9586776E-1,7.322016E-1,-4.1025214E-2,5.52523E-1,3.8971755E-1,4.2365593E-1,6.380493E-1,-1.1079237E-2,7.500943E-1,-1.2901485E-3,8.6532236E-4,-1.0658696E-2,7.919204E-3,-5.6218804E-4,3.5492804E-2,3.4081735E-2,3.8377463E-3,4.0224553E-3,-1.5944673E-2,8.398086E-3,-9.855044E-3,-3.9117816E-3,1.8032573E-2,1.3245011E-2,-1.3184249E-4,-5.7239174E-3,-1.7272199E-2,-5.6311907E-3,3.154677E-3,-3.7935976E-2,3.3076883E-3,-7.244541E-2,1.289165E-2,5.6546926E-4,-1.2512678E-2,-1.2418047E-2,-9.241045E-4,1.074709E-2,1.9547721E-2,-1.4030305E-2,-1.4109462E-3,1.6705602E-3,-8.083373E-3,6.3962624E-3,8.759967E-3,-2.9145957E-3,8.820551E-3,8.9753335E-3,-4.0261745E-3,9.1714235E-3,3.3518642E-3,-1.2527353E-2,-1.4809459E-2,2.6113063E-3,-2.6325404E-3,-4.262464E-2,-3.2331545E-2,-2.3669994E-2,-4.0056147E-2,-1.6584903E-2,4.8118057E-3,-3.274702E-2,4.8405053E-3,-1.569954E-2,1.2468085E-2,8.454791E-3,3.199342E-3,1.9871388E-2,-5.812645E-4],"split_indices":[15,11,0,0,6,4,3,17,11,3,0,0,11,6,1,6,3,8,7,1,7,3,6,7,2,6,0,3,0,13,2,0,0,5,0,0,1,0,0,6,0,2,0,3,0,11,4,3,0,0,2,2,0,10,0,8,1,3,9,5,0,0,0,7,2,0,4,0,0,0,2,1,0,4,0,0,10,0,0,5,2,5,0,1,0,0,4,0,0,0,0,0,0,0,0,0,0,1,2,6,3,0,0,0,5,0,2,1,2,0,0,3,2,2,7,0,0,4,3,0,0,4,0,4,2,0,8,1,0,0,0,1,0,1,2,0,0,0,0,2,4,1,0,0,0,0,0,0,0,14,8,10,0,0,8,1,0,1,4,6,6,0,0,0,4,7,8,5,0,5,0,0,1,4,0,0,8,2,2,5,0,0,0,4,6,0,5,0,0,0,0,0,0,0,0,0,0,0,0,0,0,0,0,0,0,0,0,0,0,0,0,0,0,0,0,0,0,0,0,0,0,0,0,0,0,0,0,0,0,0,0,0,0,0,0,0,0,0,0,0,0,0,0,0,0,0,0],"split_type":[0,0,0,0,0,0,0,0,0,0,0,0,0,0,0,0,0,0,0,0,0,0,0,0,0,0,0,0,0,0,0,0,0,0,0,0,0,0,0,0,0,0,0,0,0,0,0,0,0,0,0,0,0,0,0,0,0,0,0,0,0,0,0,0,0,0,0,0,0,0,0,0,0,0,0,0,0,0,0,0,0,0,0,0,0,0,0,0,0,0,0,0,0,0,0,0,0,0,0,0,0,0,0,0,0,0,0,0,0,0,0,0,0,0,0,0,0,0,0,0,0,0,0,0,0,0,0,0,0,0,0,0,0,0,0,0,0,0,0,0,0,0,0,0,0,0,0,0,0,0,0,0,0,0,0,0,0,0,0,0,0,0,0,0,0,0,0,0,0,0,0,0,0,0,0,0,0,0,0,0,0,0,0,0,0,0,0,0,0,0,0,0,0,0,0,0,0,0,0,0,0,0,0,0,0,0,0,0,0,0,0,0,0,0,0,0,0,0,0,0,0,0,0,0,0,0,0,0,0,0,0,0,0,0,0,0,0,0,0,0,0,0,0,0,0,0,0],"sum_hessian":[3.278E3,2.539E3,7.39E2,2.56E2,2.283E3,1.79E2,5.6E2,7.3E2,1.553E3,8.2E1,9.7E1,5E0,5.55E2,6.48E2,8.2E1,6.85E2,8.68E2,2.4E1,5.8E1,1.2E1,8.5E1,3.19E2,2.36E2,2.21E2,4.27E2,7.8E1,4E0,4.18E2,2.67E2,8.26E2,4.2E1,4E0,2E1,3.1E1,2.7E1,3E0,9E0,3E0,8.2E1,2.18E2,1.01E2,2.29E2,7E0,2.05E2,1.6E1,3.14E2,1.13E2,6E0,7.2E1,1.83E2,2.35E2,2.62E2,5E0,4.68E2,3.58E2,2.3E1,1.9E1,1.5E1,1.6E1,1.2E1,1.5E1,6E0,3E0,1.23E2,9.5E1,6E0,2.23E2,4E0,3E0,1.9E1,1.86E2,1.3E1,3E0,1.57E2,1.57E2,3.8E1,7.5E1,3E0,3E0,3.7E1,1.46E2,5.8E1,1.77E2,2.5E2,1.2E1,2.97E2,1.71E2,7E0,1.6E1,3E0,1.6E1,1.1E1,4E0,9E0,7E0,7E0,5E0,1.11E2,1.2E1,5.2E1,4.3E1,3E0,3E0,3E0,2.2E2,6E0,1.3E1,1.7E1,1.69E2,4E0,9E0,5.1E1,1.06E2,1.19E2,3.8E1,3.2E1,6E0,8E0,6.7E1,3.4E1,3E0,1.09E2,3.7E1,2.3E1,3.5E1,1E1,1.67E2,2.47E2,3E0,6E0,6E0,2.89E2,8E0,4.4E1,1.27E2,3E0,1.08E2,3E0,9E0,2.6E1,2.6E1,6E0,3.7E1,2.17E2,3E0,3E0,1E1,7E0,1E1,2.3E1,1.46E2,4.5E1,6E0,1.3E1,9.3E1,1.11E2,8E0,1.3E1,2.5E1,1.2E1,2E1,4E0,4E0,3E0,6.4E1,8.6E1,2.3E1,3.4E1,3E0,1.5E1,8E0,1.9E1,1.6E1,1.63E2,4E0,3E0,2.44E2,7E0,2.82E2,4E1,4E0,6.6E1,6.1E1,1.1E1,1.5E1,2E1,6E0,3E0,3E0,6E0,4E0,8E0,1.5E1,1.4E2,6E0,3E0,4.2E1,3E0,3E0,9E0,4E0,8.1E1,1.2E1,1E1,1.01E2,3E0,5E0,6E0,7E0,3E0,2.2E1,7E0,5E0,1.6E1,4E0,6E0,5.8E1,7E1,1.6E1,1.4E1,9E0,4E0,3E1,1.1E1,4E0,3E0,1.3E1,1.29E2,3.4E1,5.7E1,1.87E2,4E0,3E0,2.69E2,1.3E1,3.7E1,3E0,5.1E1,1.5E1,1.9E1,4.2E1,6E0,5E0,9E0,6E0,3E0,3E0],"tree_param":{"num_deleted":"0","num_feature":"23","num_nodes":"247","size_leaf_vector":"1"}},{"base_weights":[5.181347E-3,-1.7563851E-1,6.2972975E-1,9.784173E-2,-3.1748128E-1,7.335835E-1,3.4597155E-1,3.5770234E-1,-4.5454547E-1,-2.5E-2,7.466919E-1,-4.5454547E-2,6.2204725E-1,4.9830508E-1,-8.695652E-2,-2.2137405E-1,-7.382075E-1,6.233766E-1,8.933333E-1,-3.6585367E-1,1.764706E-1,-0E0,6.964286E-1,5.4448396E-1,-2.2222222E-1,-6E-1,1.8032786E-1,1.5600624E-3,-5.7177615E-1,-8.196721E-1,-2E-1,1.2727273E-1,7.1206224E-1,9.2523366E-1,6.666667E-2,-5.151515E-1,-0E0,-2.3076923E-1,3.3333334E-1,-4.0000003E-2,3.846154E-2,7.7319586E-1,5.263158E-2,1.8518518E-1,6.666667E-1,-3.846154E-2,-0E0,-0E0,-6.666667E-1,5.135135E-1,-2.1428572E-1,-6.619718E-1,8.7108016E-2,-3.0827066E-1,-6.8085104E-1,-9.0186125E-1,-4.4827586E-1,-6.969697E-1,-0E0,3.3333334E-1,-1.3043478E-1,-0E0,7.370518E-1,3.6363637E-1,9.591837E-2,-1.1111111E-2,4.0000003E-2,-6.296296E-1,-0E0,2.5E-2,-0E0,-0E0,-4.0000003E-2,-3.3333335E-2,5.135135E-1,-0E0,8.0851066E-1,-1.6666667E-1,4.5454547E-2,-2E-1,7.714286E-2,-0E0,7.157895E-1,-0E0,-7.037037E-2,5.7575756E-1,-0E0,-3.9130434E-1,1.1111111E-2,-8.367347E-2,-1.5384616E-1,-4.9751244E-2,4.090909E-1,-6.315789E-1,8.196721E-2,-3.9130434E-1,-8.479532E-1,-9.047619E-1,-0E0,-8.666667E-1,1.8644068E-1,-0E0,-8.0000006E-2,-1.388889E-1,3.9130434E-1,4.8387095E-1,-1.1111111E-2,2.0000001E-2,-4.117647E-1,-1.4285715E-2,-0E0,7.5609756E-1,-0E0,5.294118E-2,-0E0,-0E0,-7.1428575E-2,6.25E-1,-0E0,-0E0,8.426966E-1,-3.3333335E-2,-0E0,-4.814815E-1,3.7037037E-2,-1.4285715E-2,6.666667E-2,3.043478E-1,8.108108E-1,-0E0,6.428572E-2,-0E0,-5E-2,-4.117647E-1,7.692308E-2,1.12E-1,-3.2051283E-1,-0E0,5.625E-1,-7.183099E-1,1.1111111E-2,-3.6363637E-1,3.488372E-1,-4.814815E-1,4.5454547E-2,-8.8095236E-1,1.4285715E-2,-9.076923E-2,-0E0,-0E0,-8.8505745E-2,-0E0,5E-2,-3.7254903E-1,2.8E-1,-0E0,6.25E-2,-0E0,6.1538465E-2,-0E0,-5.3846158E-2,-0E0,7.613169E-1,-0E0,-1.4285715E-2,-0E0,7.1428575E-2,8.604651E-2,-0E0,-6.52174E-2,-0E0,-1E-1,4.5454547E-2,3.3333335E-2,-1.4285715E-2,5.625E-1,-1.1111111E-1,-0E0,8.344827E-1,-5.714286E-2,-0E0,-0E0,3.3333335E-2,-1.9565217E-1,2.962963E-1,-4.651163E-1,-1.0810811E-1,-3.1034482E-1,3.3333334E-1,-2.0000001E-2,6.229508E-1,-8.275863E-2,-5.882353E-2,-4.7368422E-1,-0E0,-1.4285715E-1,5.7575756E-1,-5.192308E-1,-0E0,-0E0,-9.0303026E-2,-3.3333334E-1,2.413793E-1,9.090909E-2,-6.969697E-1,-0E0,5E-2,1.4285715E-2,-2.5E-2,7.666667E-2,-0E0,-4.2857144E-2,2.0000001E-2,-0E0,6.428572E-2,1.1111111E-2,-3.846154E-2,-0E0,8.686131E-2,2.3076924E-2,-7.272728E-2,4.0983606E-2,-0E0,-5.121951E-2,-0E0,-2.982456E-2,3.3333335E-2,-4.5454547E-2,-0E0,5.7894737E-2,-0E0,6.936937E-2,-0E0,1.1111111E-2,-3.3333335E-2,-5.714286E-2,-0E0,-4.5454547E-2,1.4285715E-2,-1.4285715E-2,7.333334E-2,-5.4455448E-2,-0E0,-4.6666667E-2,-0E0,-0E0,3.3333335E-2,-6.6666673E-3,4.5454547E-2,-7.777778E-2,-0E0,-7.692308E-3,2.5E-2],"categories":[],"categories_nodes":[],"categories_segments":[],"categories_sizes":[],"default_left":[0,0,0,0,0,0,0,0,0,0,0,0,0,0,0,0,0,0,0,0,0,0,0,0,0,0,0,0,0,0,0,0,0,0,0,0,0,0,0,0,0,0,0,0,0,0,0,0,0,0,0,0,0,0,0,0,0,0,0,0,0,0,0,0,0,0,0,0,0,0,0,0,0,0,0,0,0,0,0,0,0,0,0,0,0,0,0,0,0,0,0,0,0,0,0,0,0,0,0,0,0,0,0,0,0,0,0,0,0,0,0,0,0,0,0,0,0,0,0,0,0,0,0,0,0,0,0,0,0,0,0,0,0,0,0,0,0,0,0,0,0,0,0,0,0,0,0,0,0,0,0,0,0,0,0,0,0,0,0,0,0,0,0,0,0,0,0,0,0,0,0,0,0,0,0,0,0,0,0,0,0,0,0,0,0,0,0,0,0,0,0,0,0,0,0,0,0,0,0,0,0,0,0,0,0,0,0,0,0,0,0,0,0,0,0,0,0,0,0,0,0,0,0,0,0,0,0,0,0,0,0,0,0,0,0,0,0,0,0,0,0,0,0,0,0,0,0,0,0,0,0,0,0],"id":4,"left_children":[1,3,5,-1,7,9,11,13,15,-1,17,19,21,23,25,27,29,31,33,35,37,39,41,43,45,47,49,51,53,55,57,59,61,63,65,67,69,71,73,-1,-1,75,77,79,81,-1,-1,-1,83,85,87,89,91,93,95,97,99,101,103,105,107,109,111,113,-1,-1,-1,115,-1,-1,-1,-1,-1,-1,117,-1,119,121,-1,123,-1,125,127,-1,-1,129,-1,131,-1,-1,133,135,137,139,141,143,145,147,-1,149,151,-1,-1,153,155,157,-1,-1,159,-1,-1,161,-1,-1,-1,163,-1,165,-1,-1,167,-1,-1,169,171,-1,173,175,177,-1,-1,-1,-1,179,181,183,185,187,189,191,-1,193,195,197,-1,199,-1,-1,-1,-1,-1,201,-1,203,205,207,-1,-1,-1,-1,-1,-1,209,-1,-1,-1,-1,-1,-1,-1,-1,211,-1,-1,-1,213,215,-1,217,-1,-1,-1,-1,219,221,223,225,227,229,-1,231,-1,233,235,-1,237,239,241,-1,-1,-1,243,245,247,249,251,-1,-1,-1,-1,-1,-1,-1,-1,-1,-1,-1,-1,-1,-1,-1,-1,-1,-1,-1,-1,-1,-1,-1,-1,-1,-1,-1,-1,-1,-1,-1,-1,-1,-1,-1,-1,-1,-1,-1,-1,-1,-1,-1,-1,-1,-1,-1],"loss_changes":[3.7187637E2,4.165231E2,1.8633026E1,0E0,2.110103E2,8.612152E0,2.4067627E1,2.494128E1,1.225676E2,0E0,4.3049927E0,6.8942223E0,5.179699E0,1.0944092E1,1.3887955E1,8.301018E1,3.448535E1,1.15099945E1,3.7029266E0,3.269771E0,3.770739E0,3.523077E0,3.72089E0,1.013839E1,1.034188E0,7.3333263E-1,9.058865E0,3.546652E1,8.995102E0,1.8026703E1,1.1230304E1,3.5003953E0,6.0471954E0,3.9367676E-2,1.6444445E0,1.9461279E0,5E-1,9.076923E-1,6.0900903E0,0E0,0E0,3.457119E0,2.553429E0,2.0050793E1,6.680702E0,0E0,0E0,0E0,3.7036896E-2,1.1826372E0,2.347136E0,3.8088284E0,2.6094172E1,1.8086529E1,9.838516E0,6.412964E-1,4.0512917E1,3.1696968E0,4.9106283E0,3.369176E0,2.8910487E0,1.4285715E-1,4.2795563E0,1.8556147E0,0E0,0E0,0E0,1.058197E-2,0E0,0E0,0E0,0E0,0E0,0E0,2.7432432E0,0E0,1.7554398E0,6.666666E-1,0E0,4.296296E0,0E0,2.0952383E-1,4.2108E0,0E0,0E0,6.320343E-1,0E0,1.4782608E0,0E0,0E0,2.3438914E0,1.8166615E1,1.1045454E1,6.429125E0,7.7318134E0,9.701069E0,7.570587E0,6.5127563E-1,0E0,5.494232E-1,2.9491525E0,0E0,0E0,7.6495423E0,2.7282608E0,2.5880895E0,0E0,0E0,8.86878E-1,0E0,0E0,2.0948792E-1,0E0,0E0,0E0,1.4285715E-1,0E0,1.7857141E0,0E0,0E0,4.7217178E-1,0E0,0E0,3.5233498E0,2.4356902E0,0E0,1.4095238E0,6.086353E0,3.6751175E0,0E0,0E0,0E0,0E0,1.689076E0,9.230769E-1,1.4607962E1,3.4438744E0,5.793103E0,7.2442627E0,3.1491547E0,0E0,1.3540668E0,5.99255E0,3.0014248E0,0E0,4.1705627E0,0E0,0E0,0E0,0E0,0E0,3.6896553E0,0E0,9.13369E0,1.04E0,6.4285713E-1,0E0,0E0,0E0,0E0,0E0,0E0,2.2303772E-1,0E0,0E0,0E0,0E0,0E0,0E0,0E0,0E0,2.7714286E0,0E0,0E0,0E0,1.4464283E0,1.8119658E0,0E0,2.3925476E0,0E0,0E0,0E0,0E0,2.2520218E1,6.269582E0,2.907545E0,6.5386443E0,1.752351E0,3.368421E0,0E0,6.0701523E0,0E0,1.385621E0,3.0827093E-1,0E0,2.12987E0,5.336796E0,1.9120331E0,0E0,0E0,0E0,1.2666667E0,9.7701156E-1,2.1575756E0,3.0303E-1,5.769231E-1,0E0,0E0,0E0,0E0,0E0,0E0,0E0,0E0,0E0,0E0,0E0,0E0,0E0,0E0,0E0,0E0,0E0,0E0,0E0,0E0,0E0,0E0,0E0,0E0,0E0,0E0,0E0,0E0,0E0,0E0,0E0,0E0,0E0,0E0,0E0,0E0,0E0,0E0,0E0,0E0,0E0,0E0,0E0,0E0,0E0,0E0,0E0],"parents":[2147483647,0,0,1,1,2,2,4,4,5,5,6,6,7,7,8,8,10,10,11,11,12,12,13,13,14,14,15,15,16,16,17,17,18,18,19,19,20,20,21,21,22,22,23,23,24,24,25,25,26,26,27,27,28,28,29,29,30,30,31,31,32,32,33,33,34,34,35,35,36,36,37,37,38,38,41,41,42,42,43,43,44,44,48,48,49,49,50,50,51,51,52,52,53,53,54,54,55,55,56,56,57,57,58,58,59,59,60,60,61,61,62,62,63,63,67,67,74,74,76,76,77,77,79,79,81,81,82,82,85,85,87,87,90,90,91,91,92,92,93,93,94,94,95,95,96,96,97,97,99,99,100,100,103,103,104,104,105,105,108,108,111,111,115,115,117,117,120,120,123,123,124,124,126,126,127,127,128,128,133,133,134,134,135,135,136,136,137,137,138,138,139,139,141,141,142,142,143,143,145,145,151,151,153,153,154,154,155,155,162,162,171,171,175,175,176,176,178,178,183,183,184,184,185,185,186,186,187,187,188,188,190,190,192,192,193,193,195,195,196,196,197,197,201,201,202,202,203,203,204,204,205,205],"right_children":[2,4,6,-1,8,10,12,14,16,-1,18,20,22,24,26,28,30,32,34,36,38,40,42,44,46,48,50,52,54,56,58,60,62,64,66,68,70,72,74,-1,-1,76,78,80,82,-1,-1,-1,84,86,88,90,92,94,96,98,100,102,104,106,108,110,112,114,-1,-1,-1,116,-1,-1,-1,-1,-1,-1,118,-1,120,122,-1,124,-1,126,128,-1,-1,130,-1,132,-1,-1,134,136,138,140,142,144,146,148,-1,150,152,-1,-1,154,156,158,-1,-1,160,-1,-1,162,-1,-1,-1,164,-1,166,-1,-1,168,-1,-1,170,172,-1,174,176,178,-1,-1,-1,-1,180,182,184,186,188,190,192,-1,194,196,198,-1,200,-1,-1,-1,-1,-1,202,-1,204,206,208,-1,-1,-1,-1,-1,-1,210,-1,-1,-1,-1,-1,-1,-1,-1,212,-1,-1,-1,214,216,-1,218,-1,-1,-1,-1,220,222,224,226,228,230,-1,232,-1,234,236,-1,238,240,242,-1,-1,-1,244,246,248,250,252,-1,-1,-1,-1,-1,-1,-1,-1,-1,-1,-1,-1,-1,-1,-1,-1,-1,-1,-1,-1,-1,-1,-1,-1,-1,-1,-1,-1,-1,-1,-1,-1,-1,-1,-1,-1,-1,-1,-1,-1,-1,-1,-1,-1,-1,-1,-1],"split_conditions":[9.2930335E-1,8.889634E-2,7.79914E-1,4.162795E-2,4.403927E-1,1.8399012E-1,4.3605205E-1,1E0,2.2802326E-1,-2.2398014E-2,7.478207E-2,3.0948785E-1,4.56382E-1,8.0452275E-1,3.0967742E-1,7.4082017E-1,4.2580646E-1,3.8064516E-1,3.3333334E-1,8.845415E-1,7.9331714E-1,4.5810854E-1,3.3086866E-1,2.5E-1,3.9784947E-1,2.4116744E-1,3.0806044E-1,3.2903227E-1,5.490136E-2,1.2861294E-1,3.9178038E-1,5.3237087E-1,2.8182894E-1,2.266923E-1,3.9139786E-1,5.1698804E-1,9.301536E-1,1.928506E-1,1.0811867E-1,-1.528644E-2,1.7704759E-2,2.5140738E-1,8.227558E-2,4.2424244E-1,2.2916381E-1,-2.020203E-2,2.6667206E-2,-1.0172379E-2,3.673437E-1,3.5292795E-1,3.8220382E-1,2.4797474E-1,4.6556473E-1,2.7543595E-1,2.9395142E-1,5.8521104E-1,3.576676E-1,5.176784E-1,5.599341E-1,6.0438913E-1,2.628038E-1,4.6189165E-1,7.163215E-1,6.8665725E-1,6.1175775E-2,-1.9146561E-3,5.4642987E-2,8.388035E-1,-1.3802052E-4,8.4224343E-4,-2.9569834E-3,2.6328338E-2,-6.7328843E-3,-6.0958564E-3,5.1882464E-1,-1.1611342E-3,3.4408602E-1,4.4516128E-1,3.1299848E-2,5.3005123E-1,6.569932E-2,5.398379E-2,4.1431293E-1,-1.6175395E-2,-4.6749987E-2,4.2607898E-1,-7.992568E-3,3.229921E-1,4.9379054E-3,-3.8544416E-2,4.4687638E-1,5.751776E-1,3.548387E-1,3.7543637E-1,2.8990796E-1,2.8540733E-1,5.52523E-1,9.506086E-1,-3.348377E-2,5.454529E-1,4.4685227E-1,2.4604797E-4,-3.1999834E-2,4.862259E-1,3.494031E-1,2.6829603E-1,-1.0465503E-2,6.4925435E-3,2.0877067E-2,-1.0830688E-2,7.2403075E-3,3.1196445E-1,-5.8106484E-4,1.7909577E-2,-3.575623E-4,7.6158434E-2,-5.479485E-3,4.775023E-1,-5.561948E-3,2.197451E-2,9.844602E-1,-7.5835707E-3,9.146106E-3,1.08885154E-1,4.4333065E-1,-3.182757E-3,1.0139378E-1,7.768772E-2,3.576676E-1,1.2804449E-3,2.4083622E-2,1.1215773E-2,-2.2168776E-2,4.9908173E-1,3.1612903E-1,3.7634408E-1,9.642964E-1,5.1606977E-1,1.931133E-1,9.2535704E-1,2.2265555E-3,9.42657E-1,3.548387E-1,9.0380795E-2,4.0061E-3,2.1378553E-1,8.7999225E-2,-6.661341E-2,-2.8850926E-2,-1.0189528E-2,-1.0307467E-1,3.9139786E-1,3.2895606E-2,4.874265E-1,4.4301075E-1,6.707469E-1,1.8340388E-2,-3.5771548E-3,1.5259013E-2,-7.3921042E-3,-1.063501E-2,3.996414E-2,4.9285942E-1,4.761547E-3,-3.3520104E-3,3.4516961E-3,5.501424E-3,2.2883283E-2,9.223229E-3,-5.8359564E-3,1.1846244E-2,6.5120995E-1,3.454008E-2,1.3985897E-2,-2.6890456E-3,3.8686132E-1,6.697923E-1,-3.5206021E-3,4.609874E-1,-3.6026265E-2,4.916853E-3,-6.3934745E-3,2.7380765E-3,1.0139378E-1,1.585005E-1,4.17588E-1,3.9139786E-1,5.915336E-1,6.707469E-1,-2.3463568E-2,8.013458E-2,-1.2976411E-2,9.344112E-1,3.1690237E-1,8.8498596E-4,9.0013474E-1,4.7199264E-1,5.6336087E-1,4.0613203E-3,1.8278838E-3,-2.4299039E-2,1.5002294E-1,3.6088154E-1,4.531399E-1,3.2985172E-1,4.3049824E-1,8.867979E-3,2.1299934E-2,-4.6017956E-2,2.538359E-2,8.054942E-2,-6.117073E-3,2.4087965E-2,-8.922249E-4,1.1036594E-2,6.3265115E-3,-1.218949E-2,3.4739138E-3,2.1920884E-2,3.9325804E-3,-1.2126929E-2,6.202525E-3,-1.1062383E-3,-7.662481E-3,3.772959E-3,-4.0687444E-3,7.198429E-3,-3.01238E-3,5.461812E-4,1.8340303E-2,-6.2639774E-3,1.5877454E-2,-4.6688616E-3,5.3292513E-3,-5.4429653E-3,-2.6093533E-2,-9.959877E-4,-8.570648E-3,8.629471E-3,-3.8004518E-3,7.7473014E-3,-1.3014835E-2,2.9316605E-3,-2.9291863E-2,1.1519141E-2,-2.8629422E-3,7.629341E-3,-6.0985507E-3,9.075874E-3,-4.0677916E-2,-1.1993529E-2,-1.968521E-3,1.40601965E-2],"split_indices":[15,11,6,0,6,3,0,12,11,0,1,3,2,7,4,6,4,4,12,8,5,0,7,22,4,6,8,4,1,1,0,10,7,3,4,2,5,9,7,0,0,3,1,2,3,0,0,0,0,6,8,3,2,3,9,0,2,6,3,6,3,2,8,6,0,0,0,5,0,0,0,0,0,0,2,0,4,4,0,10,0,1,0,0,0,2,0,6,0,0,8,8,4,0,0,9,0,7,0,6,10,0,0,2,2,3,0,0,9,0,0,0,0,0,0,1,0,2,0,0,6,0,0,1,5,0,11,1,2,0,0,0,0,2,4,4,13,2,0,5,0,5,4,1,0,3,0,0,0,0,0,4,0,8,4,6,0,0,0,0,0,0,0,0,0,0,0,0,0,0,0,10,0,0,0,0,7,0,7,0,0,0,0,11,11,10,4,8,6,0,1,0,5,3,0,5,2,2,0,0,0,1,2,8,10,0,0,0,0,0,0,0,0,0,0,0,0,0,0,0,0,0,0,0,0,0,0,0,0,0,0,0,0,0,0,0,0,0,0,0,0,0,0,0,0,0,0,0,0,0,0,0,0],"split_type":[0,0,0,0,0,0,0,0,0,0,0,0,0,0,0,0,0,0,0,0,0,0,0,0,0,0,0,0,0,0,0,0,0,0,0,0,0,0,0,0,0,0,0,0,0,0,0,0,0,0,0,0,0,0,0,0,0,0,0,0,0,0,0,0,0,0,0,0,0,0,0,0,0,0,0,0,0,0,0,0,0,0,0,0,0,0,0,0,0,0,0,0,0,0,0,0,0,0,0,0,0,0,0,0,0,0,0,0,0,0,0,0,0,0,0,0,0,0,0,0,0,0,0,0,0,0,0,0,0,0,0,0,0,0,0,0,0,0,0,0,0,0,0,0,0,0,0,0,0,0,0,0,0,0,0,0,0,0,0,0,0,0,0,0,0,0,0,0,0,0,0,0,0,0,0,0,0,0,0,0,0,0,0,0,0,0,0,0,0,0,0,0,0,0,0,0,0,0,0,0,0,0,0,0,0,0,0,0,0,0,0,0,0,0,0,0,0,0,0,0,0,0,0,0,0,0,0,0,0,0,0,0,0,0,0,0,0,0,0,0,0,0,0,0,0,0,0,0,0,0,0,0,0],"sum_hessian":[3.277E3,2.541E3,7.36E2,2.74E2,2.267E3,5.29E2,2.07E2,3.79E2,1.888E3,4E0,5.25E2,8.4E1,1.23E2,2.91E2,8.8E1,1.044E3,8.44E2,3.04E2,2.21E2,3.7E1,4.7E1,1.5E1,1.08E2,2.77E2,1.4E1,3.1E1,5.7E1,6.37E2,4.07E2,7.28E2,1.16E2,5.1E1,2.53E2,2.1E2,1.1E1,2.9E1,8E0,9E0,3.8E1,6E0,9E0,9.3E1,1.5E1,7.7E1,2E2,9E0,5E0,5E0,2.6E1,3.3E1,2.4E1,6.7E1,5.7E2,1.29E2,2.78E2,5.87E2,1.41E2,2.9E1,8.7E1,3.2E1,1.9E1,6E0,2.47E2,1.8E1,1.92E2,5E0,6E0,2.3E1,6E0,4E0,4E0,3E0,6E0,5E0,3.3E1,3E0,9E1,8E0,7E0,4.6E1,3.1E1,1.4E1,1.86E2,3E0,2.3E1,2.9E1,4E0,1.9E1,5E0,4.5E1,2.2E1,3.98E2,1.72E2,7.2E1,5.7E1,1.11E2,1.67E2,5.84E2,3E0,8.6E1,5.5E1,3E0,2.6E1,6.8E1,1.9E1,2.7E1,5E0,6E0,1.3E1,3E0,3E0,2.42E2,5E0,1.3E1,5E0,6E0,1.7E1,2.8E1,5E0,5E0,8.5E1,5E0,3E0,2.3E1,2.3E1,3E0,1.1E1,4.2E1,1.44E2,5E0,2.4E1,3E0,1.6E1,1.3E1,9E0,2.46E2,1.52E2,4.8E1,1.24E2,6.7E1,5E0,1.8E1,3.9E1,1.04E2,7E0,1.64E2,3E0,5.81E2,3E0,3E0,8.3E1,3.9E1,1.6E1,4.7E1,2.1E1,7E0,1.2E1,5E0,2.2E1,4E0,9E0,3E0,2.39E2,3E0,3E0,4E0,2.4E1,8.2E1,3E0,1.9E1,4E0,1.6E1,7E0,8E0,3E0,2.8E1,1.4E1,3E0,1.41E2,1E1,3E0,4E0,5E0,8.8E1,1.58E2,8.2E1,7E1,2.5E1,2.3E1,6E0,1.18E2,5.4E1,1.3E1,1.5E1,3E0,1E1,2.9E1,1E2,4E0,3E0,1.61E2,1.4E1,2.5E1,1.8E1,2.9E1,1.3E1,8E0,3E0,4E0,2.36E2,3E0,1E1,6E0,4E0,2.4E1,5E0,9E0,8E0,1.33E2,4.8E1,4E1,1.18E2,4E1,7.8E1,4E0,5.3E1,1.7E1,1.8E1,7E0,1.5E1,8E0,1.07E2,1.1E1,5E0,8E0,1E1,5E0,7E0,3E0,3E0,2.6E1,9.7E1,3E0,1.1E1,3E0,5E0,2E1,1.1E1,7E0,2.3E1,6E0,9E0,4E0],"tree_param":{"num_deleted":"0","num_feature":"23","num_nodes":"253","size_leaf_vector":"1"}},{"base_weights":[6.6626286E-3,-1.6458659E-1,6.0107815E-1,9.781022E-2,-3.0165648E-1,7.0178926E-1,3.7448558E-1,5.186722E-1,-3.9815265E-1,-0E0,7.2783506E-1,-9.756097E-2,6.121212E-1,7.3426574E-1,1.764706E-1,-2.2015505E-1,-6.9131E-1,-4.0000003E-2,2.5E-1,1.0344828E-1,7.5652176E-1,-4.6666667E-1,7.1428575E-2,3.814433E-1,8.611111E-1,-9.090909E-2,7.941176E-1,5.3571427E-1,-2E-1,-1.2676056E-1,-8.7341774E-1,-3.3596838E-1,-8.544061E-1,-1.4285715E-2,5.3846158E-2,-0E0,3.3333334E-1,-0E0,7.6651984E-1,-6.0000002E-2,-0E0,2.7272728E-1,-3.75E-1,-8.3333336E-2,8.113208E-1,-0E0,8.84058E-1,-2.5E-2,-0E0,-0E0,8.4375E-1,-1.4285715E-2,6.226415E-1,-5.555556E-2,-0E0,-2.6092714E-1,1.3246754E-1,-9.189189E-1,-0E0,-7.037037E-1,-1.4772727E-1,-8.8932806E-1,1E-1,-2.3076923E-1,1.1111111E-2,-0E0,4.5454547E-2,-1.4285715E-2,1.4285715E-2,6.644737E-1,9.350649E-1,3.5E-1,-0E0,-5.3846158E-2,-0E0,4.0000003E-2,-2.3809524E-1,8.8E-2,-0E0,-0E0,9.090909E-2,1.1111111E-2,-1.4285715E-2,8.56E-2,-0E0,-0E0,7.2727275E-1,-4.0000003E-2,1.3333334E-1,-5.4347827E-3,-4.9360615E-1,-3.4246576E-1,2.4683544E-1,-9.310345E-2,-0E0,-3.3333335E-2,1.1111111E-2,-8.333333E-1,7.692308E-2,-3.7209302E-1,4.255319E-2,-9.04E-2,-0E0,-4.0000003E-2,5.714286E-2,-0E0,-4.0000003E-2,3.0555555E-1,7.542373E-1,-0E0,9.470199E-2,4.375E-1,-0E0,-4.2857143E-1,-0E0,-1.4285715E-2,2.0000001E-2,-0E0,7.560976E-2,-1.1111111E-1,5E-2,-6.363636E-1,1.5254237E-1,-6.6433567E-1,-9.1743115E-3,-7.419355E-2,-0E0,6.25E-1,1.40625E-1,-8.80597E-2,-0E0,2.0000001E-2,-0E0,-4.7945204E-1,5.882353E-2,-3.3333334E-1,3.962264E-1,-0E0,1.4285715E-2,6E-1,-4.2857143E-1,3.529412E-1,7.9611653E-1,-0E0,5.3846158E-2,-1.1111111E-2,1.4285715E-2,-5.652174E-2,-0E0,4.5454547E-2,-2.727273E-2,-2E-1,-0E0,-7.1014494E-1,-0E0,5.714286E-1,1.3100437E-2,-7.176471E-1,-1.4285715E-1,-1.521739E-1,5.2380957E-2,-4.117647E-1,1.5151516E-1,7E-1,-0E0,3.006135E-1,-1.1340206E-1,-6.0784316E-1,-7.692308E-2,-9.090909E-2,4.0000003E-2,-0E0,-5.862069E-1,-0E0,5.7894737E-1,-0E0,7.446808E-1,-5E-2,-0E0,7.1428575E-2,-5.882353E-2,-0E0,8.029557E-2,-0E0,-3.3333335E-2,-7.894737E-2,-1.25E-2,-1.1111111E-2,1.4285715E-2,-2.5E-2,6.666667E-2,-5.8823533E-2,1.2562814E-2,-5.263158E-3,-7.5E-2,-2.857143E-2,9.09091E-3,-5E-2,-0E0,-5.714286E-2,-0E0,-6.6666673E-3,3.636364E-2,-0E0,7.4074075E-2,-0E0,4.766355E-2,-5.294118E-2,7.4626864E-3,-6.818182E-2,-0E0,2.0000001E-2,-3.0000001E-2,-0E0,-2.5E-2,-2.5E-2,2.5E-2,-7.5E-2,-0E0,-2.0000001E-2,2.5E-2,-0E0,6.774194E-2,-0E0,-1.4285715E-2,8.048781E-2,-0E0,2.5E-2,-3.846154E-2],"categories":[],"categories_nodes":[],"categories_segments":[],"categories_sizes":[],"default_left":[0,0,0,0,0,0,0,0,0,0,0,0,0,0,0,0,0,0,0,0,0,0,0,0,0,0,0,0,0,0,0,0,0,0,0,0,0,0,0,0,0,0,0,0,0,0,0,0,0,0,0,0,0,0,0,0,0,0,0,0,0,0,0,0,0,0,0,0,0,0,0,0,0,0,0,0,0,0,0,0,0,0,0,0,0,0,0,0,0,0,0,0,0,0,0,0,0,0,0,0,0,0,0,0,0,0,0,0,0,0,0,0,0,0,0,0,0,0,0,0,0,0,0,0,0,0,0,0,0,0,0,0,0,0,0,0,0,0,0,0,0,0,0,0,0,0,0,0,0,0,0,0,0,0,0,0,0,0,0,0,0,0,0,0,0,0,0,0,0,0,0,0,0,0,0,0,0,0,0,0,0,0,0,0,0,0,0,0,0,0,0,0,0,0,0,0,0,0,0,0,0,0,0,0,0,0,0,0,0,0,0,0,0,0,0,0,0,0,0,0,0,0,0,0,0,0,0,0,0],"id":5,"left_children":[1,3,5,-1,7,9,11,13,15,17,19,21,23,25,27,29,31,-1,33,35,37,39,41,43,45,47,49,51,53,55,57,59,61,-1,-1,63,65,67,69,-1,-1,71,73,75,77,-1,79,-1,-1,81,83,-1,85,-1,87,89,91,93,95,97,99,101,103,105,-1,-1,-1,-1,-1,107,109,111,-1,-1,-1,-1,113,-1,-1,-1,-1,-1,-1,-1,-1,115,117,-1,119,121,123,125,127,-1,-1,-1,-1,129,131,133,135,-1,137,-1,-1,-1,-1,139,141,-1,-1,143,145,147,149,-1,-1,-1,-1,151,-1,153,155,157,159,-1,161,163,165,-1,-1,-1,-1,167,169,171,173,-1,-1,175,177,179,181,-1,-1,-1,-1,-1,-1,-1,-1,183,-1,185,187,189,191,193,195,197,-1,199,201,203,-1,205,207,209,211,213,-1,215,217,219,221,223,225,-1,-1,-1,227,-1,-1,-1,-1,-1,-1,-1,-1,-1,-1,-1,-1,-1,-1,-1,-1,-1,-1,-1,-1,-1,-1,-1,-1,-1,-1,-1,-1,-1,-1,-1,-1,-1,-1,-1,-1,-1,-1,-1,-1,-1,-1,-1,-1,-1,-1,-1,-1],"loss_changes":[3.3738983E2,4.0142215E2,1.3728943E1,0E0,1.8217473E2,9.194168E0,2.8526539E1,1.5440346E1,1.0490524E2,2.6E0,6.654114E0,6.03856E0,5.678047E0,8.757721E0,1.4894958E1,7.626114E1,4.1154205E1,0E0,2.912088E0,1.3563218E0,3.4793396E0,2.4666667E0,5.237013E0,2.110672E1,5.386467E-1,4.090909E-1,5.3602905E0,4.618599E0,3.5555553E0,3.9904972E1,4.44133E0,1.5394707E1,1.933252E1,0E0,0E0,8.034188E-1,6.060606E-1,2.857143E-1,2.1241455E0,0E0,0E0,1.6272728E0,1.5192308E0,3.647619E0,3.83321E0,0E0,6.179199E-1,0E0,0E0,2.5396827E-1,4.6700287E-1,0E0,2.7255573E0,0E0,2.1333334E0,4.3874207E1,2.1058964E1,7.166748E-1,1.1111112E0,9.965813E0,8.23628E0,8.41037E0,5.971429E0,9.076923E-1,0E0,0E0,0E0,0E0,0E0,6.7527924E0,7.7449036E-1,1.2249999E0,0E0,0E0,0E0,0E0,2.7619047E0,0E0,0E0,0E0,0E0,0E0,0E0,0E0,0E0,5.4285717E-1,1.66296E-1,0E0,3.688889E0,3.803536E1,3.0966965E1,8.502872E0,1.0809336E1,0E0,0E0,0E0,0E0,1.9552231E0,3.2307693E-1,4.9326687E0,1.3150542E1,0E0,1.4285715E-1,0E0,0E0,0E0,0E0,1.6934921E1,5.4415894E-1,0E0,0E0,1.4134617E0,2.5396827E-1,2.204969E0,3.090909E0,0E0,0E0,0E0,0E0,3.777778E-1,0E0,3.615282E0,1.6032038E1,5.819908E0,7.8831654E0,0E0,3.6399286E0,4.3999996E0,1.0914984E1,0E0,0E0,0E0,0E0,2.2161617E0,1.6320856E0,4.965517E0,4.416087E0,0E0,0E0,6.26383E0,1.4285707E-1,6.537815E0,3.1866455E-1,0E0,0E0,0E0,0E0,0E0,0E0,0E0,0E0,3.9999998E-1,0E0,9.792175E-1,2.5396827E-1,6.9761906E0,1.4866108E1,3.7232208E0,1.6623377E0,3.8695652E0,0E0,1.689076E0,2.2181818E0,2.2962952E-1,0E0,9.578349E0,8.655123E0,1.6114082E0,2.0461538E0,4.090909E-1,0E0,1.5E0,3.534483E0,1.1E0,1.4889641E0,1.4285715E-1,4.971466E-1,0E0,0E0,0E0,2.3642533E0,0E0,0E0,0E0,0E0,0E0,0E0,0E0,0E0,0E0,0E0,0E0,0E0,0E0,0E0,0E0,0E0,0E0,0E0,0E0,0E0,0E0,0E0,0E0,0E0,0E0,0E0,0E0,0E0,0E0,0E0,0E0,0E0,0E0,0E0,0E0,0E0,0E0,0E0,0E0,0E0,0E0,0E0,0E0,0E0,0E0,0E0,0E0,0E0],"parents":[2147483647,0,0,1,1,2,2,4,4,5,5,6,6,7,7,8,8,9,9,10,10,11,11,12,12,13,13,14,14,15,15,16,16,18,18,19,19,20,20,21,21,22,22,23,23,24,24,25,25,26,26,27,27,28,28,29,29,30,30,31,31,32,32,35,35,36,36,37,37,38,38,41,41,42,42,43,43,44,44,46,46,49,49,50,50,52,52,54,54,55,55,56,56,57,57,58,58,59,59,60,60,61,61,62,62,63,63,69,69,70,70,71,71,76,76,85,85,86,86,88,88,89,89,90,90,91,91,92,92,97,97,98,98,99,99,100,100,102,102,107,107,108,108,111,111,112,112,113,113,114,114,119,119,121,121,122,122,123,123,124,124,126,126,127,127,128,128,133,133,134,134,135,135,136,136,139,139,140,140,141,141,142,142,151,151,153,153,154,154,155,155,156,156,157,157,158,158,159,159,161,161,162,162,163,163,165,165,166,166,167,167,168,168,169,169,171,171,172,172,173,173,174,174,175,175,176,176,180,180],"right_children":[2,4,6,-1,8,10,12,14,16,18,20,22,24,26,28,30,32,-1,34,36,38,40,42,44,46,48,50,52,54,56,58,60,62,-1,-1,64,66,68,70,-1,-1,72,74,76,78,-1,80,-1,-1,82,84,-1,86,-1,88,90,92,94,96,98,100,102,104,106,-1,-1,-1,-1,-1,108,110,112,-1,-1,-1,-1,114,-1,-1,-1,-1,-1,-1,-1,-1,116,118,-1,120,122,124,126,128,-1,-1,-1,-1,130,132,134,136,-1,138,-1,-1,-1,-1,140,142,-1,-1,144,146,148,150,-1,-1,-1,-1,152,-1,154,156,158,160,-1,162,164,166,-1,-1,-1,-1,168,170,172,174,-1,-1,176,178,180,182,-1,-1,-1,-1,-1,-1,-1,-1,184,-1,186,188,190,192,194,196,198,-1,200,202,204,-1,206,208,210,212,214,-1,216,218,220,222,224,226,-1,-1,-1,228,-1,-1,-1,-1,-1,-1,-1,-1,-1,-1,-1,-1,-1,-1,-1,-1,-1,-1,-1,-1,-1,-1,-1,-1,-1,-1,-1,-1,-1,-1,-1,-1,-1,-1,-1,-1,-1,-1,-1,-1,-1,-1,-1,-1,-1,-1,-1,-1],"split_conditions":[9.2930335E-1,8.889634E-2,7.3840964E-1,3.7465155E-2,3.5292795E-1,3.9715335E-1,2.0321116E-1,2.2802326E-1,7.4174184E-1,2.8504738E-1,2.3245916E-1,3.827957E-1,4.9412885E-1,2.0252644E-1,2.9253918E-1,5.999789E-1,1.1401163E-1,-9.86861E-3,3.249259E-1,8.9004435E-2,2.8182894E-1,5.1698804E-1,8.813032E-1,4.6451613E-1,4.426079E-1,4.254205E-1,3.6845446E-1,2.3699026E-1,4.3486932E-1,4.550046E-1,7.875822E-2,2.5950843E-1,5.516957E-1,-1.7973108E-2,1.2685803E-2,3.8064516E-1,2.8172043E-1,4.5867768E-1,3.17001E-1,-3.1380714E-3,1.2725651E-3,4.0215054E-1,7.768772E-2,7.739792E-1,5.1698804E-1,4.078448E-5,7.0051804E-2,-2.3764525E-2,6.083989E-3,3.9139786E-1,4.8952714E-1,-2.2149056E-2,6.560636E-2,-2.1167895E-2,5.5666003E-2,1.585005E-1,2.4207057E-1,3.7849462E-1,2.1941508E-1,6.361829E-2,4.7199264E-1,6.7914945E-1,3.3333334E-1,4.6271026E-1,9.486995E-3,8.393894E-3,3.9971594E-2,-7.600665E-3,1.2326327E-2,4.3939394E-1,2.0215054E-1,2.4074113E-1,-8.70499E-3,-1.0912478E-3,6.2564733E-3,3.1203885E-2,1.01850435E-1,1.5703347E-2,-2.428922E-3,8.300907E-3,3.206107E-2,2.1617175E-3,-2.001465E-2,2.2432163E-2,1.6135791E-2,3.7849462E-1,3.8797063E-1,-2.6403261E-2,4.0955004E-1,3.548387E-1,1.2127236E-1,3.7162805E-1,6.312107E-2,-7.348495E-2,-5.284977E-2,-7.810977E-2,1.3521761E-2,3.813075E-1,8.811102E-1,4.3462393E-1,2.9688987E-1,-6.019473E-2,1.471173E-1,-9.605701E-2,2.980184E-2,9.920356E-3,-3.479144E-3,5.2410334E-1,3.6774194E-1,3.9468978E-2,6.8615735E-2,3.0317178E-1,3.9940315E-1,4.6021506E-1,9.0164375E-1,-1.1762184E-2,3.3558996E-3,2.9751435E-2,6.061498E-2,9.879187E-2,1.2167314E-2,2.7076754E-1,5.107075E-1,6.098994E-1,4.3010753E-1,-2.4677962E-2,1.9772072E-1,8.0452275E-1,7.1723506E-2,-1.7108763E-2,-6.2013925E-3,6.7937463E-3,-1.005466E-2,3.3255526E-1,3.8494623E-1,1.6211057E-1,2.7131677E-1,-2.0152753E-2,1.54715E-2,3.7849462E-1,5.441729E-1,5.1861316E-2,2.9688987E-1,-9.723455E-4,4.951279E-3,-1.6744972E-3,2.6144896E-2,-5.580467E-3,1.0605783E-3,2.1324955E-2,-4.5455815E-3,8.6710505E-2,1.3514739E-2,7.711238E-1,3.7051728E-1,3.576676E-1,3.966942E-1,6.0712647E-2,4.172043E-1,3.466483E-1,1.916994E-2,5.2984387E-1,4.0050778E-1,3.075269E-1,-4.8163433E-2,3.5698923E-1,3.973342E-1,3.892473E-1,3.377729E-1,6.912372E-2,1.1985311E-2,2.746747E-1,3.1690237E-1,3.579816E-1,3.548387E-1,6.667686E-2,4.8349434E-1,-1.0174206E-2,-1.1774841E-2,4.3557394E-2,5.560685E-1,9.130332E-3,2.6355142E-2,7.762611E-5,-9.978116E-3,-2.0528931E-2,-1.7122194E-2,-4.8255622E-3,4.878414E-3,-2.4697421E-2,1.1348136E-2,-9.140131E-3,1.2717128E-3,-1.6030371E-3,-2.3229951E-2,-5.6094946E-3,6.357658E-3,-2.0582154E-2,-3.3593478E-4,-5.71706E-3,5.3425967E-3,-2.2591413E-3,7.656169E-3,2.3022264E-3,2.0323142E-2,-6.944567E-4,1.0614544E-2,-7.863715E-3,1.3326884E-3,-1.0113624E-2,-9.0461974E-5,2.663967E-3,-4.206717E-3,2.4177838E-2,-8.432857E-3,-2.0008236E-2,1.6856343E-3,-1.4373419E-2,4.4755638E-3,-3.7421645E-3,2.261594E-3,6.113231E-4,5.708158E-3,1.9625724E-4,-2.0537747E-2,3.3894185E-2,1.814276E-3,8.209698E-3,-3.8464516E-3],"split_indices":[15,11,6,0,6,2,11,11,6,3,3,4,0,3,8,17,11,0,5,1,7,2,8,4,2,0,0,3,5,2,1,3,3,0,0,4,4,2,11,0,0,4,1,6,2,0,7,0,0,4,0,0,1,0,1,11,3,4,3,1,2,0,2,0,0,0,0,0,0,2,4,10,0,0,0,0,1,0,0,0,0,0,0,0,0,4,2,0,2,4,1,0,9,0,0,0,0,0,5,0,0,0,1,0,0,0,0,6,4,0,0,3,7,4,5,0,0,0,0,1,0,3,6,10,4,0,3,7,1,0,0,0,0,3,4,7,3,0,0,4,7,9,0,0,0,0,0,0,0,0,0,1,0,7,0,2,2,1,4,2,0,2,0,4,0,4,0,4,3,1,0,0,3,0,4,1,6,0,0,0,7,0,0,0,0,0,0,0,0,0,0,0,0,0,0,0,0,0,0,0,0,0,0,0,0,0,0,0,0,0,0,0,0,0,0,0,0,0,0,0,0,0,0,0,0,0,0,0,0],"split_type":[0,0,0,0,0,0,0,0,0,0,0,0,0,0,0,0,0,0,0,0,0,0,0,0,0,0,0,0,0,0,0,0,0,0,0,0,0,0,0,0,0,0,0,0,0,0,0,0,0,0,0,0,0,0,0,0,0,0,0,0,0,0,0,0,0,0,0,0,0,0,0,0,0,0,0,0,0,0,0,0,0,0,0,0,0,0,0,0,0,0,0,0,0,0,0,0,0,0,0,0,0,0,0,0,0,0,0,0,0,0,0,0,0,0,0,0,0,0,0,0,0,0,0,0,0,0,0,0,0,0,0,0,0,0,0,0,0,0,0,0,0,0,0,0,0,0,0,0,0,0,0,0,0,0,0,0,0,0,0,0,0,0,0,0,0,0,0,0,0,0,0,0,0,0,0,0,0,0,0,0,0,0,0,0,0,0,0,0,0,0,0,0,0,0,0,0,0,0,0,0,0,0,0,0,0,0,0,0,0,0,0,0,0,0,0,0,0,0,0,0,0,0,0,0,0,0,0,0,0],"sum_hessian":[3.298E3,2.56E3,7.38E2,2.7E2,2.29E3,4.99E2,2.39E2,2.37E2,2.053E3,1.8E1,4.81E2,7.8E1,1.61E2,1.39E2,9.8E1,1.286E3,7.67E2,6E0,1.2E1,2.5E1,4.56E2,2.6E1,5.2E1,9.3E1,6.8E1,7E0,1.32E2,5.2E1,4.6E1,1.132E3,1.54E2,2.49E2,5.18E2,3E0,9E0,1.4E1,1.1E1,6E0,4.5E2,2.1E1,5E0,4E1,1.2E1,4.4E1,4.9E1,3E0,6.5E1,4E0,3E0,8E0,1.24E2,3E0,4.9E1,1.4E1,3.2E1,7.51E2,3.81E2,1.44E2,1E1,7.7E1,1.72E2,5.02E2,1.6E1,9E0,5E0,4E0,7E0,3E0,3E0,3E2,1.5E2,3.6E1,4E0,9E0,3E0,6E0,3.8E1,4.6E1,3E0,3E0,6.2E1,5E0,3E0,1.21E2,3E0,9E0,4E1,6E0,2.6E1,3.64E2,3.87E2,6.9E1,3.12E2,1.41E2,3E0,5E0,5E0,6.8E1,9E0,8.2E1,9E1,4.96E2,6E0,6E0,1E1,3E0,6E0,6.8E1,2.32E2,3E0,1.47E2,2.8E1,8E0,2.4E1,1.4E1,3E0,6E0,3E0,3.7E1,1.4E1,1.2E1,7.3E1,2.91E2,2.82E2,1.05E2,2.7E1,4.2E1,6E1,2.52E2,6.3E1,5E0,6E0,3E0,6.9E1,1.3E1,4.1E1,4.9E1,3E0,3E0,5.1E1,1.7E1,3E1,2.02E2,6E0,2.2E1,5E0,3E0,1.9E1,5E0,7E0,7E0,1.1E1,3E0,6.5E1,8E0,6.6E1,2.25E2,2.51E2,3.1E1,8.8E1,1.7E1,1.3E1,2.9E1,5.6E1,4E0,1.59E2,9.3E1,4.7E1,2.2E1,7E0,6E0,1.6E1,2.5E1,1.5E1,3.4E1,8E0,4.3E1,1.2E1,5E0,1.7E1,1.3E1,3E0,1.99E2,6E0,5E0,5.3E1,1.2E1,5E0,3E0,4E0,6.2E1,3E1,1.95E2,1.5E1,2.36E2,2.4E1,7E0,2E1,6.8E1,1E1,3E0,1.1E1,1.8E1,6E0,5E1,5.6E1,1.03E2,3E1,6.3E1,4E1,7E0,6E0,1.6E1,3E0,4E0,4E0,1.2E1,2E1,5E0,1.1E1,4E0,7E0,2.7E1,5E0,3E0,3.7E1,6E0,4E0,9E0],"tree_param":{"num_deleted":"0","num_feature":"23","num_nodes":"229","size_leaf_vector":"1"}},{"base_weights":[1.864873E-2,-1.4128296E-1,5.7493186E-1,9.765625E-2,-2.669288E-1,3.6196318E-1,7.330097E-1,-2.6687598E-2,-5.642787E-1,7.5757575E-1,8.080808E-2,8.7628865E-1,5.855856E-1,7.269503E-2,-7.866667E-1,-3.7102473E-1,-7.9431075E-1,-0E0,8.2258064E-1,-1.764706E-1,6.363636E-1,9.0425533E-1,-0E0,2.1348314E-1,7.9562044E-1,4.919355E-1,-4.2986427E-2,-8.705036E-1,6.666667E-2,-5.9398496E-1,-1.6447368E-1,-8.372093E-1,-3.2258064E-2,-2.5E-2,-0E0,-0E0,8.487395E-1,-4.4444445E-1,-0E0,7.04918E-1,-0E0,-0E0,9.1351354E-1,1.4285715E-2,-1.4285715E-2,4.9253732E-1,-4.6153846E-1,-0E0,8.1954885E-1,-3.3333334E-1,6.036036E-1,-1.7975567E-1,2E-1,-8.962963E-1,-0E0,-2.5E-2,4.5454547E-2,-3.642384E-1,-8.487395E-1,2.5531915E-1,-3.5514018E-1,-8.83905E-1,-4.181818E-1,-5E-2,2.631579E-1,-0E0,8.62069E-2,-7.1428573E-1,-0E0,3.7931034E-1,-1.8032786E-1,-0E0,7.586207E-1,9.2307694E-2,-0E0,5.555556E-1,-0E0,-0E0,-6.0000002E-2,3.548387E-1,9.056604E-2,-5.2E-1,1.1111111E-2,-2.3076923E-1,6.5258217E-1,6.713781E-2,-4.217687E-1,-3.4545454E-1,3.181818E-1,-0E0,-9.090909E-2,-0E0,-4.7008547E-1,-0E0,-8.947368E-1,3.409091E-1,-4.0000003E-2,-7.586207E-1,-1.875E-1,-9.02439E-1,-0E0,-7.6E-2,-5.882353E-2,-0E0,3.75E-1,-7.5E-2,-0E0,3.75E-1,-4.5454547E-2,5.833333E-1,-1.1111111E-2,-2.8301886E-1,1.6666667E-1,-0E0,8.181818E-1,-0E0,7.0212764E-1,7.272728E-2,-2.3076923E-1,-6.363636E-2,-0E0,-4.0000003E-2,-0E0,7.735849E-1,2.413793E-1,-3.207547E-1,3.038674E-1,-5.6846476E-1,1.9298245E-1,-6.1290324E-1,-0E0,4.019608E-1,-0E0,4.7368422E-1,-3.9130434E-1,-5.221239E-1,2.5E-2,-9.099099E-2,-0E0,-1.6666667E-1,4.25E-1,-8.148148E-1,-0E0,-7.913669E-2,-6.8E-1,-9.118458E-2,-0E0,-4.0000003E-2,2.5E-2,-5.3846158E-2,1.2E-1,-0E0,4.5454547E-2,-0E0,5.3846158E-2,-0E0,7.1428575E-2,-0E0,-3.846154E-1,-0E0,3.3333335E-2,-0E0,8.461539E-2,2.3076923E-1,-9.090909E-2,-0E0,7.2727275E-1,-4.0000003E-2,-0E0,7.935484E-1,-0E0,4.871795E-1,-1.3043478E-1,-6.2711865E-1,1.9607844E-2,-3.6363637E-1,3.98773E-1,-3.6764705E-1,-7.798165E-1,-2E-1,4.1463414E-1,-7.037037E-2,-0E0,-2E-1,1.764706E-1,4.494382E-1,-0E0,-5.555556E-2,2.4E-1,5.714286E-2,-0E0,-0E0,-5.555556E-2,-0E0,-5.7009345E-1,-0E0,-3.3333335E-2,-0E0,5.625E-1,-8.431373E-2,-0E0,3.1707317E-1,-2.5490198E-1,-0E0,-7.272728E-2,-1.4285715E-2,-0E0,-2.727273E-2,4.4444445E-1,-2.5E-2,1.4285715E-1,-5.1724136E-2,-0E0,-0E0,4.0000003E-2,-2.5E-2,-0E0,-0E0,7.5609756E-1,-0E0,8.026316E-2,-1.4285715E-2,6.111111E-2,-4.4444446E-2,3.3333335E-2,-7.6E-2,-0E0,3.548387E-2,-3.3333335E-2,-5.294118E-2,-0E0,6.75E-2,1.03448285E-2,-4.8214287E-2,7.1428576E-3,-0E0,-8.113208E-2,-3.75E-2,-0E0,5.6250002E-2,-0E0,-4.5454547E-2,-0E0,3.846154E-2,-0E0,2.909091E-2,6.388889E-2,-3.3333335E-2,3.6842104E-2,4.2105265E-2,-1.25E-2,-0E0,1.4285715E-2,-6.0784318E-2,-0E0,-3.3333335E-2,6.6666673E-3,7.037037E-2,-0E0,3.888889E-2,-0E0,-4.4E-2,1.6129032E-2,6.0000002E-2,-0E0,2.0000001E-2,-0E0,7.894737E-2,-0E0],"categories":[],"categories_nodes":[],"categories_segments":[],"categories_sizes":[],"default_left":[0,0,0,0,0,0,0,0,0,0,0,0,0,0,0,0,0,0,0,0,0,0,0,0,0,0,0,0,0,0,0,0,0,0,0,0,0,0,0,0,0,0,0,0,0,0,0,0,0,0,0,0,0,0,0,0,0,0,0,0,0,0,0,0,0,0,0,0,0,0,0,0,0,0,0,0,0,0,0,0,0,0,0,0,0,0,0,0,0,0,0,0,0,0,0,0,0,0,0,0,0,0,0,0,0,0,0,0,0,0,0,0,0,0,0,0,0,0,0,0,0,0,0,0,0,0,0,0,0,0,0,0,0,0,0,0,0,0,0,0,0,0,0,0,0,0,0,0,0,0,0,0,0,0,0,0,0,0,0,0,0,0,0,0,0,0,0,0,0,0,0,0,0,0,0,0,0,0,0,0,0,0,0,0,0,0,0,0,0,0,0,0,0,0,0,0,0,0,0,0,0,0,0,0,0,0,0,0,0,0,0,0,0,0,0,0,0,0,0,0,0,0,0,0,0,0,0,0,0,0,0,0,0,0,0,0,0,0,0,0,0,0,0,0,0,0,0,0,0,0,0,0,0,0,0,0,0,0,0,0,0,0,0,0,0,0,0,0,0],"id":6,"left_children":[1,3,5,-1,7,9,11,13,15,17,19,21,23,25,27,29,31,33,35,37,39,41,43,45,47,49,51,53,55,57,59,61,63,-1,-1,-1,65,67,69,71,-1,-1,73,-1,-1,75,77,-1,79,81,83,85,87,89,-1,-1,-1,91,93,95,97,99,101,-1,103,-1,-1,105,107,109,111,-1,113,-1,-1,115,-1,-1,-1,117,-1,119,-1,121,123,125,127,129,131,-1,-1,133,135,-1,137,139,-1,141,143,145,147,-1,149,-1,151,-1,-1,153,-1,155,-1,157,159,-1,161,163,165,-1,167,-1,-1,-1,-1,169,171,173,175,177,179,181,183,185,187,189,191,193,-1,-1,-1,195,197,199,-1,201,203,-1,205,-1,-1,-1,207,-1,-1,-1,-1,-1,-1,209,211,-1,-1,-1,-1,213,215,-1,217,-1,-1,219,-1,221,223,225,227,229,231,233,235,237,239,-1,-1,241,243,245,247,-1,249,-1,-1,-1,-1,251,253,-1,-1,255,257,-1,-1,259,261,-1,-1,-1,-1,-1,263,-1,265,-1,-1,-1,-1,-1,-1,-1,267,-1,-1,-1,-1,-1,-1,-1,-1,-1,-1,-1,-1,-1,-1,-1,-1,-1,-1,-1,-1,-1,-1,-1,-1,-1,-1,-1,-1,-1,-1,-1,-1,-1,-1,-1,-1,-1,-1,-1,-1,-1,-1,-1,-1,-1,-1,-1,-1,-1,-1],"loss_changes":[2.9220425E2,3.5651355E2,2.145932E1,0E0,1.6227415E2,3.4338852E1,3.7262726E0,9.788028E1,4.1789703E1,8.145653E0,2.9669638E1,4.7543335E0,1.4652679E1,5.568862E1,1.25709305E1,2.415812E1,1.3092834E1,5E-1,1.819458E0,6.4313726E0,3.5842037E0,6.6038513E-1,2.857143E-1,1.7736012E1,2.6082E0,2.4200089E1,2.948135E1,3.1209183E0,2.7060606E0,1.1906174E1,2.4894629E1,4.331024E0,5.283531E0,0E0,0E0,0E0,4.8420715E-1,7.1904764E0,6.15602E0,3.0678349E0,0E0,0E0,6.931305E-1,0E0,0E0,3.190714E0,1.6615381E0,0E0,1.5158005E0,3.5377781E0,1.0518349E1,3.5060104E1,2.0690908E1,6.39061E-1,0E0,0E0,0E0,5.8215866E0,5.540474E0,5.6996136E0,1.2013657E1,4.404022E0,4.9394646E0,0E0,9.3421054E-1,0E0,0E0,1.428566E-1,4.522727E0,4.105364E0,2.59501E0,0E0,3.4388695E0,0E0,0E0,3.725769E0,0E0,0E0,0E0,8.425446E0,0E0,2.1490908E0,0E0,9.076923E-1,7.821327E0,2.634275E1,2.770316E1,5.0815253E0,6.233513E0,0E0,0E0,7.784897E0,5.450609E0,0E0,6.377411E-1,4.55606E0,0E0,2.4725418E0,6.805504E0,1.3087158E0,2.1E0,0E0,4.011584E0,0E0,2.2727251E-2,0E0,0E0,1.5192308E0,0E0,2.5476189E0,0E0,1.5239477E0,6.666666E-1,0E0,4.1259003E-1,7.8321683E-1,1.0251427E-1,0E0,9.076923E-1,0E0,0E0,0E0,0E0,2.455513E0,6.268404E0,1.2317337E1,1.2116631E1,6.7870865E0,5.7259736E0,1.7252083E0,1.1294118E0,2.9942703E0,8.435555E0,3.0827093E-1,2.033816E0,3.9703903E0,0E0,0E0,0E0,6.666666E-1,5.8E0,4.0304947E-1,0E0,9.878899E0,7.636356E-2,0E0,1.4285715E-1,0E0,0E0,0E0,4.013737E0,0E0,0E0,0E0,0E0,0E0,0E0,7.8571427E-1,1.9893899E0,0E0,0E0,0E0,0E0,9.076923E-1,4.090909E-1,0E0,1.66296E-1,0E0,0E0,3.1459808E-1,0E0,4.3308916E0,4.164251E0,5.676609E0,6.550285E0,1.8556147E0,1.1460789E1,7.796219E0,3.4891815E0,1.45E0,3.0762196E0,0E0,0E0,1.6727272E0,1.3936651E0,2.7429237E0,4.245614E0,0E0,4.106842E0,0E0,0E0,0E0,0E0,1.4285715E-1,2.9105759E0,0E0,0E0,1.0666667E0,6.49074E0,0E0,0E0,1.3224936E0,8.699001E0,0E0,0E0,0E0,0E0,0E0,1.8444445E0,0E0,1.1428571E-1,0E0,0E0,0E0,0E0,0E0,0E0,0E0,2.4518585E-1,0E0,0E0,0E0,0E0,0E0,0E0,0E0,0E0,0E0,0E0,0E0,0E0,0E0,0E0,0E0,0E0,0E0,0E0,0E0,0E0,0E0,0E0,0E0,0E0,0E0,0E0,0E0,0E0,0E0,0E0,0E0,0E0,0E0,0E0,0E0,0E0,0E0,0E0,0E0,0E0,0E0,0E0,0E0,0E0,0E0,0E0,0E0,0E0,0E0,0E0],"parents":[2147483647,0,0,1,1,2,2,4,4,5,5,6,6,7,7,8,8,9,9,10,10,11,11,12,12,13,13,14,14,15,15,16,16,17,17,18,18,19,19,20,20,21,21,22,22,23,23,24,24,25,25,26,26,27,27,28,28,29,29,30,30,31,31,32,32,36,36,37,37,38,38,39,39,42,42,45,45,46,46,48,48,49,49,50,50,51,51,52,52,53,53,57,57,58,58,59,59,60,60,61,61,62,62,64,64,67,67,68,68,69,69,70,70,72,72,75,75,79,79,81,81,83,83,84,84,85,85,86,86,87,87,88,88,91,91,92,92,94,94,95,95,97,97,98,98,99,99,100,100,102,102,104,104,107,107,109,109,111,111,112,112,114,114,115,115,116,116,118,118,123,123,124,124,125,125,126,126,127,127,128,128,129,129,130,130,131,131,132,132,133,133,134,134,135,135,139,139,140,140,141,141,143,143,144,144,146,146,150,150,157,157,158,158,163,163,164,164,166,166,169,169,171,171,172,172,173,173,174,174,175,175,176,176,177,177,178,178,179,179,180,180,183,183,184,184,185,185,186,186,188,188,193,193,194,194,197,197,198,198,201,201,202,202,208,208,210,210,218,218],"right_children":[2,4,6,-1,8,10,12,14,16,18,20,22,24,26,28,30,32,34,36,38,40,42,44,46,48,50,52,54,56,58,60,62,64,-1,-1,-1,66,68,70,72,-1,-1,74,-1,-1,76,78,-1,80,82,84,86,88,90,-1,-1,-1,92,94,96,98,100,102,-1,104,-1,-1,106,108,110,112,-1,114,-1,-1,116,-1,-1,-1,118,-1,120,-1,122,124,126,128,130,132,-1,-1,134,136,-1,138,140,-1,142,144,146,148,-1,150,-1,152,-1,-1,154,-1,156,-1,158,160,-1,162,164,166,-1,168,-1,-1,-1,-1,170,172,174,176,178,180,182,184,186,188,190,192,194,-1,-1,-1,196,198,200,-1,202,204,-1,206,-1,-1,-1,208,-1,-1,-1,-1,-1,-1,210,212,-1,-1,-1,-1,214,216,-1,218,-1,-1,220,-1,222,224,226,228,230,232,234,236,238,240,-1,-1,242,244,246,248,-1,250,-1,-1,-1,-1,252,254,-1,-1,256,258,-1,-1,260,262,-1,-1,-1,-1,-1,264,-1,266,-1,-1,-1,-1,-1,-1,-1,268,-1,-1,-1,-1,-1,-1,-1,-1,-1,-1,-1,-1,-1,-1,-1,-1,-1,-1,-1,-1,-1,-1,-1,-1,-1,-1,-1,-1,-1,-1,-1,-1,-1,-1,-1,-1,-1,-1,-1,-1,-1,-1,-1,-1,-1,-1,-1,-1,-1,-1],"split_conditions":[9.2930335E-1,8.889634E-2,3.241796E-1,3.371864E-2,6.8665725E-1,5.311789E-1,3.3333334E-1,5.999789E-1,2.2802326E-1,3.9715335E-1,9.298058E-2,9.226944E-1,4.4946235E-1,3.843606E-1,3.827957E-1,2.8182894E-1,5.516957E-1,3.376344E-1,4.0050778E-1,4.8438933E-1,9.499865E-1,2.9688987E-1,3.304957E-1,6.817618E-1,3.6305934E-1,3.8292012E-1,4.5224977E-1,8.334608E-2,4.7866646E-2,7.1723506E-2,2.4074113E-1,4.2365593E-1,1.4176479E-1,-3.2839995E-2,2.6842717E-2,1.3702989E-2,2.0215054E-1,2.8243855E-1,7.3840964E-1,4.5699778E-1,-1.4356762E-3,8.217299E-3,5.2859855E-1,5.290207E-2,-4.0910244E-3,1.7193712E-1,3.0979675E-1,-4.6361745E-3,4.643691E-1,4.27957E-1,1.9772072E-1,1.585005E-1,3.268817E-1,2.4116744E-1,9.475351E-5,-3.5473898E-2,9.729094E-3,8.137537E-2,3.7634408E-1,8.318401E-1,3.5913977E-1,6.1118466E-1,3.987623E-1,-1.66174E-2,4.1290322E-1,3.552208E-2,2.805061E-2,4.9857187E-1,7.322016E-1,8.395779E-2,3.892473E-1,-9.088943E-3,4.3801653E-1,4.5842107E-2,3.8425328E-4,4.172043E-1,-1.9628243E-3,-3.6090314E-3,-7.7281683E-3,7.500943E-1,2.3559777E-2,1.08885154E-1,1.53382365E-2,4.2605522E-1,7.5716895E-1,3.8064516E-1,1.299893E-1,2.4797474E-1,1.4745784E-1,-1.9120902E-2,-6.188277E-2,8.79258E-1,4.9968264E-1,2.288264E-3,5.031736E-1,3.5053763E-1,-2.7511863E-2,2.9410958E-1,5.6895745E-1,6.7914945E-1,3.2349306E-1,-4.8103333E-2,4.0955004E-1,-2.134967E-3,3.5307622E-1,-6.7715943E-3,-4.5766355E-3,6.3077337E-1,-1.7885804E-3,3.7813392E-1,-7.304162E-4,2.8175202E-1,3.987623E-1,-2.926296E-3,2.8172043E-1,5.107075E-1,4.1510633E-1,2.7235484E-2,7.646429E-2,-7.62063E-3,5.721891E-3,-2.134375E-2,3.054321E-4,3.7282985E-1,2.2802326E-1,4.1335726E-1,3.9256197E-1,4.8405847E-1,3.892473E-1,7.270278E-1,3.075269E-1,6.707469E-1,4.6556473E-1,6.560636E-2,5.4358445E-2,7.7658534E-1,7.550098E-2,-1.9240325E-2,-1.0748685E-3,2.8990796E-1,4.0863177E-1,6.621808E-2,-8.693272E-3,1.4956446E-1,3.6480483E-1,-8.450218E-2,1.471173E-1,-3.571845E-2,1.7763207E-2,-9.8898664E-2,2.0372762E-1,5.251688E-3,3.4698926E-2,-2.4233998E-3,1.0704937E-2,-4.7994675E-3,8.538294E-3,4.9908173E-1,3.1690237E-1,-3.9146156E-3,1.5575188E-2,1.3575554E-2,2.9446533E-2,5.1384002E-2,4.4536272E-1,1.6702687E-2,4.090909E-1,-8.066902E-3,1.4011139E-2,2.5591397E-1,1.1529938E-3,3.2258064E-1,3.1855005E-1,6.215177E-1,5.2410334E-1,4.4922248E-1,4.67788E-1,3.859673E-1,3.6623293E-1,3.9485767E-1,6.707469E-1,-1.3962007E-2,-1.3403863E-3,3.059179E-1,6.0438913E-1,4.9908173E-1,6.0788184E-1,-5.1247897E-3,6.3125867E-1,3.3797144E-3,4.6061873E-4,1.7300978E-2,-9.552536E-3,4.4903582E-1,9.446817E-1,2.7857304E-3,-9.995043E-3,7.3840964E-1,4.3017986E-1,-1.9521141E-2,-2.3943895E-2,4.8016503E-1,2.0244892E-1,-1.781385E-2,-7.62952E-3,-2.812012E-2,1.3924348E-2,-2.4031555E-2,4.344086E-1,-4.6102526E-3,4.168518E-1,-2.4510503E-3,5.293876E-4,-1.427519E-2,1.3047675E-2,-8.68568E-3,2.0288546E-2,2.1402638E-2,4.6326905E-1,6.696445E-3,2.3702474E-2,-1.0968441E-2,1.3602818E-2,-7.695821E-3,7.103795E-2,-9.042019E-3,2.6674868E-4,5.711168E-3,-1.25271E-2,-1.2100882E-2,1.0682881E-3,9.757831E-3,1.754123E-3,-1.1583093E-2,2.7383447E-3,2.5490762E-3,-3.0865598E-2,-9.022161E-3,4.02818E-3,6.900001E-3,-8.6271764E-5,-1.3619858E-2,3.5585314E-3,2.3928524E-3,-5.68468E-3,4.543382E-3,1.5801517E-2,-3.8480877E-3,4.8083365E-3,9.844558E-3,-1.0137582E-2,-2.2213627E-2,5.3634644E-3,-8.214667E-3,1.3364733E-3,-4.0106177E-3,2.0282567E-3,9.793833E-3,-5.05479E-3,8.443636E-3,-6.635958E-3,-7.11295E-3,1.3383449E-3,9.365273E-3,-1.9049406E-3,3.3393802E-4,5.9199333E-4,1.3164227E-2,3.413495E-2],"split_indices":[15,11,3,0,6,6,12,17,11,2,1,6,4,6,4,7,3,4,0,2,5,0,3,6,0,2,2,1,1,1,10,4,1,0,0,0,4,3,6,0,0,0,9,0,0,9,7,0,3,4,3,11,4,6,0,0,0,10,4,8,4,7,0,0,4,0,0,0,5,1,4,0,2,0,0,4,0,0,0,5,0,1,0,0,7,4,1,3,9,0,0,8,0,0,0,4,0,3,7,0,3,0,2,0,2,0,0,5,0,0,0,3,0,0,4,6,0,0,1,0,0,0,0,8,11,14,2,8,4,5,4,6,2,1,7,6,0,0,0,0,2,1,0,9,0,0,1,0,0,0,10,0,0,0,0,0,0,2,3,0,0,0,0,1,2,0,2,0,0,4,0,4,3,10,6,0,0,3,0,2,6,0,0,3,6,2,8,0,8,0,0,0,0,2,6,0,0,6,3,0,0,0,9,0,0,0,0,0,4,0,0,0,0,0,0,0,0,0,2,0,0,0,0,0,0,0,0,0,0,0,0,0,0,0,0,0,0,0,0,0,0,0,0,0,0,0,0,0,0,0,0,0,0,0,0,0,0,0,0,0,0,0,0,0,0,0,0,0,0],"split_type":[0,0,0,0,0,0,0,0,0,0,0,0,0,0,0,0,0,0,0,0,0,0,0,0,0,0,0,0,0,0,0,0,0,0,0,0,0,0,0,0,0,0,0,0,0,0,0,0,0,0,0,0,0,0,0,0,0,0,0,0,0,0,0,0,0,0,0,0,0,0,0,0,0,0,0,0,0,0,0,0,0,0,0,0,0,0,0,0,0,0,0,0,0,0,0,0,0,0,0,0,0,0,0,0,0,0,0,0,0,0,0,0,0,0,0,0,0,0,0,0,0,0,0,0,0,0,0,0,0,0,0,0,0,0,0,0,0,0,0,0,0,0,0,0,0,0,0,0,0,0,0,0,0,0,0,0,0,0,0,0,0,0,0,0,0,0,0,0,0,0,0,0,0,0,0,0,0,0,0,0,0,0,0,0,0,0,0,0,0,0,0,0,0,0,0,0,0,0,0,0,0,0,0,0,0,0,0,0,0,0,0,0,0,0,0,0,0,0,0,0,0,0,0,0,0,0,0,0,0,0,0,0,0,0,0,0,0,0,0,0,0,0,0,0,0,0,0,0,0,0,0,0,0,0,0,0,0,0,0,0,0,0,0,0,0,0,0,0,0],"sum_hessian":[3.267E3,2.537E3,7.3E2,2.52E2,2.285E3,3.22E2,4.08E2,1.27E3,1.015E3,1.28E2,1.94E2,1.9E2,2.18E2,1.124E3,1.46E2,5.62E2,4.53E2,8E0,1.2E2,1.32E2,6.2E1,1.84E2,6E0,8.5E1,1.33E2,2.44E2,8.8E2,1.35E2,1.1E1,2.62E2,3E2,4.26E2,2.7E1,4E0,4E0,5E0,1.15E2,5E1,8.2E1,5.7E1,5E0,3E0,1.81E2,3E0,3E0,6.3E1,2.2E1,4E0,1.29E2,2.6E1,2.18E2,5.69E2,3.11E2,1.31E2,4E0,4E0,7E0,1.47E2,1.15E2,9E1,2.1E2,3.75E2,5.1E1,1.2E1,1.5E1,3E0,1.12E2,3.1E1,1.9E1,2.5E1,5.7E1,3E0,5.4E1,1.78E2,3E0,5.9E1,4E0,6E0,1.6E1,2.7E1,1.02E2,2.1E1,5E0,9E0,2.09E2,2.79E2,2.9E2,5.1E1,2.6E2,3E0,1.28E2,3.4E1,1.13E2,5E0,1.1E2,8.4E1,6E0,5.4E1,1.56E2,3.65E2,1E1,2.1E1,3E1,3E0,1.2E1,2.8E1,3E0,1.2E1,7E0,2E1,5E0,4.9E1,8E0,3E0,5.1E1,1.6E1,4.3E1,1.8E1,9E0,1.8E1,3E0,6E0,3E0,1.55E2,5.4E1,1.02E2,1.77E2,2.37E2,5.3E1,2.7E1,2.4E1,2E2,6E1,1.5E1,1.9E1,1.09E2,4E0,1.07E2,3E0,8E0,7.6E1,5E1,4E0,1.35E2,2.1E1,3.59E2,6E0,6E0,4E0,9E0,2.1E1,5E0,7E0,3E0,9E0,3E0,1.7E1,1.4E1,3.5E1,3E0,5E0,3E0,4.8E1,9E0,7E0,3E0,4E1,6E0,3E0,1.51E2,4E0,3.5E1,1.9E1,5.5E1,4.7E1,1.8E1,1.59E2,1.32E2,1.05E2,1.6E1,3.7E1,2.3E1,4E0,1.1E1,1.3E1,1.74E2,2.6E1,1.4E1,4.6E1,1E1,5E0,5E0,1.4E1,6E0,1.03E2,3E0,5E0,1.6E1,6E1,4.7E1,3E0,3.7E1,9.8E1,3E0,1.8E1,3E0,3E0,7E0,1.4E1,4E0,1E1,2.5E1,1E1,3E0,6E0,4E0,3E0,3E0,3.7E1,3E0,1.48E2,3E0,3.2E1,1.4E1,5E0,4.6E1,9E0,2.7E1,2E1,1.3E1,5E0,7.6E1,8.3E1,1.08E2,2.4E1,3E0,1.02E2,1.2E1,4E0,2.8E1,9E0,7E0,4E0,9E0,4E0,1.06E2,6.8E1,1.1E1,1.5E1,3.4E1,1.2E1,3E0,3E0,9.8E1,5E0,5E0,1.1E1,5E1,1E1,3.2E1,5E0,7.1E1,2.7E1,1.1E1,3E0,6E0,4E0,3.4E1,3E0],"tree_param":{"num_deleted":"0","num_feature":"23","num_nodes":"269","size_leaf_vector":"1"}},{"base_weights":[3.15534E-2,9.7794116E-2,-5.284016E-2,-2.5386313E-1,5.3846157E-1,-7.4293226E-2,-6.1497325E-1,3.164557E-1,6.835165E-1,1.3353116E-2,-7.5141245E-1,-2.3577236E-1,-7.905138E-1,-2.9850746E-2,5.6989247E-1,-7.692308E-2,7.040359E-1,3.5582823E-1,-9.356725E-2,1.6666667E-1,-8.106509E-1,-4.6902654E-1,-2.189781E-2,-8.185484E-1,2.857143E-1,1.6666667E-1,-2.0512821E-1,6.342857E-1,-2E-1,-0E0,-2.5E-2,8.020478E-1,4.9044585E-1,-1.0144927E-1,4.789272E-1,-2.2418879E-1,1.534091E-1,-0E0,3.3333335E-2,-8.313253E-1,-0E0,-7.0149255E-1,-8E-2,-2.631579E-1,2.3076923E-1,-8.360656E-1,-0E0,-0E0,4.5454547E-2,-5.882353E-2,4.6666667E-1,-3.3333334E-1,4E-2,7.037037E-1,-5.882353E-2,-4.0000003E-2,-0E0,8.309859E-1,-0E0,1.904762E-1,7.6623374E-1,-6.842106E-2,7.4074075E-2,3.6144577E-2,6.593407E-1,-5.1359516E-2,-3.7891737E-1,-4.347826E-1,2.451613E-1,-9.117647E-2,-3.529412E-1,-7.704918E-1,-0E0,-3.3333334E-1,2.3809524E-1,-6.8E-1,-1.8181818E-2,-3.6842105E-1,4.8E-1,-9.432177E-2,-6.1142856E-1,-0E0,2.5E-2,-3.6E-1,3.846154E-2,-1.4285715E-2,6.2962964E-2,-3.7037036E-1,-0E0,-1.1111111E-2,2E-1,-0E0,7.4834436E-1,1.1111111E-2,-3.3333335E-2,8.434164E-1,-0E0,-3.3333335E-2,2.5E-2,6.1702126E-1,-2.682927E-1,8.082192E-1,-0E0,2.173913E-1,-3.3333335E-2,-2.7586207E-1,7.241379E-1,7.3333335E-1,-0E0,-3.7748346E-1,2.0652173E-1,-5.862069E-1,8.130081E-3,-6.4285713E-1,-0E0,5.1948052E-2,4.125E-1,-6E-1,7.692308E-2,-7.931035E-2,-0E0,-1.4285715E-2,1.4285715E-2,-4.6666667E-1,1.4285715E-2,-0E0,4.117647E-1,-7.272728E-2,-0E0,-2.5E-1,1.8518518E-1,-5.714286E-2,-0E0,-0E0,5.652174E-1,-0E0,-7.37931E-1,-4.5454547E-1,-0E0,-7.692308E-2,-5E-1,-0E0,3.3333335E-2,-2.0000001E-2,3.3333335E-2,1.4285715E-1,8.0597013E-1,2.5E-1,8.773946E-1,6.666667E-2,7.222222E-1,7.692308E-2,-4.375E-1,8.285715E-2,-0E0,4.4444445E-1,-2.857143E-1,1.5789473E-1,-4.883721E-1,-0E0,7.692308E-2,-0E0,8.333333E-1,-2.727273E-2,1.4285715E-1,-6.231884E-1,-1.3953489E-1,3.2026145E-1,-2.5714287E-1,-7.446808E-1,-3.0526316E-1,2.3255815E-1,-4.1463414E-1,-0E0,-7.6E-2,-3.846154E-2,2.3076923E-1,-3.529412E-1,1.7741935E-1,6.727273E-1,2.4770643E-1,-0E0,-7.1428575E-2,-0E0,2.0000001E-2,-5.555556E-2,-0E0,-0E0,5.714286E-2,-0E0,-4.1666666E-1,6.0000002E-2,-1.25E-1,1.4285715E-1,7.241379E-1,-4.7368422E-1,4.7368422E-1,-7.6978415E-1,-0E0,-5.7894737E-2,-0E0,-4.5454547E-2,5.263158E-2,-5.8333334E-2,-0E0,3.75E-1,-1.1111111E-2,-0E0,8.16794E-2,5E-2,-0E0,-0E0,8.901961E-2,-1.1111111E-2,4.0000003E-2,-0E0,7.5757575E-1,4.0000003E-2,-1.4285715E-2,-0E0,-6.1904766E-2,-0E0,6.1538465E-2,-4.5454547E-2,-0E0,3.3333335E-2,-0E0,-6.216216E-2,-0E0,-1.764706E-2,3.3333335E-2,-0E0,8.571429E-2,-1.4285715E-2,4.5454547E-2,-6.923077E-2,-0E0,-6.0000002E-2,2.0000001E-2,5.277778E-2,1.0588235E-2,6.6666673E-3,-5E-2,-0E0,-8.139535E-2,-6.8E-2,-1.3513513E-2,-0E0,5.757576E-2,-6.8E-2,-0E0,4.0000003E-2,-0E0,2.5E-2,-5.333334E-2,3.548387E-2,-2.5714288E-2,-0E0,7.254902E-2,-0E0,4.2424243E-2,-0E0,2.5E-2,-4.7368422E-2,-0E0,-0E0,-3.3333335E-2,-9.09091E-3,4.2857144E-2,-0E0,7.692308E-2,-0E0,-6.25E-2,6.0000002E-2,-0E0,-8.0152676E-2,-0E0,-1.4285715E-2,1.4285715E-2,-1.4285715E-2,2.5E-2,-3.3333335E-2,1.4285715E-2,-0E0,4.5454547E-2,-1.1111111E-2,-0E0,-0E0,1.4285715E-2,8.0000006E-2,-0E0,-3.3333335E-2,2.0000001E-2],"categories":[],"categories_nodes":[],"categories_segments":[],"categories_sizes":[],"default_left":[0,0,0,0,0,0,0,0,0,0,0,0,0,0,0,0,0,0,0,0,0,0,0,0,0,0,0,0,0,0,0,0,0,0,0,0,0,0,0,0,0,0,0,0,0,0,0,0,0,0,0,0,0,0,0,0,0,0,0,0,0,0,0,0,0,0,0,0,0,0,0,0,0,0,0,0,0,0,0,0,0,0,0,0,0,0,0,0,0,0,0,0,0,0,0,0,0,0,0,0,0,0,0,0,0,0,0,0,0,0,0,0,0,0,0,0,0,0,0,0,0,0,0,0,0,0,0,0,0,0,0,0,0,0,0,0,0,0,0,0,0,0,0,0,0,0,0,0,0,0,0,0,0,0,0,0,0,0,0,0,0,0,0,0,0,0,0,0,0,0,0,0,0,0,0,0,0,0,0,0,0,0,0,0,0,0,0,0,0,0,0,0,0,0,0,0,0,0,0,0,0,0,0,0,0,0,0,0,0,0,0,0,0,0,0,0,0,0,0,0,0,0,0,0,0,0,0,0,0,0,0,0,0,0,0,0,0,0,0,0,0,0,0,0,0,0,0,0,0,0,0,0,0,0,0,0,0,0,0,0,0,0,0,0,0,0,0,0,0,0,0,0,0,0,0,0,0,0,0,0,0,0,0,0,0,0,0,0,0,0,0,0,0],"id":7,"left_children":[1,-1,3,5,7,9,11,13,15,17,19,21,23,25,27,29,31,33,35,37,39,41,43,45,47,49,51,53,55,-1,-1,57,59,61,63,65,67,-1,-1,69,-1,71,73,75,77,79,81,-1,-1,83,85,87,89,91,93,-1,-1,95,97,99,101,-1,103,105,107,109,111,113,115,-1,117,119,121,123,125,127,129,131,133,-1,135,-1,-1,137,-1,-1,-1,139,-1,-1,141,143,145,-1,-1,147,-1,-1,-1,149,151,153,-1,155,-1,157,159,161,163,165,167,169,171,173,175,177,179,181,183,-1,-1,-1,-1,185,-1,-1,187,-1,-1,189,191,-1,-1,-1,193,195,197,199,-1,201,203,-1,-1,-1,-1,205,207,209,211,213,215,217,219,-1,-1,221,223,225,227,-1,-1,229,231,-1,233,235,237,239,241,243,245,247,249,-1,-1,-1,251,253,255,257,259,-1,-1,-1,-1,-1,-1,-1,-1,261,263,-1,265,267,269,271,273,275,277,-1,-1,-1,279,-1,281,283,-1,-1,-1,-1,285,287,-1,-1,-1,-1,289,-1,-1,291,-1,-1,-1,-1,-1,-1,-1,-1,-1,-1,-1,-1,-1,-1,-1,-1,-1,-1,-1,-1,-1,-1,-1,-1,-1,-1,-1,-1,-1,-1,-1,-1,-1,-1,-1,-1,-1,-1,-1,-1,-1,-1,-1,-1,-1,-1,-1,-1,-1,-1,-1,-1,-1,-1,-1,-1,-1,-1,-1,-1,-1,-1,-1,-1,-1,-1,-1,-1,-1,-1,-1,-1,-1],"loss_changes":[2.6530524E2,0E0,3.5990146E2,1.4531154E2,2.183458E1,9.178307E1,4.6992645E1,2.8882439E1,8.570557E0,5.0018173E1,1.14546585E1,1.1249304E1,1.7267975E1,4.829315E0,1.0597111E1,4.2307693E-1,5.178299E0,1.9299973E1,3.337833E1,6.666666E-1,3.6637192E0,8.431742E0,8.659002E0,8.784088E0,1.12987E0,4.984314E0,3.0912821E0,9.875328E0,1E0,0E0,0E0,7.631439E0,1.0491077E1,8.480888E0,1.9363415E1,1.7192429E1,1.904382E1,0E0,0E0,2.5712204E0,0E0,3.2429657E0,4.5371428E0,6.3150244E0,1.0637409E1,6.3302E0,5E-1,0E0,0E0,5.0454297E0,4.313228E0,1.0740738E0,8.711111E-1,4.3406906E0,1.385621E0,0E0,0E0,3.777008E0,1.5E0,1.7797218E1,2.4771423E0,0E0,3.2109501E0,1.9512255E1,9.61245E0,2.849127E1,2.9336258E1,2.8757763E0,9.0083275E0,0E0,4.841629E0,2.6964188E-1,2.857143E-1,3.0095236E0,1.6918766E0,7.636356E-2,2.9077442E0,1.9924815E0,3.1756516E0,0E0,1.3535759E1,0E0,0E0,1.3054545E0,0E0,0E0,0E0,7.464385E-1,0E0,0E0,8.666666E-1,1.4E0,2.9104385E0,0E0,0E0,2.5336914E0,0E0,0E0,0E0,9.5082855E-1,3.2507033E0,3.7221146E-1,0E0,6.080055E0,0E0,6.315705E0,1.7771816E-1,1.126667E1,1.1038961E0,6.9549656E0,1.0159269E1,7.3199844E0,1.1691813E1,2.8685713E0,2.6153846E0,7.7229357E0,4.353983E0,1.7142859E0,3.2307693E-1,0E0,0E0,0E0,0E0,1.7999997E0,0E0,0E0,1.689076E0,0E0,0E0,2.1666665E0,4.7240744E0,0E0,0E0,0E0,9.398165E-1,8.526316E0,3.408287E0,1.8229666E0,0E0,2.1715126E0,1.6666698E-1,0E0,0E0,0E0,0E0,1.9325397E0,3.5217285E-1,2.5E0,1.1511383E0,1.6444445E0,1.6161537E-1,1.6659341E0,1.9226189E0,0E0,0E0,2.735043E0,1.12987E0,1.1929824E0,4.041484E0,0E0,0E0,1.8627452E0,2.8571396E0,0E0,2.12987E0,4.356745E0,1.4725581E1,5.315687E0,3.7523808E0,7.273628E0,4.0587206E0,6.2882314E0,4.51122E0,0E0,0E0,0E0,9.076923E-1,4.7980394E0,1.0120738E1,1.9522285E0,5.190715E0,0E0,0E0,0E0,0E0,0E0,0E0,0E0,0E0,5E-1,9.649134E-2,0E0,7.5E-1,2.233766E0,1.7771816E-1,1.9868422E0,1.1368423E0,1.7934036E0,2.857143E-1,0E0,0E0,0E0,1.0902256E0,0E0,1.1428572E0,2.2727251E-2,0E0,0E0,0E0,0E0,1.1111111E-1,1.4285715E-1,0E0,0E0,0E0,0E0,2.6060677E-1,0E0,0E0,1.4E0,0E0,0E0,0E0,0E0,0E0,0E0,0E0,0E0,0E0,0E0,0E0,0E0,0E0,0E0,0E0,0E0,0E0,0E0,0E0,0E0,0E0,0E0,0E0,0E0,0E0,0E0,0E0,0E0,0E0,0E0,0E0,0E0,0E0,0E0,0E0,0E0,0E0,0E0,0E0,0E0,0E0,0E0,0E0,0E0,0E0,0E0,0E0,0E0,0E0,0E0,0E0,0E0,0E0,0E0,0E0,0E0,0E0,0E0,0E0,0E0,0E0,0E0,0E0,0E0,0E0,0E0,0E0,0E0,0E0,0E0,0E0,0E0,0E0],"parents":[2147483647,0,0,2,2,3,3,4,4,5,5,6,6,7,7,8,8,9,9,10,10,11,11,12,12,13,13,14,14,15,15,16,16,17,17,18,18,19,19,20,20,21,21,22,22,23,23,24,24,25,25,26,26,27,27,28,28,31,31,32,32,33,33,34,34,35,35,36,36,39,39,41,41,42,42,43,43,44,44,45,45,46,46,49,49,50,50,51,51,52,52,53,53,54,54,57,57,58,58,59,59,60,60,62,62,63,63,64,64,65,65,66,66,67,67,68,68,70,70,71,71,72,72,73,73,74,74,75,75,76,76,77,77,78,78,80,80,83,83,87,87,90,90,91,91,92,92,95,95,99,99,100,100,101,101,103,103,105,105,106,106,107,107,108,108,109,109,110,110,111,111,112,112,113,113,114,114,115,115,116,116,117,117,118,118,123,123,126,126,129,129,130,130,134,134,135,135,136,136,137,137,139,139,140,140,145,145,146,146,147,147,148,148,149,149,150,150,151,151,152,152,155,155,156,156,157,157,158,158,161,161,162,162,164,164,165,165,166,166,167,167,168,168,169,169,170,170,171,171,172,172,176,176,177,177,178,178,179,179,180,180,189,189,190,190,192,192,193,193,194,194,195,195,196,196,197,197,198,198,202,202,204,204,205,205,210,210,211,211,216,216,219,219],"right_children":[2,-1,4,6,8,10,12,14,16,18,20,22,24,26,28,30,32,34,36,38,40,42,44,46,48,50,52,54,56,-1,-1,58,60,62,64,66,68,-1,-1,70,-1,72,74,76,78,80,82,-1,-1,84,86,88,90,92,94,-1,-1,96,98,100,102,-1,104,106,108,110,112,114,116,-1,118,120,122,124,126,128,130,132,134,-1,136,-1,-1,138,-1,-1,-1,140,-1,-1,142,144,146,-1,-1,148,-1,-1,-1,150,152,154,-1,156,-1,158,160,162,164,166,168,170,172,174,176,178,180,182,184,-1,-1,-1,-1,186,-1,-1,188,-1,-1,190,192,-1,-1,-1,194,196,198,200,-1,202,204,-1,-1,-1,-1,206,208,210,212,214,216,218,220,-1,-1,222,224,226,228,-1,-1,230,232,-1,234,236,238,240,242,244,246,248,250,-1,-1,-1,252,254,256,258,260,-1,-1,-1,-1,-1,-1,-1,-1,262,264,-1,266,268,270,272,274,276,278,-1,-1,-1,280,-1,282,284,-1,-1,-1,-1,286,288,-1,-1,-1,-1,290,-1,-1,292,-1,-1,-1,-1,-1,-1,-1,-1,-1,-1,-1,-1,-1,-1,-1,-1,-1,-1,-1,-1,-1,-1,-1,-1,-1,-1,-1,-1,-1,-1,-1,-1,-1,-1,-1,-1,-1,-1,-1,-1,-1,-1,-1,-1,-1,-1,-1,-1,-1,-1,-1,-1,-1,-1,-1,-1,-1,-1,-1,-1,-1,-1,-1,-1,-1,-1,-1,-1,-1,-1,-1,-1,-1],"split_conditions":[8.889634E-2,3.0346775E-2,9.2930335E-1,7.4174184E-1,4.3462393E-1,5.999789E-1,1.1401163E-1,3.892473E-1,2.1378553E-1,4.403927E-1,2.4116744E-1,2.7296445E-1,5.677605E-1,6.817618E-1,8.453247E-1,3.5268816E-1,3.3333334E-1,4.089178E-1,4.5546374E-1,2.5003433E-1,6.9651055E-1,3.579816E-1,4.7199264E-1,6.7914945E-1,6.16947E-1,4.687787E-1,3.1690237E-1,4.3049824E-1,8.775815E-1,2.4716897E-2,-1.7020255E-3,9.446817E-1,4.516129E-1,2.4083482E-1,2.5E-1,1.585005E-1,3.2258064E-1,-1.7208809E-2,7.0772977E-3,3.72043E-1,7.7831033E-3,5.8815426E-1,3.5913977E-1,3.827957E-1,2.8578228E-1,2.8182894E-1,3.6455464E-1,-1.9496446E-2,2.481946E-2,3.8064516E-1,2.4797474E-1,5.211203E-1,1.2219067E-1,4.2929292E-1,5.7437446E-2,-7.253182E-3,6.0222866E-3,9.6222043E-1,4.7337008E-1,5.2410334E-1,9.6453786E-1,-1.5662318E-2,7.936993E-2,1.1255544E-1,6.115333E-1,3.892473E-1,4.2262805E-1,2.4797474E-1,3.8321167E-1,-6.063037E-2,4.0986988E-1,3.6344087E-1,3.3978495E-1,6.361829E-2,4.2332414E-1,4.3462393E-1,2.538684E-1,3.1594124E-1,7.772029E-1,-5.1937353E-2,1.585005E-1,-2.0316789E-2,4.23443E-2,4.2605522E-1,5.922705E-4,-2.7846457E-3,8.489805E-3,7.5087935E-2,3.7596822E-3,-2.6572526E-3,4.8438933E-1,4E-1,3.9139786E-1,1.3594317E-2,-3.8046509E-3,2.3245916E-1,-8.99168E-3,-4.614496E-3,1.8563405E-2,3.9569893E-1,3.298281E-1,5.1606977E-1,3.7964137E-4,7.6589215E-1,-7.827292E-3,3.006763E-1,3.0107528E-1,3.3548388E-1,4.4922248E-1,4.077135E-1,6.3844216E-1,4.301555E-1,7.415252E-1,3.298281E-1,3.3100602E-1,2.794178E-1,6.988836E-2,3.0015105E-1,2.8243855E-1,-1.3500437E-2,-2.1584934E-2,-1.7680323E-2,2.5676072E-3,4.176452E-1,4.3535116E-3,-1.2118727E-3,2.3108609E-1,-1.0102711E-2,-4.5179664E-3,6.621808E-2,2.3135178E-1,-1.7572312E-2,3.0486286E-3,-6.169084E-3,2.9688987E-1,1.9932525E-1,8.388035E-1,6.4052814E-1,3.4395605E-3,7.309986E-2,8.845415E-1,-3.116438E-3,4.219291E-3,-5.745535E-3,2.899164E-2,7.4174184E-1,2.8578228E-1,5.322486E-1,6.713565E-2,4.6271026E-1,4.6031505E-2,8.811102E-1,6.28176E-1,1.2516414E-2,1.1912716E-2,3.670286E-2,3.1859452E-1,4.960927E-1,4.3209165E-1,1.3365443E-2,5.822844E-2,6.7973655E-1,1.2347076E-1,-3.50945E-3,6.23336E-1,3.241796E-1,3.548387E-1,4.7000954E-1,3.9569893E-1,4.569069E-1,3.3670136E-1,4.1935483E-1,1.4176479E-1,3.8189352E-3,-2.5660342E-2,-1.1267006E-2,6.0438913E-1,6.0775682E-2,6.254779E-2,5.107075E-1,4.752066E-1,-9.914604E-3,-3.9114572E-2,-2.1658147E-2,9.342509E-3,-6.93413E-3,6.667035E-2,-4.7051908E-5,8.820373E-3,6.53005E-2,4.1812122E-1,5.5854204E-3,4.077135E-1,9.0013474E-1,2.7612248E-1,8.166386E-2,2.4535473E-1,6.0488737E-1,3.443636E-1,-1.30492095E-2,4.231274E-4,-2.5791586E-3,3.72043E-1,-3.991738E-3,1.198344E-1,4.7245178E-1,-1.7929942E-3,2.0568371E-4,2.1451721E-2,1.2311424E-2,4.7778484E-1,2.7818206E-1,3.956319E-2,-5.86828E-3,2.3722503E-2,8.831024E-4,4.5350012E-1,9.246756E-3,-1.6790355E-2,4.172043E-1,-8.416355E-3,3.814681E-3,8.162436E-3,-7.2965412E-3,5.6606233E-3,3.0145755E-2,-5.0855963E-3,-5.498892E-3,1.0131001E-3,-3.2382966E-3,9.662415E-3,-5.713135E-4,1.9575179E-2,-4.1490197E-3,1.9413656E-2,-7.728243E-3,5.187516E-3,-1.2766737E-2,1.9531011E-3,5.8957487E-3,1.5787125E-3,3.8316846E-4,-6.4510377E-3,-9.684056E-4,-3.2979112E-2,-3.3234783E-2,-4.228136E-3,6.105304E-4,8.5590305E-3,-1.2836123E-2,1.4213324E-3,2.6400506E-3,-5.3604844E-4,1.3888687E-2,-8.029992E-3,6.2608123E-3,-4.6915472E-3,1.13861235E-2,1.12392455E-2,-2.8943538E-3,5.8811456E-3,-5.832547E-3,1.9616485E-3,-9.626687E-3,-7.1303607E-3,6.061673E-4,-6.897879E-3,-4.5902194E-3,1.3055295E-3,1.5236986E-2,4.653189E-3,2.1453798E-3,-1.0478127E-2,9.026557E-3,1.8817217E-3,-4.5482375E-2,-3.545847E-2,-4.383835E-2,1.272546E-2,-1.2052873E-2,4.4528247E-4,-2.2600652E-3,3.0277373E-4,6.4248354E-3,1.7164014E-2,-3.6756338E-3,1.22179985E-2,-1.0278285E-2,4.0559143E-2,2.6948914E-2,1.0079265E-2,-1.5180278E-2,3.8046285E-3],"split_indices":[11,0,15,6,0,17,11,4,3,6,6,3,3,6,5,4,12,0,2,3,2,0,2,0,0,2,3,0,6,0,0,6,4,3,22,11,4,0,0,4,0,2,4,4,0,7,2,0,0,4,3,2,7,2,9,0,0,5,2,6,5,0,1,1,5,4,3,3,0,0,0,4,4,1,2,0,7,3,5,0,11,0,0,0,0,0,0,1,0,0,2,4,4,0,0,3,0,0,0,4,7,2,0,7,0,6,4,4,0,2,8,10,5,7,0,3,1,3,3,0,0,0,0,0,0,0,3,0,0,1,10,0,0,0,0,9,5,5,0,1,8,0,0,0,0,6,0,6,1,0,1,5,6,0,0,1,8,5,6,0,0,10,5,0,5,3,4,0,4,8,8,4,1,0,0,0,6,9,1,6,2,0,0,0,0,0,0,0,0,1,0,0,2,5,3,1,9,0,3,0,0,0,4,0,7,2,0,0,0,0,0,3,0,0,0,0,8,0,0,4,0,0,0,0,0,0,0,0,0,0,0,0,0,0,0,0,0,0,0,0,0,0,0,0,0,0,0,0,0,0,0,0,0,0,0,0,0,0,0,0,0,0,0,0,0,0,0,0,0,0,0,0,0,0,0,0,0,0,0,0,0,0,0,0,0,0,0,0,0,0,0,0,0],"split_type":[0,0,0,0,0,0,0,0,0,0,0,0,0,0,0,0,0,0,0,0,0,0,0,0,0,0,0,0,0,0,0,0,0,0,0,0,0,0,0,0,0,0,0,0,0,0,0,0,0,0,0,0,0,0,0,0,0,0,0,0,0,0,0,0,0,0,0,0,0,0,0,0,0,0,0,0,0,0,0,0,0,0,0,0,0,0,0,0,0,0,0,0,0,0,0,0,0,0,0,0,0,0,0,0,0,0,0,0,0,0,0,0,0,0,0,0,0,0,0,0,0,0,0,0,0,0,0,0,0,0,0,0,0,0,0,0,0,0,0,0,0,0,0,0,0,0,0,0,0,0,0,0,0,0,0,0,0,0,0,0,0,0,0,0,0,0,0,0,0,0,0,0,0,0,0,0,0,0,0,0,0,0,0,0,0,0,0,0,0,0,0,0,0,0,0,0,0,0,0,0,0,0,0,0,0,0,0,0,0,0,0,0,0,0,0,0,0,0,0,0,0,0,0,0,0,0,0,0,0,0,0,0,0,0,0,0,0,0,0,0,0,0,0,0,0,0,0,0,0,0,0,0,0,0,0,0,0,0,0,0,0,0,0,0,0,0,0,0,0,0,0,0,0,0,0,0,0,0,0,0,0,0,0,0,0,0,0,0,0,0,0,0,0],"sum_hessian":[3.292E3,2.68E2,3.024E3,2.261E3,7.63E2,1.517E3,7.44E2,3.12E2,4.51E2,1.344E3,1.73E2,2.42E2,5.02E2,1.3E2,1.82E2,9E0,4.42E2,3.22E2,1.022E3,8E0,1.65E2,1.09E2,1.33E2,4.92E2,1E1,5.6E1,7.4E1,1.71E2,1.1E1,5E0,4E0,2.89E2,1.53E2,6.5E1,2.57E2,6.74E2,3.48E2,3E0,5E0,1.62E2,3E0,6.3E1,4.6E1,7.2E1,6.1E1,4.84E2,8E0,3E0,7E0,3E1,2.6E1,5.3E1,2.1E1,1.58E2,1.3E1,6E0,5E0,2.8E2,9E0,8E1,7.3E1,1.5E1,5E1,7.9E1,1.78E2,3.27E2,3.47E2,4.2E1,3.06E2,